{
    "HiddenLayers": [
        {
            "HiddenNeurons": [
                {
                    "Value": 0.0,
                    "PreviousLayerNeuronValues": [
                        -0.03501346707344055,
                        -0.06093772500753403,
                        0.006579214241355658,
                        0.017361484467983247,
                        -0.05899332836270332,
                        0.03242213651537895,
                        -0.05171428993344307,
                        -0.15579673647880555,
                        0.0028342842124402525,
                        0.031286291778087619,
                        -0.15321633219718934,
                        0.04362467676401138,
                        -0.05841292813420296,
                        -0.20888273417949677,
                        -0.02728673256933689,
                        0.06054689735174179,
                        -0.20582008361816407,
                        0.03134997934103012,
                        0.1336793303489685,
                        0.003302240278571844,
                        -0.0955919697880745
                    ],
                    "Weights": [
                        71.53707885742188,
                        -48.44243621826172,
                        -34.79067611694336,
                        -74.10031127929688,
                        44.33552932739258,
                        -29.337034225463868,
                        4.851722717285156,
                        34.465118408203128,
                        54.133460998535159,
                        139.33718872070313,
                        -35.24739456176758,
                        172.46353149414063,
                        64.12913513183594,
                        -0.8294525146484375,
                        66.55007934570313,
                        -99.16558837890625,
                        72.01810455322266,
                        -77.94569396972656,
                        5.117862701416016,
                        133.34686279296876,
                        -64.14730834960938
                    ],
                    "Bias": -61.77861785888672
                },
                {
                    "Value": 82.34164428710938,
                    "PreviousLayerNeuronValues": [
                        -0.03501346707344055,
                        -0.06093772500753403,
                        0.006579214241355658,
                        0.017361484467983247,
                        -0.05899332836270332,
                        0.03242213651537895,
                        -0.05171428993344307,
                        -0.15579673647880555,
                        0.0028342842124402525,
                        0.031286291778087619,
                        -0.15321633219718934,
                        0.04362467676401138,
                        -0.05841292813420296,
                        -0.20888273417949677,
                        -0.02728673256933689,
                        0.06054689735174179,
                        -0.20582008361816407,
                        0.03134997934103012,
                        0.1336793303489685,
                        0.003302240278571844,
                        -0.0955919697880745
                    ],
                    "Weights": [
                        147.60208129882813,
                        77.23768615722656,
                        -1.6456851959228516,
                        117.29193115234375,
                        65.93568420410156,
                        123.11979675292969,
                        87.5482177734375,
                        -131.09707641601563,
                        68.6477279663086,
                        114.5123062133789,
                        -74.65985107421875,
                        62.942535400390628,
                        54.05908966064453,
                        29.34253692626953,
                        -102.38800048828125,
                        2.912445068359375,
                        60.45686340332031,
                        -47.482765197753909,
                        49.03455352783203,
                        98.3416748046875,
                        -39.64713668823242
                    ],
                    "Bias": 65.80856323242188
                },
                {
                    "Value": 181.08306884765626,
                    "PreviousLayerNeuronValues": [
                        -0.03501346707344055,
                        -0.06093772500753403,
                        0.006579214241355658,
                        0.017361484467983247,
                        -0.05899332836270332,
                        0.03242213651537895,
                        -0.05171428993344307,
                        -0.15579673647880555,
                        0.0028342842124402525,
                        0.031286291778087619,
                        -0.15321633219718934,
                        0.04362467676401138,
                        -0.05841292813420296,
                        -0.20888273417949677,
                        -0.02728673256933689,
                        0.06054689735174179,
                        -0.20582008361816407,
                        0.03134997934103012,
                        0.1336793303489685,
                        0.003302240278571844,
                        -0.0955919697880745
                    ],
                    "Weights": [
                        -36.06599426269531,
                        -25.68694305419922,
                        -160.32720947265626,
                        80.23307800292969,
                        40.59102249145508,
                        55.44379425048828,
                        -9.288843154907227,
                        -103.48703002929688,
                        -26.723506927490236,
                        48.90125274658203,
                        -10.016109466552735,
                        -77.84461975097656,
                        3.4819726943969728,
                        -49.539772033691409,
                        -38.24958038330078,
                        -108.49974060058594,
                        -46.69953155517578,
                        -53.47951889038086,
                        97.27141571044922,
                        -92.54796600341797,
                        -125.9749755859375
                    ],
                    "Bias": 125.02375793457031
                },
                {
                    "Value": 28.208126068115236,
                    "PreviousLayerNeuronValues": [
                        -0.03501346707344055,
                        -0.06093772500753403,
                        0.006579214241355658,
                        0.017361484467983247,
                        -0.05899332836270332,
                        0.03242213651537895,
                        -0.05171428993344307,
                        -0.15579673647880555,
                        0.0028342842124402525,
                        0.031286291778087619,
                        -0.15321633219718934,
                        0.04362467676401138,
                        -0.05841292813420296,
                        -0.20888273417949677,
                        -0.02728673256933689,
                        0.06054689735174179,
                        -0.20582008361816407,
                        0.03134997934103012,
                        0.1336793303489685,
                        0.003302240278571844,
                        -0.0955919697880745
                    ],
                    "Weights": [
                        -10.503704071044922,
                        4.735424041748047,
                        81.4237289428711,
                        -19.646800994873048,
                        -26.538833618164064,
                        -2.240814208984375,
                        -31.795230865478517,
                        93.54783630371094,
                        -29.87537384033203,
                        -53.162750244140628,
                        82.49230194091797,
                        -69.58071899414063,
                        135.07350158691407,
                        116.0274658203125,
                        31.924793243408204,
                        -63.46539306640625,
                        -95.29356384277344,
                        -54.035667419433597,
                        67.27410125732422,
                        -122.72945404052735,
                        100.18543243408203
                    ],
                    "Bias": 76.70374298095703
                },
                {
                    "Value": 59.08544158935547,
                    "PreviousLayerNeuronValues": [
                        -0.03501346707344055,
                        -0.06093772500753403,
                        0.006579214241355658,
                        0.017361484467983247,
                        -0.05899332836270332,
                        0.03242213651537895,
                        -0.05171428993344307,
                        -0.15579673647880555,
                        0.0028342842124402525,
                        0.031286291778087619,
                        -0.15321633219718934,
                        0.04362467676401138,
                        -0.05841292813420296,
                        -0.20888273417949677,
                        -0.02728673256933689,
                        0.06054689735174179,
                        -0.20582008361816407,
                        0.03134997934103012,
                        0.1336793303489685,
                        0.003302240278571844,
                        -0.0955919697880745
                    ],
                    "Weights": [
                        26.103961944580079,
                        88.62255859375,
                        38.33351135253906,
                        -5.612751007080078,
                        29.684402465820314,
                        53.850379943847659,
                        -48.984413146972659,
                        -85.55939483642578,
                        -76.85734558105469,
                        24.102577209472658,
                        6.22613525390625,
                        -83.09455108642578,
                        65.662353515625,
                        -23.903379440307618,
                        65.0111083984375,
                        -68.01124572753906,
                        -35.66092300415039,
                        67.45516967773438,
                        45.67814636230469,
                        136.94186401367188,
                        -56.24357223510742
                    ],
                    "Bias": 36.774986267089847
                },
                {
                    "Value": 86.86842346191406,
                    "PreviousLayerNeuronValues": [
                        -0.03501346707344055,
                        -0.06093772500753403,
                        0.006579214241355658,
                        0.017361484467983247,
                        -0.05899332836270332,
                        0.03242213651537895,
                        -0.05171428993344307,
                        -0.15579673647880555,
                        0.0028342842124402525,
                        0.031286291778087619,
                        -0.15321633219718934,
                        0.04362467676401138,
                        -0.05841292813420296,
                        -0.20888273417949677,
                        -0.02728673256933689,
                        0.06054689735174179,
                        -0.20582008361816407,
                        0.03134997934103012,
                        0.1336793303489685,
                        0.003302240278571844,
                        -0.0955919697880745
                    ],
                    "Weights": [
                        -50.075836181640628,
                        -21.57049560546875,
                        6.853965759277344,
                        58.208831787109378,
                        -31.58580780029297,
                        -27.573680877685548,
                        -98.61173248291016,
                        -12.072879791259766,
                        32.97294235229492,
                        -91.13223266601563,
                        84.50309753417969,
                        60.475555419921878,
                        -59.404117584228519,
                        25.44314956665039,
                        130.88931274414063,
                        -103.89125061035156,
                        -157.14913940429688,
                        -66.69317626953125,
                        -7.3726806640625,
                        -35.012298583984378,
                        9.492313385009766
                    ],
                    "Bias": 71.32327270507813
                },
                {
                    "Value": 62.21036911010742,
                    "PreviousLayerNeuronValues": [
                        -0.03501346707344055,
                        -0.06093772500753403,
                        0.006579214241355658,
                        0.017361484467983247,
                        -0.05899332836270332,
                        0.03242213651537895,
                        -0.05171428993344307,
                        -0.15579673647880555,
                        0.0028342842124402525,
                        0.031286291778087619,
                        -0.15321633219718934,
                        0.04362467676401138,
                        -0.05841292813420296,
                        -0.20888273417949677,
                        -0.02728673256933689,
                        0.06054689735174179,
                        -0.20582008361816407,
                        0.03134997934103012,
                        0.1336793303489685,
                        0.003302240278571844,
                        -0.0955919697880745
                    ],
                    "Weights": [
                        -22.50912094116211,
                        -5.490665435791016,
                        53.653900146484378,
                        -35.099212646484378,
                        -88.36427307128906,
                        10.474197387695313,
                        -36.24858856201172,
                        128.69329833984376,
                        112.78910827636719,
                        -33.37767791748047,
                        -17.7288818359375,
                        -12.443170547485352,
                        -67.53927612304688,
                        20.916305541992189,
                        46.589141845703128,
                        34.34098434448242,
                        12.863386154174805,
                        59.01068115234375,
                        106.599853515625,
                        -34.29484176635742,
                        88.7350082397461
                    ],
                    "Bias": 67.27690124511719
                },
                {
                    "Value": 0.0,
                    "PreviousLayerNeuronValues": [
                        -0.03501346707344055,
                        -0.06093772500753403,
                        0.006579214241355658,
                        0.017361484467983247,
                        -0.05899332836270332,
                        0.03242213651537895,
                        -0.05171428993344307,
                        -0.15579673647880555,
                        0.0028342842124402525,
                        0.031286291778087619,
                        -0.15321633219718934,
                        0.04362467676401138,
                        -0.05841292813420296,
                        -0.20888273417949677,
                        -0.02728673256933689,
                        0.06054689735174179,
                        -0.20582008361816407,
                        0.03134997934103012,
                        0.1336793303489685,
                        0.003302240278571844,
                        -0.0955919697880745
                    ],
                    "Weights": [
                        -111.38565063476563,
                        53.273380279541019,
                        16.830408096313478,
                        1.1323223114013672,
                        -23.994827270507814,
                        -20.41753387451172,
                        -3.5904369354248049,
                        106.63922119140625,
                        -10.495960235595704,
                        42.15542984008789,
                        -33.727596282958987,
                        -58.677467346191409,
                        -2.9366683959960939,
                        -50.08667755126953,
                        28.934829711914064,
                        16.50014877319336,
                        28.108383178710939,
                        -23.157976150512697,
                        9.57833480834961,
                        -39.24298095703125,
                        -19.167497634887697
                    ],
                    "Bias": -96.89666748046875
                },
                {
                    "Value": 0.0,
                    "PreviousLayerNeuronValues": [
                        -0.03501346707344055,
                        -0.06093772500753403,
                        0.006579214241355658,
                        0.017361484467983247,
                        -0.05899332836270332,
                        0.03242213651537895,
                        -0.05171428993344307,
                        -0.15579673647880555,
                        0.0028342842124402525,
                        0.031286291778087619,
                        -0.15321633219718934,
                        0.04362467676401138,
                        -0.05841292813420296,
                        -0.20888273417949677,
                        -0.02728673256933689,
                        0.06054689735174179,
                        -0.20582008361816407,
                        0.03134997934103012,
                        0.1336793303489685,
                        0.003302240278571844,
                        -0.0955919697880745
                    ],
                    "Weights": [
                        16.440471649169923,
                        51.55315017700195,
                        28.474666595458986,
                        -7.39921760559082,
                        64.4604263305664,
                        46.76863098144531,
                        32.16820526123047,
                        27.221349716186525,
                        -76.71955871582031,
                        -64.84387969970703,
                        90.21231842041016,
                        68.93094635009766,
                        -33.162879943847659,
                        -93.21565246582031,
                        -65.88566589355469,
                        52.855255126953128,
                        39.042762756347659,
                        9.985183715820313,
                        85.95184326171875,
                        -29.178300857543947,
                        87.12869262695313
                    ],
                    "Bias": -22.618249893188478
                },
                {
                    "Value": 23.277311325073243,
                    "PreviousLayerNeuronValues": [
                        -0.03501346707344055,
                        -0.06093772500753403,
                        0.006579214241355658,
                        0.017361484467983247,
                        -0.05899332836270332,
                        0.03242213651537895,
                        -0.05171428993344307,
                        -0.15579673647880555,
                        0.0028342842124402525,
                        0.031286291778087619,
                        -0.15321633219718934,
                        0.04362467676401138,
                        -0.05841292813420296,
                        -0.20888273417949677,
                        -0.02728673256933689,
                        0.06054689735174179,
                        -0.20582008361816407,
                        0.03134997934103012,
                        0.1336793303489685,
                        0.003302240278571844,
                        -0.0955919697880745
                    ],
                    "Weights": [
                        90.34158325195313,
                        -117.51673889160156,
                        94.16255187988281,
                        -101.64739227294922,
                        82.99003601074219,
                        119.68679809570313,
                        -24.701488494873048,
                        35.44866180419922,
                        106.9581069946289,
                        -109.69774627685547,
                        -78.67451477050781,
                        -12.352653503417969,
                        -81.17887115478516,
                        69.67817687988281,
                        34.87334060668945,
                        74.64083099365235,
                        -28.845508575439454,
                        -45.52796173095703,
                        -102.43180847167969,
                        13.908863067626954,
                        -56.913875579833987
                    ],
                    "Bias": 27.24065399169922
                },
                {
                    "Value": 0.0,
                    "PreviousLayerNeuronValues": [
                        -0.03501346707344055,
                        -0.06093772500753403,
                        0.006579214241355658,
                        0.017361484467983247,
                        -0.05899332836270332,
                        0.03242213651537895,
                        -0.05171428993344307,
                        -0.15579673647880555,
                        0.0028342842124402525,
                        0.031286291778087619,
                        -0.15321633219718934,
                        0.04362467676401138,
                        -0.05841292813420296,
                        -0.20888273417949677,
                        -0.02728673256933689,
                        0.06054689735174179,
                        -0.20582008361816407,
                        0.03134997934103012,
                        0.1336793303489685,
                        0.003302240278571844,
                        -0.0955919697880745
                    ],
                    "Weights": [
                        -17.264232635498048,
                        -19.62651824951172,
                        -5.2741241455078129,
                        -40.020057678222659,
                        -3.8038177490234377,
                        109.4415283203125,
                        19.106569290161134,
                        10.495742797851563,
                        22.525251388549806,
                        -50.803958892822269,
                        -75.94985961914063,
                        -15.736602783203125,
                        112.27449035644531,
                        41.492923736572269,
                        -14.932296752929688,
                        -68.413330078125,
                        -95.71994018554688,
                        -34.28399658203125,
                        23.108793258666993,
                        27.421436309814454,
                        -155.22561645507813
                    ],
                    "Bias": -83.99212646484375
                },
                {
                    "Value": 0.0,
                    "PreviousLayerNeuronValues": [
                        -0.03501346707344055,
                        -0.06093772500753403,
                        0.006579214241355658,
                        0.017361484467983247,
                        -0.05899332836270332,
                        0.03242213651537895,
                        -0.05171428993344307,
                        -0.15579673647880555,
                        0.0028342842124402525,
                        0.031286291778087619,
                        -0.15321633219718934,
                        0.04362467676401138,
                        -0.05841292813420296,
                        -0.20888273417949677,
                        -0.02728673256933689,
                        0.06054689735174179,
                        -0.20582008361816407,
                        0.03134997934103012,
                        0.1336793303489685,
                        0.003302240278571844,
                        -0.0955919697880745
                    ],
                    "Weights": [
                        -78.98440551757813,
                        -43.00151824951172,
                        -66.00922393798828,
                        96.94252014160156,
                        116.9660415649414,
                        -106.04316711425781,
                        -8.923990249633789,
                        -51.20528793334961,
                        23.022254943847658,
                        10.925662994384766,
                        8.755826950073243,
                        122.00086975097656,
                        34.820030212402347,
                        4.070949554443359,
                        -19.205032348632814,
                        -58.070037841796878,
                        -36.33201599121094,
                        -5.300323486328125,
                        -58.20456314086914,
                        -78.422119140625,
                        -40.211456298828128
                    ],
                    "Bias": -53.54571533203125
                },
                {
                    "Value": 38.369102478027347,
                    "PreviousLayerNeuronValues": [
                        -0.03501346707344055,
                        -0.06093772500753403,
                        0.006579214241355658,
                        0.017361484467983247,
                        -0.05899332836270332,
                        0.03242213651537895,
                        -0.05171428993344307,
                        -0.15579673647880555,
                        0.0028342842124402525,
                        0.031286291778087619,
                        -0.15321633219718934,
                        0.04362467676401138,
                        -0.05841292813420296,
                        -0.20888273417949677,
                        -0.02728673256933689,
                        0.06054689735174179,
                        -0.20582008361816407,
                        0.03134997934103012,
                        0.1336793303489685,
                        0.003302240278571844,
                        -0.0955919697880745
                    ],
                    "Weights": [
                        67.95342254638672,
                        -67.94038391113281,
                        119.39981079101563,
                        26.79799461364746,
                        -22.455204010009767,
                        16.44786834716797,
                        32.357120513916019,
                        -103.15917205810547,
                        -103.52996063232422,
                        -22.23953628540039,
                        68.24485778808594,
                        46.90203857421875,
                        110.36445617675781,
                        -28.641359329223634,
                        62.36437225341797,
                        -59.92456817626953,
                        -18.28288459777832,
                        -79.56900787353516,
                        45.83296585083008,
                        -37.99969482421875,
                        8.112712860107422
                    ],
                    "Bias": 27.799861907958986
                },
                {
                    "Value": 73.27632904052735,
                    "PreviousLayerNeuronValues": [
                        -0.03501346707344055,
                        -0.06093772500753403,
                        0.006579214241355658,
                        0.017361484467983247,
                        -0.05899332836270332,
                        0.03242213651537895,
                        -0.05171428993344307,
                        -0.15579673647880555,
                        0.0028342842124402525,
                        0.031286291778087619,
                        -0.15321633219718934,
                        0.04362467676401138,
                        -0.05841292813420296,
                        -0.20888273417949677,
                        -0.02728673256933689,
                        0.06054689735174179,
                        -0.20582008361816407,
                        0.03134997934103012,
                        0.1336793303489685,
                        0.003302240278571844,
                        -0.0955919697880745
                    ],
                    "Weights": [
                        -103.1124038696289,
                        -45.14939880371094,
                        -45.19123458862305,
                        -49.073482513427737,
                        -69.79841613769531,
                        -6.834403991699219,
                        85.29127502441406,
                        32.83039855957031,
                        -86.96573638916016,
                        47.941650390625,
                        -11.622028350830079,
                        50.156646728515628,
                        71.11544799804688,
                        -127.96391296386719,
                        -8.180583953857422,
                        18.676795959472658,
                        80.16291809082031,
                        -39.685245513916019,
                        125.41966247558594,
                        -29.350318908691408,
                        10.4736328125
                    ],
                    "Bias": 46.61736297607422
                },
                {
                    "Value": 0.0,
                    "PreviousLayerNeuronValues": [
                        -0.03501346707344055,
                        -0.06093772500753403,
                        0.006579214241355658,
                        0.017361484467983247,
                        -0.05899332836270332,
                        0.03242213651537895,
                        -0.05171428993344307,
                        -0.15579673647880555,
                        0.0028342842124402525,
                        0.031286291778087619,
                        -0.15321633219718934,
                        0.04362467676401138,
                        -0.05841292813420296,
                        -0.20888273417949677,
                        -0.02728673256933689,
                        0.06054689735174179,
                        -0.20582008361816407,
                        0.03134997934103012,
                        0.1336793303489685,
                        0.003302240278571844,
                        -0.0955919697880745
                    ],
                    "Weights": [
                        2.181020736694336,
                        123.312744140625,
                        99.86064910888672,
                        -75.13856506347656,
                        12.655517578125,
                        -4.744381904602051,
                        -31.239213943481447,
                        89.08869934082031,
                        -24.305572509765626,
                        69.51561737060547,
                        48.08583068847656,
                        -104.78729248046875,
                        1.5777740478515626,
                        -75.2441635131836,
                        72.42398071289063,
                        16.21561050415039,
                        -59.56649398803711,
                        -42.80705261230469,
                        -49.32664489746094,
                        37.509483337402347,
                        -61.83660125732422
                    ],
                    "Bias": -78.53462982177735
                },
                {
                    "Value": 86.46761322021485,
                    "PreviousLayerNeuronValues": [
                        -0.03501346707344055,
                        -0.06093772500753403,
                        0.006579214241355658,
                        0.017361484467983247,
                        -0.05899332836270332,
                        0.03242213651537895,
                        -0.05171428993344307,
                        -0.15579673647880555,
                        0.0028342842124402525,
                        0.031286291778087619,
                        -0.15321633219718934,
                        0.04362467676401138,
                        -0.05841292813420296,
                        -0.20888273417949677,
                        -0.02728673256933689,
                        0.06054689735174179,
                        -0.20582008361816407,
                        0.03134997934103012,
                        0.1336793303489685,
                        0.003302240278571844,
                        -0.0955919697880745
                    ],
                    "Weights": [
                        -63.5694580078125,
                        86.52559661865235,
                        -29.040340423583986,
                        -10.955366134643555,
                        58.12565612792969,
                        -48.64326477050781,
                        -111.09081268310547,
                        40.674564361572269,
                        -31.91168212890625,
                        8.249008178710938,
                        55.46113204956055,
                        -22.340065002441408,
                        60.17192840576172,
                        -13.519279479980469,
                        -21.234535217285158,
                        -16.897354125976564,
                        76.51846313476563,
                        -1.367919921875,
                        -111.76981353759766,
                        69.04263305664063,
                        -56.26116180419922
                    ],
                    "Bias": 131.06004333496095
                },
                {
                    "Value": 80.1164321899414,
                    "PreviousLayerNeuronValues": [
                        -0.03501346707344055,
                        -0.06093772500753403,
                        0.006579214241355658,
                        0.017361484467983247,
                        -0.05899332836270332,
                        0.03242213651537895,
                        -0.05171428993344307,
                        -0.15579673647880555,
                        0.0028342842124402525,
                        0.031286291778087619,
                        -0.15321633219718934,
                        0.04362467676401138,
                        -0.05841292813420296,
                        -0.20888273417949677,
                        -0.02728673256933689,
                        0.06054689735174179,
                        -0.20582008361816407,
                        0.03134997934103012,
                        0.1336793303489685,
                        0.003302240278571844,
                        -0.0955919697880745
                    ],
                    "Weights": [
                        140.74974060058595,
                        -26.23990249633789,
                        81.83731842041016,
                        -41.465126037597659,
                        20.939105987548829,
                        123.62644958496094,
                        11.006414413452149,
                        -45.99553298950195,
                        -144.16537475585938,
                        -50.96211624145508,
                        24.776626586914064,
                        99.84235382080078,
                        -3.3108482360839845,
                        -85.83683013916016,
                        18.65768051147461,
                        -56.57463073730469,
                        -9.217166900634766,
                        -24.72661590576172,
                        -40.29133987426758,
                        -28.60651206970215,
                        32.83234786987305
                    ],
                    "Bias": 69.00941467285156
                },
                {
                    "Value": 0.0,
                    "PreviousLayerNeuronValues": [
                        -0.03501346707344055,
                        -0.06093772500753403,
                        0.006579214241355658,
                        0.017361484467983247,
                        -0.05899332836270332,
                        0.03242213651537895,
                        -0.05171428993344307,
                        -0.15579673647880555,
                        0.0028342842124402525,
                        0.031286291778087619,
                        -0.15321633219718934,
                        0.04362467676401138,
                        -0.05841292813420296,
                        -0.20888273417949677,
                        -0.02728673256933689,
                        0.06054689735174179,
                        -0.20582008361816407,
                        0.03134997934103012,
                        0.1336793303489685,
                        0.003302240278571844,
                        -0.0955919697880745
                    ],
                    "Weights": [
                        -2.2118282318115236,
                        -6.048742294311523,
                        50.032894134521487,
                        -134.095947265625,
                        28.997894287109376,
                        25.776123046875,
                        -41.772361755371097,
                        6.911033630371094,
                        8.80706787109375,
                        -130.9256134033203,
                        -125.05351257324219,
                        121.31861114501953,
                        -2.21343994140625,
                        -53.68782424926758,
                        57.56795883178711,
                        3.171854019165039,
                        -46.027957916259769,
                        -27.81484603881836,
                        71.27774047851563,
                        48.50958251953125,
                        -146.17535400390626
                    ],
                    "Bias": -68.21439361572266
                },
                {
                    "Value": 0.0,
                    "PreviousLayerNeuronValues": [
                        -0.03501346707344055,
                        -0.06093772500753403,
                        0.006579214241355658,
                        0.017361484467983247,
                        -0.05899332836270332,
                        0.03242213651537895,
                        -0.05171428993344307,
                        -0.15579673647880555,
                        0.0028342842124402525,
                        0.031286291778087619,
                        -0.15321633219718934,
                        0.04362467676401138,
                        -0.05841292813420296,
                        -0.20888273417949677,
                        -0.02728673256933689,
                        0.06054689735174179,
                        -0.20582008361816407,
                        0.03134997934103012,
                        0.1336793303489685,
                        0.003302240278571844,
                        -0.0955919697880745
                    ],
                    "Weights": [
                        77.79570007324219,
                        -60.89799499511719,
                        53.411197662353519,
                        23.425460815429689,
                        17.94388198852539,
                        92.82189178466797,
                        -39.728153228759769,
                        40.288936614990237,
                        15.892820358276368,
                        89.74588775634766,
                        39.50617218017578,
                        -5.124513626098633,
                        8.45968246459961,
                        37.3852424621582,
                        -4.7596588134765629,
                        -24.27873992919922,
                        -27.650951385498048,
                        37.398807525634769,
                        -11.20582389831543,
                        -25.24262809753418,
                        31.2996826171875
                    ],
                    "Bias": -73.83769226074219
                },
                {
                    "Value": 29.94622230529785,
                    "PreviousLayerNeuronValues": [
                        -0.03501346707344055,
                        -0.06093772500753403,
                        0.006579214241355658,
                        0.017361484467983247,
                        -0.05899332836270332,
                        0.03242213651537895,
                        -0.05171428993344307,
                        -0.15579673647880555,
                        0.0028342842124402525,
                        0.031286291778087619,
                        -0.15321633219718934,
                        0.04362467676401138,
                        -0.05841292813420296,
                        -0.20888273417949677,
                        -0.02728673256933689,
                        0.06054689735174179,
                        -0.20582008361816407,
                        0.03134997934103012,
                        0.1336793303489685,
                        0.003302240278571844,
                        -0.0955919697880745
                    ],
                    "Weights": [
                        115.03883361816406,
                        -30.197158813476564,
                        -133.08660888671876,
                        -115.47832489013672,
                        93.79804992675781,
                        45.15140151977539,
                        -103.88893127441406,
                        -83.0269546508789,
                        37.351097106933597,
                        51.90536117553711,
                        -45.56660461425781,
                        -102.55203247070313,
                        -71.22477722167969,
                        28.5604248046875,
                        82.65142822265625,
                        -64.765625,
                        2.0838489532470705,
                        4.418394088745117,
                        83.252685546875,
                        -120.29528045654297,
                        -53.43537139892578
                    ],
                    "Bias": 8.97105598449707
                },
                {
                    "Value": 0.0,
                    "PreviousLayerNeuronValues": [
                        -0.03501346707344055,
                        -0.06093772500753403,
                        0.006579214241355658,
                        0.017361484467983247,
                        -0.05899332836270332,
                        0.03242213651537895,
                        -0.05171428993344307,
                        -0.15579673647880555,
                        0.0028342842124402525,
                        0.031286291778087619,
                        -0.15321633219718934,
                        0.04362467676401138,
                        -0.05841292813420296,
                        -0.20888273417949677,
                        -0.02728673256933689,
                        0.06054689735174179,
                        -0.20582008361816407,
                        0.03134997934103012,
                        0.1336793303489685,
                        0.003302240278571844,
                        -0.0955919697880745
                    ],
                    "Weights": [
                        37.392005920410159,
                        91.98657989501953,
                        -18.598106384277345,
                        23.39268684387207,
                        -80.25944519042969,
                        -31.801578521728517,
                        -97.68755340576172,
                        -28.721920013427736,
                        -46.23397445678711,
                        67.66921997070313,
                        30.942943572998048,
                        114.35249328613281,
                        58.42515563964844,
                        40.98124694824219,
                        19.200035095214845,
                        -39.0970458984375,
                        96.90040588378906,
                        42.198875427246097,
                        1.6781368255615235,
                        9.031557083129883,
                        3.67822265625
                    ],
                    "Bias": -11.421121597290039
                },
                {
                    "Value": 0.0,
                    "PreviousLayerNeuronValues": [
                        -0.03501346707344055,
                        -0.06093772500753403,
                        0.006579214241355658,
                        0.017361484467983247,
                        -0.05899332836270332,
                        0.03242213651537895,
                        -0.05171428993344307,
                        -0.15579673647880555,
                        0.0028342842124402525,
                        0.031286291778087619,
                        -0.15321633219718934,
                        0.04362467676401138,
                        -0.05841292813420296,
                        -0.20888273417949677,
                        -0.02728673256933689,
                        0.06054689735174179,
                        -0.20582008361816407,
                        0.03134997934103012,
                        0.1336793303489685,
                        0.003302240278571844,
                        -0.0955919697880745
                    ],
                    "Weights": [
                        -14.694747924804688,
                        -19.949382781982423,
                        69.05996704101563,
                        74.4805908203125,
                        -28.495223999023439,
                        28.764530181884767,
                        -97.64189147949219,
                        -120.5145034790039,
                        42.1556396484375,
                        -14.208446502685547,
                        46.447784423828128,
                        62.070316314697269,
                        -31.17742156982422,
                        -34.85676956176758,
                        -21.72423553466797,
                        108.70143127441406,
                        -21.579668045043947,
                        40.33399200439453,
                        45.81227111816406,
                        -99.94318389892578,
                        -18.506664276123048
                    ],
                    "Bias": -76.1809310913086
                },
                {
                    "Value": 99.73114776611328,
                    "PreviousLayerNeuronValues": [
                        -0.03501346707344055,
                        -0.06093772500753403,
                        0.006579214241355658,
                        0.017361484467983247,
                        -0.05899332836270332,
                        0.03242213651537895,
                        -0.05171428993344307,
                        -0.15579673647880555,
                        0.0028342842124402525,
                        0.031286291778087619,
                        -0.15321633219718934,
                        0.04362467676401138,
                        -0.05841292813420296,
                        -0.20888273417949677,
                        -0.02728673256933689,
                        0.06054689735174179,
                        -0.20582008361816407,
                        0.03134997934103012,
                        0.1336793303489685,
                        0.003302240278571844,
                        -0.0955919697880745
                    ],
                    "Weights": [
                        -74.95636749267578,
                        -23.321624755859376,
                        92.1878890991211,
                        32.697357177734378,
                        86.0426025390625,
                        -5.930019378662109,
                        -128.30384826660157,
                        -37.1820182800293,
                        -44.980770111083987,
                        -64.71464538574219,
                        -23.656394958496095,
                        117.86123657226563,
                        0.6621246337890625,
                        -14.02177619934082,
                        83.47785186767578,
                        23.006879806518556,
                        -70.68074035644531,
                        64.00142669677735,
                        -36.76740264892578,
                        1.8832263946533204,
                        91.55724334716797
                    ],
                    "Bias": 75.83910369873047
                },
                {
                    "Value": 14.811483383178711,
                    "PreviousLayerNeuronValues": [
                        -0.03501346707344055,
                        -0.06093772500753403,
                        0.006579214241355658,
                        0.017361484467983247,
                        -0.05899332836270332,
                        0.03242213651537895,
                        -0.05171428993344307,
                        -0.15579673647880555,
                        0.0028342842124402525,
                        0.031286291778087619,
                        -0.15321633219718934,
                        0.04362467676401138,
                        -0.05841292813420296,
                        -0.20888273417949677,
                        -0.02728673256933689,
                        0.06054689735174179,
                        -0.20582008361816407,
                        0.03134997934103012,
                        0.1336793303489685,
                        0.003302240278571844,
                        -0.0955919697880745
                    ],
                    "Weights": [
                        5.660118103027344,
                        69.01211547851563,
                        -19.168785095214845,
                        32.087318420410159,
                        -37.538978576660159,
                        73.67494201660156,
                        22.573680877685548,
                        27.154159545898439,
                        18.31307601928711,
                        -40.92914581298828,
                        -140.88812255859376,
                        -72.41985321044922,
                        57.695213317871097,
                        74.11343383789063,
                        -58.376365661621097,
                        -40.088951110839847,
                        -8.192554473876954,
                        34.77952194213867,
                        -12.568523406982422,
                        46.67498016357422,
                        34.90712356567383
                    ],
                    "Bias": 24.152202606201173
                },
                {
                    "Value": 0.0,
                    "PreviousLayerNeuronValues": [
                        -0.03501346707344055,
                        -0.06093772500753403,
                        0.006579214241355658,
                        0.017361484467983247,
                        -0.05899332836270332,
                        0.03242213651537895,
                        -0.05171428993344307,
                        -0.15579673647880555,
                        0.0028342842124402525,
                        0.031286291778087619,
                        -0.15321633219718934,
                        0.04362467676401138,
                        -0.05841292813420296,
                        -0.20888273417949677,
                        -0.02728673256933689,
                        0.06054689735174179,
                        -0.20582008361816407,
                        0.03134997934103012,
                        0.1336793303489685,
                        0.003302240278571844,
                        -0.0955919697880745
                    ],
                    "Weights": [
                        -63.20975875854492,
                        90.27264404296875,
                        2.6117324829101564,
                        -21.938518524169923,
                        26.515220642089845,
                        39.0728759765625,
                        29.43767547607422,
                        90.42922973632813,
                        0.6123218536376953,
                        28.04278564453125,
                        -74.97897338867188,
                        -1.3718795776367188,
                        57.13373565673828,
                        51.405662536621097,
                        80.8555679321289,
                        25.104785919189454,
                        74.4582748413086,
                        -76.06062316894531,
                        -1.2311134338378907,
                        33.03099822998047,
                        4.476909637451172
                    ],
                    "Bias": -34.18321990966797
                },
                {
                    "Value": 4.922763824462891,
                    "PreviousLayerNeuronValues": [
                        -0.03501346707344055,
                        -0.06093772500753403,
                        0.006579214241355658,
                        0.017361484467983247,
                        -0.05899332836270332,
                        0.03242213651537895,
                        -0.05171428993344307,
                        -0.15579673647880555,
                        0.0028342842124402525,
                        0.031286291778087619,
                        -0.15321633219718934,
                        0.04362467676401138,
                        -0.05841292813420296,
                        -0.20888273417949677,
                        -0.02728673256933689,
                        0.06054689735174179,
                        -0.20582008361816407,
                        0.03134997934103012,
                        0.1336793303489685,
                        0.003302240278571844,
                        -0.0955919697880745
                    ],
                    "Weights": [
                        97.50830078125,
                        -55.88058090209961,
                        -88.33998107910156,
                        62.3096923828125,
                        -9.69952392578125,
                        -22.912918090820314,
                        -48.11599349975586,
                        -95.6132583618164,
                        -86.59000396728516,
                        -99.31538391113281,
                        -108.968505859375,
                        70.64048767089844,
                        -24.072547912597658,
                        51.64106369018555,
                        -63.66794204711914,
                        42.097843170166019,
                        -113.99093627929688,
                        -72.50005340576172,
                        -44.2457389831543,
                        -81.07164764404297,
                        -3.698317527770996
                    ],
                    "Bias": -39.472801208496097
                },
                {
                    "Value": 0.0,
                    "PreviousLayerNeuronValues": [
                        -0.03501346707344055,
                        -0.06093772500753403,
                        0.006579214241355658,
                        0.017361484467983247,
                        -0.05899332836270332,
                        0.03242213651537895,
                        -0.05171428993344307,
                        -0.15579673647880555,
                        0.0028342842124402525,
                        0.031286291778087619,
                        -0.15321633219718934,
                        0.04362467676401138,
                        -0.05841292813420296,
                        -0.20888273417949677,
                        -0.02728673256933689,
                        0.06054689735174179,
                        -0.20582008361816407,
                        0.03134997934103012,
                        0.1336793303489685,
                        0.003302240278571844,
                        -0.0955919697880745
                    ],
                    "Weights": [
                        49.312034606933597,
                        -63.83231735229492,
                        -9.329906463623047,
                        -33.947235107421878,
                        34.88903045654297,
                        98.26556396484375,
                        149.34124755859376,
                        60.472904205322269,
                        -140.9044189453125,
                        -114.81999206542969,
                        -20.359634399414064,
                        -62.48088455200195,
                        47.12726593017578,
                        34.48138427734375,
                        -66.98934936523438,
                        -65.58623504638672,
                        39.35236740112305,
                        51.34678268432617,
                        -86.16283416748047,
                        -65.81375122070313,
                        42.32661437988281
                    ],
                    "Bias": -144.3992462158203
                },
                {
                    "Value": 0.0,
                    "PreviousLayerNeuronValues": [
                        -0.03501346707344055,
                        -0.06093772500753403,
                        0.006579214241355658,
                        0.017361484467983247,
                        -0.05899332836270332,
                        0.03242213651537895,
                        -0.05171428993344307,
                        -0.15579673647880555,
                        0.0028342842124402525,
                        0.031286291778087619,
                        -0.15321633219718934,
                        0.04362467676401138,
                        -0.05841292813420296,
                        -0.20888273417949677,
                        -0.02728673256933689,
                        0.06054689735174179,
                        -0.20582008361816407,
                        0.03134997934103012,
                        0.1336793303489685,
                        0.003302240278571844,
                        -0.0955919697880745
                    ],
                    "Weights": [
                        17.796493530273439,
                        5.661415100097656,
                        -91.0528793334961,
                        -82.5015640258789,
                        -34.14799880981445,
                        -31.48670768737793,
                        -20.5979061126709,
                        71.07691955566406,
                        7.799522399902344,
                        -0.30303955078125,
                        24.90886116027832,
                        -0.5025825500488281,
                        91.46983337402344,
                        -49.374916076660159,
                        -20.46796226501465,
                        24.589914321899415,
                        -44.04547882080078,
                        44.42689514160156,
                        -69.1258544921875,
                        -107.71001434326172,
                        75.97309875488281
                    ],
                    "Bias": -8.466266632080079
                },
                {
                    "Value": 0.0,
                    "PreviousLayerNeuronValues": [
                        -0.03501346707344055,
                        -0.06093772500753403,
                        0.006579214241355658,
                        0.017361484467983247,
                        -0.05899332836270332,
                        0.03242213651537895,
                        -0.05171428993344307,
                        -0.15579673647880555,
                        0.0028342842124402525,
                        0.031286291778087619,
                        -0.15321633219718934,
                        0.04362467676401138,
                        -0.05841292813420296,
                        -0.20888273417949677,
                        -0.02728673256933689,
                        0.06054689735174179,
                        -0.20582008361816407,
                        0.03134997934103012,
                        0.1336793303489685,
                        0.003302240278571844,
                        -0.0955919697880745
                    ],
                    "Weights": [
                        67.73339080810547,
                        45.709407806396487,
                        -63.6282958984375,
                        -38.539817810058597,
                        15.19207763671875,
                        -13.70157241821289,
                        -56.398651123046878,
                        -65.52336883544922,
                        -126.6482162475586,
                        33.18320083618164,
                        31.802074432373048,
                        -2.4623451232910158,
                        -32.75115203857422,
                        -73.5703125,
                        66.17839813232422,
                        50.044097900390628,
                        -6.826465606689453,
                        -8.56212329864502,
                        116.73650360107422,
                        115.65530395507813,
                        -29.669940948486329
                    ],
                    "Bias": -41.40833282470703
                },
                {
                    "Value": 0.0,
                    "PreviousLayerNeuronValues": [
                        -0.03501346707344055,
                        -0.06093772500753403,
                        0.006579214241355658,
                        0.017361484467983247,
                        -0.05899332836270332,
                        0.03242213651537895,
                        -0.05171428993344307,
                        -0.15579673647880555,
                        0.0028342842124402525,
                        0.031286291778087619,
                        -0.15321633219718934,
                        0.04362467676401138,
                        -0.05841292813420296,
                        -0.20888273417949677,
                        -0.02728673256933689,
                        0.06054689735174179,
                        -0.20582008361816407,
                        0.03134997934103012,
                        0.1336793303489685,
                        0.003302240278571844,
                        -0.0955919697880745
                    ],
                    "Weights": [
                        -94.86488342285156,
                        80.94149017333985,
                        31.519014358520509,
                        -145.21405029296876,
                        -43.415138244628909,
                        56.66167449951172,
                        -7.307025909423828,
                        84.93802642822266,
                        -56.36913299560547,
                        6.8720703125,
                        47.712303161621097,
                        -69.97557067871094,
                        -0.38976287841796877,
                        87.11155700683594,
                        86.34378051757813,
                        -39.346351623535159,
                        -10.426420211791993,
                        111.8447265625,
                        -84.13963317871094,
                        -5.857448577880859,
                        -50.32042694091797
                    ],
                    "Bias": 15.823959350585938
                },
                {
                    "Value": 26.861190795898439,
                    "PreviousLayerNeuronValues": [
                        -0.03501346707344055,
                        -0.06093772500753403,
                        0.006579214241355658,
                        0.017361484467983247,
                        -0.05899332836270332,
                        0.03242213651537895,
                        -0.05171428993344307,
                        -0.15579673647880555,
                        0.0028342842124402525,
                        0.031286291778087619,
                        -0.15321633219718934,
                        0.04362467676401138,
                        -0.05841292813420296,
                        -0.20888273417949677,
                        -0.02728673256933689,
                        0.06054689735174179,
                        -0.20582008361816407,
                        0.03134997934103012,
                        0.1336793303489685,
                        0.003302240278571844,
                        -0.0955919697880745
                    ],
                    "Weights": [
                        73.42467498779297,
                        -114.42121124267578,
                        38.584869384765628,
                        20.058921813964845,
                        -83.78767395019531,
                        -87.43054962158203,
                        -31.84632110595703,
                        -11.08810806274414,
                        -16.81749725341797,
                        19.81804656982422,
                        36.36918640136719,
                        16.07301902770996,
                        35.57170867919922,
                        -113.01510620117188,
                        125.6161117553711,
                        99.06182861328125,
                        -18.796897888183595,
                        -8.54611587524414,
                        94.51814270019531,
                        -93.95381164550781,
                        85.31441497802735
                    ],
                    "Bias": -11.196098327636719
                },
                {
                    "Value": 34.04325866699219,
                    "PreviousLayerNeuronValues": [
                        -0.03501346707344055,
                        -0.06093772500753403,
                        0.006579214241355658,
                        0.017361484467983247,
                        -0.05899332836270332,
                        0.03242213651537895,
                        -0.05171428993344307,
                        -0.15579673647880555,
                        0.0028342842124402525,
                        0.031286291778087619,
                        -0.15321633219718934,
                        0.04362467676401138,
                        -0.05841292813420296,
                        -0.20888273417949677,
                        -0.02728673256933689,
                        0.06054689735174179,
                        -0.20582008361816407,
                        0.03134997934103012,
                        0.1336793303489685,
                        0.003302240278571844,
                        -0.0955919697880745
                    ],
                    "Weights": [
                        -108.32260131835938,
                        28.06580352783203,
                        -59.906925201416019,
                        -12.0906982421875,
                        -1.8750648498535157,
                        -8.153507232666016,
                        42.020965576171878,
                        -23.611919403076173,
                        -21.301433563232423,
                        -5.109569549560547,
                        5.156455993652344,
                        76.04129028320313,
                        -66.86459350585938,
                        21.945526123046876,
                        -23.58196258544922,
                        12.696569442749024,
                        -88.73924255371094,
                        6.770103454589844,
                        -86.64340209960938,
                        -78.33242797851563,
                        46.31776809692383
                    ],
                    "Bias": 25.96422576904297
                },
                {
                    "Value": 0.0,
                    "PreviousLayerNeuronValues": [
                        -0.03501346707344055,
                        -0.06093772500753403,
                        0.006579214241355658,
                        0.017361484467983247,
                        -0.05899332836270332,
                        0.03242213651537895,
                        -0.05171428993344307,
                        -0.15579673647880555,
                        0.0028342842124402525,
                        0.031286291778087619,
                        -0.15321633219718934,
                        0.04362467676401138,
                        -0.05841292813420296,
                        -0.20888273417949677,
                        -0.02728673256933689,
                        0.06054689735174179,
                        -0.20582008361816407,
                        0.03134997934103012,
                        0.1336793303489685,
                        0.003302240278571844,
                        -0.0955919697880745
                    ],
                    "Weights": [
                        112.68846893310547,
                        -76.19416809082031,
                        -127.94772338867188,
                        -68.26116943359375,
                        -29.311738967895509,
                        43.8287467956543,
                        -8.712072372436524,
                        0.06127166748046875,
                        -73.12491607666016,
                        -40.39723205566406,
                        68.41606140136719,
                        22.495088577270509,
                        4.91511344909668,
                        -12.197036743164063,
                        62.4947395324707,
                        68.97886657714844,
                        55.55672073364258,
                        -3.857738494873047,
                        -45.68363952636719,
                        -1.1521759033203126,
                        26.445701599121095
                    ],
                    "Bias": -2.0415267944335939
                },
                {
                    "Value": 139.3164825439453,
                    "PreviousLayerNeuronValues": [
                        -0.03501346707344055,
                        -0.06093772500753403,
                        0.006579214241355658,
                        0.017361484467983247,
                        -0.05899332836270332,
                        0.03242213651537895,
                        -0.05171428993344307,
                        -0.15579673647880555,
                        0.0028342842124402525,
                        0.031286291778087619,
                        -0.15321633219718934,
                        0.04362467676401138,
                        -0.05841292813420296,
                        -0.20888273417949677,
                        -0.02728673256933689,
                        0.06054689735174179,
                        -0.20582008361816407,
                        0.03134997934103012,
                        0.1336793303489685,
                        0.003302240278571844,
                        -0.0955919697880745
                    ],
                    "Weights": [
                        -14.943906784057618,
                        -74.74830627441406,
                        31.01746368408203,
                        -16.327836990356447,
                        59.85529327392578,
                        99.0978012084961,
                        -46.343482971191409,
                        -82.39034271240235,
                        -1.4260673522949219,
                        35.2041130065918,
                        -141.1853790283203,
                        25.738014221191408,
                        -59.07315444946289,
                        34.897220611572269,
                        23.11970329284668,
                        -123.51798248291016,
                        -62.26810836791992,
                        42.05048370361328,
                        23.65402603149414,
                        -11.86428165435791,
                        -106.46202087402344
                    ],
                    "Bias": 80.0650863647461
                },
                {
                    "Value": 0.0,
                    "PreviousLayerNeuronValues": [
                        -0.03501346707344055,
                        -0.06093772500753403,
                        0.006579214241355658,
                        0.017361484467983247,
                        -0.05899332836270332,
                        0.03242213651537895,
                        -0.05171428993344307,
                        -0.15579673647880555,
                        0.0028342842124402525,
                        0.031286291778087619,
                        -0.15321633219718934,
                        0.04362467676401138,
                        -0.05841292813420296,
                        -0.20888273417949677,
                        -0.02728673256933689,
                        0.06054689735174179,
                        -0.20582008361816407,
                        0.03134997934103012,
                        0.1336793303489685,
                        0.003302240278571844,
                        -0.0955919697880745
                    ],
                    "Weights": [
                        -22.91583251953125,
                        -20.931713104248048,
                        -79.62804412841797,
                        9.543083190917969,
                        -77.55715942382813,
                        -27.682785034179689,
                        -3.4871768951416017,
                        77.51434326171875,
                        -81.55055236816406,
                        -70.44851684570313,
                        -129.62847900390626,
                        -59.233741760253909,
                        78.94319915771485,
                        -11.705574035644532,
                        11.262825012207032,
                        68.82078552246094,
                        27.768829345703126,
                        94.19657897949219,
                        -89.32778930664063,
                        -117.92346954345703,
                        128.343994140625
                    ],
                    "Bias": -50.471282958984378
                },
                {
                    "Value": 24.54923439025879,
                    "PreviousLayerNeuronValues": [
                        -0.03501346707344055,
                        -0.06093772500753403,
                        0.006579214241355658,
                        0.017361484467983247,
                        -0.05899332836270332,
                        0.03242213651537895,
                        -0.05171428993344307,
                        -0.15579673647880555,
                        0.0028342842124402525,
                        0.031286291778087619,
                        -0.15321633219718934,
                        0.04362467676401138,
                        -0.05841292813420296,
                        -0.20888273417949677,
                        -0.02728673256933689,
                        0.06054689735174179,
                        -0.20582008361816407,
                        0.03134997934103012,
                        0.1336793303489685,
                        0.003302240278571844,
                        -0.0955919697880745
                    ],
                    "Weights": [
                        -73.34835815429688,
                        30.482959747314454,
                        63.4515380859375,
                        -75.60865020751953,
                        20.21448516845703,
                        -16.273693084716798,
                        -16.254907608032228,
                        14.822305679321289,
                        -85.15946197509766,
                        36.16477966308594,
                        84.35127258300781,
                        -30.032028198242189,
                        -0.2765016555786133,
                        -14.205062866210938,
                        5.980411529541016,
                        7.6596479415893559,
                        65.50587463378906,
                        21.233776092529298,
                        104.62576293945313,
                        -93.34551239013672,
                        -46.32798767089844
                    ],
                    "Bias": 32.69285583496094
                },
                {
                    "Value": 33.32258605957031,
                    "PreviousLayerNeuronValues": [
                        -0.03501346707344055,
                        -0.06093772500753403,
                        0.006579214241355658,
                        0.017361484467983247,
                        -0.05899332836270332,
                        0.03242213651537895,
                        -0.05171428993344307,
                        -0.15579673647880555,
                        0.0028342842124402525,
                        0.031286291778087619,
                        -0.15321633219718934,
                        0.04362467676401138,
                        -0.05841292813420296,
                        -0.20888273417949677,
                        -0.02728673256933689,
                        0.06054689735174179,
                        -0.20582008361816407,
                        0.03134997934103012,
                        0.1336793303489685,
                        0.003302240278571844,
                        -0.0955919697880745
                    ],
                    "Weights": [
                        -8.69736099243164,
                        -87.62892150878906,
                        20.8016300201416,
                        52.8948974609375,
                        -42.671146392822269,
                        47.70124816894531,
                        5.651920318603516,
                        -58.277801513671878,
                        65.39225006103516,
                        46.04303741455078,
                        137.33203125,
                        47.39101791381836,
                        8.37887954711914,
                        97.61046600341797,
                        -4.0289764404296879,
                        -15.35110855102539,
                        23.27472686767578,
                        45.02914810180664,
                        -73.68849182128906,
                        23.977811813354493,
                        14.565475463867188
                    ],
                    "Bias": 67.36073303222656
                },
                {
                    "Value": 3.501333236694336,
                    "PreviousLayerNeuronValues": [
                        -0.03501346707344055,
                        -0.06093772500753403,
                        0.006579214241355658,
                        0.017361484467983247,
                        -0.05899332836270332,
                        0.03242213651537895,
                        -0.05171428993344307,
                        -0.15579673647880555,
                        0.0028342842124402525,
                        0.031286291778087619,
                        -0.15321633219718934,
                        0.04362467676401138,
                        -0.05841292813420296,
                        -0.20888273417949677,
                        -0.02728673256933689,
                        0.06054689735174179,
                        -0.20582008361816407,
                        0.03134997934103012,
                        0.1336793303489685,
                        0.003302240278571844,
                        -0.0955919697880745
                    ],
                    "Weights": [
                        71.48820495605469,
                        119.27085876464844,
                        56.24702453613281,
                        -72.51738739013672,
                        -88.71891784667969,
                        -23.790145874023439,
                        -57.43254852294922,
                        65.91236877441406,
                        -89.9949951171875,
                        -58.34380340576172,
                        -52.19593811035156,
                        -47.12419128417969,
                        -40.69232177734375,
                        -25.80145835876465,
                        58.35541534423828,
                        -23.15496063232422,
                        38.00238037109375,
                        -80.99041748046875,
                        -141.947265625,
                        -13.559852600097657,
                        -32.763404846191409
                    ],
                    "Bias": 34.613548278808597
                },
                {
                    "Value": 0.0,
                    "PreviousLayerNeuronValues": [
                        -0.03501346707344055,
                        -0.06093772500753403,
                        0.006579214241355658,
                        0.017361484467983247,
                        -0.05899332836270332,
                        0.03242213651537895,
                        -0.05171428993344307,
                        -0.15579673647880555,
                        0.0028342842124402525,
                        0.031286291778087619,
                        -0.15321633219718934,
                        0.04362467676401138,
                        -0.05841292813420296,
                        -0.20888273417949677,
                        -0.02728673256933689,
                        0.06054689735174179,
                        -0.20582008361816407,
                        0.03134997934103012,
                        0.1336793303489685,
                        0.003302240278571844,
                        -0.0955919697880745
                    ],
                    "Weights": [
                        25.876510620117189,
                        72.35736846923828,
                        124.68569946289063,
                        29.366405487060548,
                        -1.621603012084961,
                        2.174732208251953,
                        22.230966567993165,
                        -89.60806274414063,
                        49.11695861816406,
                        102.39186096191406,
                        63.39630126953125,
                        81.59259033203125,
                        24.698078155517579,
                        -33.27632141113281,
                        -68.86331176757813,
                        110.96796417236328,
                        -16.92013931274414,
                        -30.065425872802736,
                        -38.004417419433597,
                        -122.21195983886719,
                        9.677165985107422
                    ],
                    "Bias": -19.88222312927246
                },
                {
                    "Value": 13.405216217041016,
                    "PreviousLayerNeuronValues": [
                        -0.03501346707344055,
                        -0.06093772500753403,
                        0.006579214241355658,
                        0.017361484467983247,
                        -0.05899332836270332,
                        0.03242213651537895,
                        -0.05171428993344307,
                        -0.15579673647880555,
                        0.0028342842124402525,
                        0.031286291778087619,
                        -0.15321633219718934,
                        0.04362467676401138,
                        -0.05841292813420296,
                        -0.20888273417949677,
                        -0.02728673256933689,
                        0.06054689735174179,
                        -0.20582008361816407,
                        0.03134997934103012,
                        0.1336793303489685,
                        0.003302240278571844,
                        -0.0955919697880745
                    ],
                    "Weights": [
                        28.035350799560548,
                        112.48592376708985,
                        -13.907060623168946,
                        -96.03202819824219,
                        20.626136779785158,
                        -146.277587890625,
                        109.66331481933594,
                        66.812255859375,
                        -14.405393600463868,
                        -16.501333236694337,
                        -110.35243225097656,
                        115.5042953491211,
                        14.73084831237793,
                        40.43555450439453,
                        -103.29132843017578,
                        -48.826637268066409,
                        69.87069702148438,
                        -57.337120056152347,
                        19.508094787597658,
                        -82.34327697753906,
                        32.027626037597659
                    ],
                    "Bias": 49.99897003173828
                },
                {
                    "Value": 3.993234157562256,
                    "PreviousLayerNeuronValues": [
                        -0.03501346707344055,
                        -0.06093772500753403,
                        0.006579214241355658,
                        0.017361484467983247,
                        -0.05899332836270332,
                        0.03242213651537895,
                        -0.05171428993344307,
                        -0.15579673647880555,
                        0.0028342842124402525,
                        0.031286291778087619,
                        -0.15321633219718934,
                        0.04362467676401138,
                        -0.05841292813420296,
                        -0.20888273417949677,
                        -0.02728673256933689,
                        0.06054689735174179,
                        -0.20582008361816407,
                        0.03134997934103012,
                        0.1336793303489685,
                        0.003302240278571844,
                        -0.0955919697880745
                    ],
                    "Weights": [
                        -95.85152435302735,
                        38.749549865722659,
                        5.307916641235352,
                        49.707786560058597,
                        31.58249282836914,
                        -172.93499755859376,
                        156.57766723632813,
                        -81.20429992675781,
                        69.62628173828125,
                        -18.70174789428711,
                        -40.02875518798828,
                        102.71731567382813,
                        13.029991149902344,
                        -7.450046539306641,
                        -59.97906494140625,
                        57.11585998535156,
                        54.07686996459961,
                        -63.95644760131836,
                        -36.272647857666019,
                        -1.300201416015625,
                        -31.615234375
                    ],
                    "Bias": 3.866527557373047
                },
                {
                    "Value": 0.0,
                    "PreviousLayerNeuronValues": [
                        -0.03501346707344055,
                        -0.06093772500753403,
                        0.006579214241355658,
                        0.017361484467983247,
                        -0.05899332836270332,
                        0.03242213651537895,
                        -0.05171428993344307,
                        -0.15579673647880555,
                        0.0028342842124402525,
                        0.031286291778087619,
                        -0.15321633219718934,
                        0.04362467676401138,
                        -0.05841292813420296,
                        -0.20888273417949677,
                        -0.02728673256933689,
                        0.06054689735174179,
                        -0.20582008361816407,
                        0.03134997934103012,
                        0.1336793303489685,
                        0.003302240278571844,
                        -0.0955919697880745
                    ],
                    "Weights": [
                        21.14325714111328,
                        -53.37174987792969,
                        -94.91818237304688,
                        5.658634185791016,
                        20.624984741210939,
                        -39.9625244140625,
                        37.949676513671878,
                        3.122100830078125,
                        17.947750091552736,
                        -69.11707305908203,
                        5.6868743896484379,
                        -38.673919677734378,
                        -28.185012817382814,
                        -84.49151611328125,
                        105.83074188232422,
                        70.13134765625,
                        73.09867095947266,
                        97.53275299072266,
                        -78.26622009277344,
                        -132.56080627441407,
                        -17.84278678894043
                    ],
                    "Bias": -41.743038177490237
                },
                {
                    "Value": 0.0,
                    "PreviousLayerNeuronValues": [
                        -0.03501346707344055,
                        -0.06093772500753403,
                        0.006579214241355658,
                        0.017361484467983247,
                        -0.05899332836270332,
                        0.03242213651537895,
                        -0.05171428993344307,
                        -0.15579673647880555,
                        0.0028342842124402525,
                        0.031286291778087619,
                        -0.15321633219718934,
                        0.04362467676401138,
                        -0.05841292813420296,
                        -0.20888273417949677,
                        -0.02728673256933689,
                        0.06054689735174179,
                        -0.20582008361816407,
                        0.03134997934103012,
                        0.1336793303489685,
                        0.003302240278571844,
                        -0.0955919697880745
                    ],
                    "Weights": [
                        -103.67829132080078,
                        -74.69805908203125,
                        8.033588409423829,
                        64.84295654296875,
                        38.021507263183597,
                        -1.5227088928222657,
                        31.354957580566408,
                        51.216796875,
                        29.249046325683595,
                        -67.88282775878906,
                        72.98710632324219,
                        81.41636657714844,
                        13.302911758422852,
                        60.49358367919922,
                        -40.149620056152347,
                        159.5826416015625,
                        -41.29281997680664,
                        71.3368148803711,
                        -23.141759872436525,
                        98.06280517578125,
                        -40.02608871459961
                    ],
                    "Bias": -98.14064025878906
                },
                {
                    "Value": 0.0,
                    "PreviousLayerNeuronValues": [
                        -0.03501346707344055,
                        -0.06093772500753403,
                        0.006579214241355658,
                        0.017361484467983247,
                        -0.05899332836270332,
                        0.03242213651537895,
                        -0.05171428993344307,
                        -0.15579673647880555,
                        0.0028342842124402525,
                        0.031286291778087619,
                        -0.15321633219718934,
                        0.04362467676401138,
                        -0.05841292813420296,
                        -0.20888273417949677,
                        -0.02728673256933689,
                        0.06054689735174179,
                        -0.20582008361816407,
                        0.03134997934103012,
                        0.1336793303489685,
                        0.003302240278571844,
                        -0.0955919697880745
                    ],
                    "Weights": [
                        -22.68603515625,
                        33.34917449951172,
                        -56.16581726074219,
                        -117.96884155273438,
                        4.4700927734375,
                        -53.52680587768555,
                        65.47955322265625,
                        -116.69358825683594,
                        -21.64166259765625,
                        -34.19683837890625,
                        -48.16472244262695,
                        -18.71576690673828,
                        -65.80024719238281,
                        77.95668029785156,
                        -44.88505172729492,
                        51.06755828857422,
                        83.52674102783203,
                        -129.08514404296876,
                        -62.03520202636719,
                        96.61177062988281,
                        -46.56736373901367
                    ],
                    "Bias": -112.02824401855469
                },
                {
                    "Value": 1.9522228240966797,
                    "PreviousLayerNeuronValues": [
                        -0.03501346707344055,
                        -0.06093772500753403,
                        0.006579214241355658,
                        0.017361484467983247,
                        -0.05899332836270332,
                        0.03242213651537895,
                        -0.05171428993344307,
                        -0.15579673647880555,
                        0.0028342842124402525,
                        0.031286291778087619,
                        -0.15321633219718934,
                        0.04362467676401138,
                        -0.05841292813420296,
                        -0.20888273417949677,
                        -0.02728673256933689,
                        0.06054689735174179,
                        -0.20582008361816407,
                        0.03134997934103012,
                        0.1336793303489685,
                        0.003302240278571844,
                        -0.0955919697880745
                    ],
                    "Weights": [
                        5.143760681152344,
                        19.399532318115236,
                        -15.361507415771485,
                        -37.08989715576172,
                        48.71274185180664,
                        -52.32533645629883,
                        -103.61488342285156,
                        97.41381072998047,
                        62.21813201904297,
                        70.38077545166016,
                        -25.18825340270996,
                        165.181640625,
                        -64.60148620605469,
                        36.27862548828125,
                        55.8671875,
                        44.44501876831055,
                        -20.690563201904298,
                        71.22999572753906,
                        51.89276123046875,
                        11.283941268920899,
                        -89.64669799804688
                    ],
                    "Bias": -14.392953872680664
                },
                {
                    "Value": 126.6886215209961,
                    "PreviousLayerNeuronValues": [
                        -0.03501346707344055,
                        -0.06093772500753403,
                        0.006579214241355658,
                        0.017361484467983247,
                        -0.05899332836270332,
                        0.03242213651537895,
                        -0.05171428993344307,
                        -0.15579673647880555,
                        0.0028342842124402525,
                        0.031286291778087619,
                        -0.15321633219718934,
                        0.04362467676401138,
                        -0.05841292813420296,
                        -0.20888273417949677,
                        -0.02728673256933689,
                        0.06054689735174179,
                        -0.20582008361816407,
                        0.03134997934103012,
                        0.1336793303489685,
                        0.003302240278571844,
                        -0.0955919697880745
                    ],
                    "Weights": [
                        80.88092803955078,
                        -21.501073837280275,
                        7.1347503662109379,
                        -19.96613311767578,
                        -42.772064208984378,
                        -18.236982345581056,
                        -13.878978729248047,
                        -32.943450927734378,
                        -22.200857162475587,
                        9.091863632202149,
                        21.213218688964845,
                        51.51322555541992,
                        -22.086406707763673,
                        1.81842041015625,
                        101.23689270019531,
                        -64.18584442138672,
                        -36.260520935058597,
                        -2.405162811279297,
                        112.69671630859375,
                        -21.222429275512697,
                        122.96449279785156
                    ],
                    "Bias": 116.6191635131836
                },
                {
                    "Value": 101.79766845703125,
                    "PreviousLayerNeuronValues": [
                        -0.03501346707344055,
                        -0.06093772500753403,
                        0.006579214241355658,
                        0.017361484467983247,
                        -0.05899332836270332,
                        0.03242213651537895,
                        -0.05171428993344307,
                        -0.15579673647880555,
                        0.0028342842124402525,
                        0.031286291778087619,
                        -0.15321633219718934,
                        0.04362467676401138,
                        -0.05841292813420296,
                        -0.20888273417949677,
                        -0.02728673256933689,
                        0.06054689735174179,
                        -0.20582008361816407,
                        0.03134997934103012,
                        0.1336793303489685,
                        0.003302240278571844,
                        -0.0955919697880745
                    ],
                    "Weights": [
                        77.38777160644531,
                        46.116695404052737,
                        -14.437873840332032,
                        23.034687042236329,
                        125.38278198242188,
                        1.7077713012695313,
                        113.06999206542969,
                        135.97515869140626,
                        -30.401901245117189,
                        -32.48637771606445,
                        -11.160823822021485,
                        -136.7738037109375,
                        -14.376240730285645,
                        -166.50523376464845,
                        -33.49761199951172,
                        58.596458435058597,
