{
    "HiddenLayers": [
        {
            "Neurons": [
                {
                    "Value": 1.9473469257354737,
                    "PreviousLayerNeuronValues": [
                        0.11993908882141113,
                        0.9223591089248657,
                        0.6196935772895813,
                        0.9235674142837524,
                        0.08968889713287354,
                        0.5078135132789612,
                        0.1594308614730835,
                        0.7941300868988037,
                        0.6009437441825867,
                        0.8273658752441406,
                        0.9493407011032105,
                        0.7109973430633545,
                        0.017221808433532716,
                        0.6827532052993774,
                        0.902321457862854,
                        0.04751408100128174,
                        0.04720604419708252,
                        0.9701136350631714,
                        0.20256578922271729,
                        0.7371317148208618
                    ],
                    "Weights": [
                        0.13757789134979249,
                        0.12533557415008546,
                        0.6158394813537598,
                        0.6802704334259033,
                        -0.47747719287872317,
                        -0.25933778285980227,
                        0.16284000873565675,
                        0.11969077587127686,
                        0.5215280055999756,
                        0.5718367099761963,
                        -0.8957023620605469,
                        -0.08551275730133057,
                        0.32326599955558779,
                        0.012233376502990723,
                        0.7667117118835449,
                        0.994964599609375,
                        0.2625534236431122,
                        -0.0015584230422973633,
                        0.8045244216918945,
                        -0.45754992961883547
                    ],
                    "Bias": 0.39384910464286806
                },
                {
                    "Value": 0.0,
                    "PreviousLayerNeuronValues": [
                        0.11993908882141113,
                        0.9223591089248657,
                        0.6196935772895813,
                        0.9235674142837524,
                        0.08968889713287354,
                        0.5078135132789612,
                        0.1594308614730835,
                        0.7941300868988037,
                        0.6009437441825867,
                        0.8273658752441406,
                        0.9493407011032105,
                        0.7109973430633545,
                        0.017221808433532716,
                        0.6827532052993774,
                        0.902321457862854,
                        0.04751408100128174,
                        0.04720604419708252,
                        0.9701136350631714,
                        0.20256578922271729,
                        0.7371317148208618
                    ],
                    "Weights": [
                        -0.8917562961578369,
                        -0.5781159400939941,
                        0.16750848293304444,
                        0.5153536796569824,
                        0.8409168720245361,
                        0.9515829086303711,
                        -0.4306281805038452,
                        0.23211562633514405,
                        -0.2364729642868042,
                        -0.4264286756515503,
                        0.19151723384857179,
                        -0.5258889198303223,
                        0.9884757995605469,
                        -0.21320569515228272,
                        -0.0413438081741333,
                        -0.8271870613098145,
                        0.23940956592559815,
                        -0.43992650508880618,
                        0.8607447147369385,
                        -0.5150089263916016
                    ],
                    "Bias": 0.4202391803264618
                },
                {
                    "Value": 1.2483230829238892,
                    "PreviousLayerNeuronValues": [
                        0.11993908882141113,
                        0.9223591089248657,
                        0.6196935772895813,
                        0.9235674142837524,
                        0.08968889713287354,
                        0.5078135132789612,
                        0.1594308614730835,
                        0.7941300868988037,
                        0.6009437441825867,
                        0.8273658752441406,
                        0.9493407011032105,
                        0.7109973430633545,
                        0.017221808433532716,
                        0.6827532052993774,
                        0.902321457862854,
                        0.04751408100128174,
                        0.04720604419708252,
                        0.9701136350631714,
                        0.20256578922271729,
                        0.7371317148208618
                    ],
                    "Weights": [
                        0.21471989154815675,
                        0.6232569217681885,
                        -0.5083596706390381,
                        0.7171657085418701,
                        -0.9805362224578857,
                        -0.7617604732513428,
                        -0.34817469120025637,
                        0.50567626953125,
                        -0.3331090211868286,
                        0.5308504104614258,
                        0.9961755275726318,
                        -0.36905157566070559,
                        0.17421114444732667,
                        -0.025189757347106935,
                        0.732581615447998,
                        -0.9134876728057861,
                        -0.6641550064086914,
                        -0.2824476957321167,
                        0.6656508445739746,
                        -0.8424708843231201
                    ],
                    "Bias": -0.3051410913467407
                },
                {
                    "Value": 1.931190013885498,
                    "PreviousLayerNeuronValues": [
                        0.11993908882141113,
                        0.9223591089248657,
                        0.6196935772895813,
                        0.9235674142837524,
                        0.08968889713287354,
                        0.5078135132789612,
                        0.1594308614730835,
                        0.7941300868988037,
                        0.6009437441825867,
                        0.8273658752441406,
                        0.9493407011032105,
                        0.7109973430633545,
                        0.017221808433532716,
                        0.6827532052993774,
                        0.902321457862854,
                        0.04751408100128174,
                        0.04720604419708252,
                        0.9701136350631714,
                        0.20256578922271729,
                        0.7371317148208618
                    ],
                    "Weights": [
                        0.9105567932128906,
                        0.47275564074516299,
                        0.11502969264984131,
                        0.6375799179077148,
                        0.12869656085968018,
                        0.1739271879196167,
                        0.0851212739944458,
                        0.17070448398590089,
                        -0.6094741821289063,
                        0.6482818126678467,
                        0.270762175321579,
                        0.976686954498291,
                        0.875091552734375,
                        -0.29066646099090578,
                        -0.4453037977218628,
                        0.22232162952423097,
                        0.613166093826294,
                        0.017473816871643068,
                        0.19710195064544679,
                        -0.631244421005249
                    ],
                    "Bias": 0.3093392550945282
                },
                {
                    "Value": 0.0,
                    "PreviousLayerNeuronValues": [
                        0.11993908882141113,
                        0.9223591089248657,
                        0.6196935772895813,
                        0.9235674142837524,
                        0.08968889713287354,
                        0.5078135132789612,
                        0.1594308614730835,
                        0.7941300868988037,
                        0.6009437441825867,
                        0.8273658752441406,
                        0.9493407011032105,
                        0.7109973430633545,
                        0.017221808433532716,
                        0.6827532052993774,
                        0.902321457862854,
                        0.04751408100128174,
                        0.04720604419708252,
                        0.9701136350631714,
                        0.20256578922271729,
                        0.7371317148208618
                    ],
                    "Weights": [
                        -0.4263230562210083,
                        -0.9124202728271484,
                        0.021427035331726075,
                        -0.5617194175720215,
                        -0.7451176643371582,
                        0.4427284896373749,
                        0.05921494960784912,
                        -0.5794820785522461,
                        -0.43502771854400637,
                        0.9188859462738037,
                        -0.5321500301361084,
                        0.3513281047344208,
                        -0.769587516784668,
                        0.6927785873413086,
                        0.36134955286979678,
                        -0.7632865905761719,
                        0.6298632621765137,
                        0.2751776874065399,
                        -0.6611828804016113,
                        -0.6449592113494873
                    ],
                    "Bias": -0.6395525932312012
                },
                {
                    "Value": 1.4744868278503419,
                    "PreviousLayerNeuronValues": [
                        0.11993908882141113,
                        0.9223591089248657,
                        0.6196935772895813,
                        0.9235674142837524,
                        0.08968889713287354,
                        0.5078135132789612,
                        0.1594308614730835,
                        0.7941300868988037,
                        0.6009437441825867,
                        0.8273658752441406,
                        0.9493407011032105,
                        0.7109973430633545,
                        0.017221808433532716,
                        0.6827532052993774,
                        0.902321457862854,
                        0.04751408100128174,
                        0.04720604419708252,
                        0.9701136350631714,
                        0.20256578922271729,
                        0.7371317148208618
                    ],
                    "Weights": [
                        -0.5213639736175537,
                        0.9705154895782471,
                        -0.9129540920257568,
                        -0.2879568338394165,
                        0.9838180541992188,
                        -0.3120518922805786,
                        -0.9167008399963379,
                        0.8443276882171631,
                        -0.35371434688568118,
                        0.8274357318878174,
                        0.6833267211914063,
                        -0.02048623561859131,
                        0.8712332248687744,
                        -0.9176633358001709,
                        0.37054702639579775,
                        0.22566545009613038,
                        0.00929868221282959,
                        -0.22682702541351319,
                        0.7643716335296631,
                        0.7770872116088867
                    ],
                    "Bias": -0.3283320665359497
                },
                {
                    "Value": 0.0,
                    "PreviousLayerNeuronValues": [
                        0.11993908882141113,
                        0.9223591089248657,
                        0.6196935772895813,
                        0.9235674142837524,
                        0.08968889713287354,
                        0.5078135132789612,
                        0.1594308614730835,
                        0.7941300868988037,
                        0.6009437441825867,
                        0.8273658752441406,
                        0.9493407011032105,
                        0.7109973430633545,
                        0.017221808433532716,
                        0.6827532052993774,
                        0.902321457862854,
                        0.04751408100128174,
                        0.04720604419708252,
                        0.9701136350631714,
                        0.20256578922271729,
                        0.7371317148208618
                    ],
                    "Weights": [
                        0.19857609272003175,
                        0.24770629405975343,
                        -0.8898627758026123,
                        -0.28320181369781496,
                        -0.6420722007751465,
                        0.5844361782073975,
                        0.24974548816680909,
                        -0.5139219760894775,
                        -0.20329248905181886,
                        0.6074872016906738,
                        0.6210761070251465,
                        0.21644842624664308,
                        0.6560366153717041,
                        0.2802130877971649,
                        -0.875206708908081,
                        0.7098987102508545,
                        0.1332160234451294,
                        0.4968566596508026,
                        0.9716899394989014,
                        -0.890139102935791
                    ],
                    "Bias": -0.5076344013214111
                },
                {
                    "Value": 0.0,
                    "PreviousLayerNeuronValues": [
                        0.11993908882141113,
                        0.9223591089248657,
                        0.6196935772895813,
                        0.9235674142837524,
                        0.08968889713287354,
                        0.5078135132789612,
                        0.1594308614730835,
                        0.7941300868988037,
                        0.6009437441825867,
                        0.8273658752441406,
                        0.9493407011032105,
                        0.7109973430633545,
                        0.017221808433532716,
                        0.6827532052993774,
                        0.902321457862854,
                        0.04751408100128174,
                        0.04720604419708252,
                        0.9701136350631714,
                        0.20256578922271729,
                        0.7371317148208618
                    ],
                    "Weights": [
                        0.04845154285430908,
                        -0.7327916622161865,
                        -0.2717043161392212,
                        -0.9723877906799316,
                        -0.2510460615158081,
                        0.7379834651947022,
                        0.12278115749359131,
                        0.4614813029766083,
                        0.7322976589202881,
                        -0.3174644708633423,
                        0.5199084281921387,
                        0.02440035343170166,
                        -0.8359484672546387,
                        0.11342513561248779,
                        -0.9504415988922119,
                        -0.6758630275726318,
                        0.4642147719860077,
                        0.24206459522247315,
                        0.5584695339202881,
                        0.6042335033416748
                    ],
                    "Bias": -0.8830783367156982
                },
                {
                    "Value": 0.0,
                    "PreviousLayerNeuronValues": [
                        0.11993908882141113,
                        0.9223591089248657,
                        0.6196935772895813,
                        0.9235674142837524,
                        0.08968889713287354,
                        0.5078135132789612,
                        0.1594308614730835,
                        0.7941300868988037,
                        0.6009437441825867,
                        0.8273658752441406,
                        0.9493407011032105,
                        0.7109973430633545,
                        0.017221808433532716,
                        0.6827532052993774,
                        0.902321457862854,
                        0.04751408100128174,
                        0.04720604419708252,
                        0.9701136350631714,
                        0.20256578922271729,
                        0.7371317148208618
                    ],
                    "Weights": [
                        0.614811897277832,
                        -0.03325188159942627,
                        -0.5116362571716309,
                        0.005308270454406738,
                        -0.3179422616958618,
                        -0.34937965869903567,
                        0.823836088180542,
                        -0.15042555332183839,
                        -0.91713547706604,
                        0.161443829536438,
                        -0.3262888193130493,
                        -0.555382490158081,
                        -0.11774551868438721,
                        -0.6470170021057129,
                        0.3030664622783661,
                        -0.17400062084197999,
                        -0.8518695831298828,
                        -0.2831536531448364,
                        0.7029783725738525,
                        0.6647272109985352
                    ],
                    "Bias": -0.22740280628204347
                },
                {
                    "Value": 0.0,
                    "PreviousLayerNeuronValues": [
                        0.11993908882141113,
                        0.9223591089248657,
                        0.6196935772895813,
                        0.9235674142837524,
                        0.08968889713287354,
                        0.5078135132789612,
                        0.1594308614730835,
                        0.7941300868988037,
                        0.6009437441825867,
                        0.8273658752441406,
                        0.9493407011032105,
                        0.7109973430633545,
                        0.017221808433532716,
                        0.6827532052993774,
                        0.902321457862854,
                        0.04751408100128174,
                        0.04720604419708252,
                        0.9701136350631714,
                        0.20256578922271729,
                        0.7371317148208618
                    ],
                    "Weights": [
                        -0.189613938331604,
                        -0.32165682315826418,
                        0.5984256267547607,
                        0.6993410587310791,
                        -0.44926774501800539,
                        -0.8060357570648193,
                        0.45294424891471865,
                        -0.7995932102203369,
                        -0.6921510696411133,
                        -0.4250141382217407,
                        -0.21397817134857179,
                        -0.3336554765701294,
                        -0.6495442390441895,
                        -0.3685535192489624,
                        -0.9445924758911133,
                        -0.4654947519302368,
                        -0.2916055917739868,
                        -0.2399977445602417,
                        -0.4520057439804077,
                        0.126578688621521
                    ],
                    "Bias": -0.10972011089324951
                },
                {
                    "Value": 0.8334493637084961,
                    "PreviousLayerNeuronValues": [
                        0.11993908882141113,
                        0.9223591089248657,
                        0.6196935772895813,
                        0.9235674142837524,
                        0.08968889713287354,
                        0.5078135132789612,
                        0.1594308614730835,
                        0.7941300868988037,
                        0.6009437441825867,
                        0.8273658752441406,
                        0.9493407011032105,
                        0.7109973430633545,
                        0.017221808433532716,
                        0.6827532052993774,
                        0.902321457862854,
                        0.04751408100128174,
                        0.04720604419708252,
                        0.9701136350631714,
                        0.20256578922271729,
                        0.7371317148208618
                    ],
                    "Weights": [
                        0.7330198287963867,
                        0.8424582481384277,
                        0.5395662784576416,
                        0.7792801856994629,
                        0.5208995342254639,
                        -0.9896645545959473,
                        0.13326871395111085,
                        0.23481595516204835,
                        -0.4554530382156372,
                        -0.5854551792144775,
                        -0.20843756198883058,
                        -0.37443482875823977,
                        0.8965632915496826,
                        0.2798754870891571,
                        -0.19340074062347413,
                        0.9915258884429932,
                        -0.684342622756958,
                        0.49261805415153506,
                        0.052527546882629397,
                        -0.8480877876281738
                    ],
                    "Bias": 0.474504679441452
                },
                {
                    "Value": 0.0,
                    "PreviousLayerNeuronValues": [
                        0.11993908882141113,
                        0.9223591089248657,
                        0.6196935772895813,
                        0.9235674142837524,
                        0.08968889713287354,
                        0.5078135132789612,
                        0.1594308614730835,
                        0.7941300868988037,
                        0.6009437441825867,
                        0.8273658752441406,
                        0.9493407011032105,
                        0.7109973430633545,
                        0.017221808433532716,
                        0.6827532052993774,
                        0.902321457862854,
                        0.04751408100128174,
                        0.04720604419708252,
                        0.9701136350631714,
                        0.20256578922271729,
                        0.7371317148208618
                    ],
                    "Weights": [
                        0.6841752529144287,
                        -0.2836998701095581,
                        0.1450597047805786,
                        -0.2661780118942261,
                        -0.05090773105621338,
                        0.18132174015045167,
                        -0.2880152463912964,
                        -0.36836326122283938,
                        0.00750887393951416,
                        -0.07259619235992432,
                        -0.4430321455001831,
                        0.5220870971679688,
                        -0.7935311794281006,
                        -0.34903132915496828,
                        -0.7432358264923096,
                        -0.6515407562255859,
                        -0.718747615814209,
                        -0.49093663692474368,
                        0.6328871250152588,
                        -0.47828876972198489
                    ],
                    "Bias": -0.621605396270752
                },
                {
                    "Value": 0.0,
                    "PreviousLayerNeuronValues": [
                        0.11993908882141113,
                        0.9223591089248657,
                        0.6196935772895813,
                        0.9235674142837524,
                        0.08968889713287354,
                        0.5078135132789612,
                        0.1594308614730835,
                        0.7941300868988037,
                        0.6009437441825867,
                        0.8273658752441406,
                        0.9493407011032105,
                        0.7109973430633545,
                        0.017221808433532716,
                        0.6827532052993774,
                        0.902321457862854,
                        0.04751408100128174,
                        0.04720604419708252,
                        0.9701136350631714,
                        0.20256578922271729,
                        0.7371317148208618
                    ],
                    "Weights": [
                        0.8254091739654541,
                        -0.6730308532714844,
                        0.2590775191783905,
                        0.7171778678894043,
                        -0.6748342514038086,
                        0.9041893482208252,
                        0.1077350378036499,
                        -0.45723021030426028,
                        -0.34036505222320559,
                        -0.07801306247711182,
                        0.977571964263916,
                        -0.8590297698974609,
                        -0.8108205795288086,
                        -0.04652440547943115,
                        0.08137118816375733,
                        0.7386698722839356,
                        -0.7852344512939453,
                        -0.4473329782485962,
                        -0.21208083629608155,
                        0.23460924625396729
                    ],
                    "Bias": -0.21701467037200929
                },
                {
                    "Value": 2.0510716438293459,
                    "PreviousLayerNeuronValues": [
                        0.11993908882141113,
                        0.9223591089248657,
                        0.6196935772895813,
                        0.9235674142837524,
                        0.08968889713287354,
                        0.5078135132789612,
                        0.1594308614730835,
                        0.7941300868988037,
                        0.6009437441825867,
                        0.8273658752441406,
                        0.9493407011032105,
                        0.7109973430633545,
                        0.017221808433532716,
                        0.6827532052993774,
                        0.902321457862854,
                        0.04751408100128174,
                        0.04720604419708252,
                        0.9701136350631714,
                        0.20256578922271729,
                        0.7371317148208618
                    ],
                    "Weights": [
                        -0.33256614208221438,
                        0.166162371635437,
                        0.6381409168243408,
                        -0.38357818126678469,
                        -0.45031821727752688,
                        0.34216758608818056,
                        0.12585937976837159,
                        0.3812060058116913,
                        -0.7907066345214844,
                        0.6389663219451904,
                        0.7637221813201904,
                        -0.8340580463409424,
                        -0.7289180755615234,
                        0.2170017957687378,
                        0.14692485332489015,
                        -0.5653295516967773,
                        -0.7571065425872803,
                        0.5307292938232422,
                        0.9823696613311768,
                        -0.052602410316467288
                    ],
                    "Bias": 0.3741712272167206
                },
                {
                    "Value": 0.0,
                    "PreviousLayerNeuronValues": [
                        0.11993908882141113,
                        0.9223591089248657,
                        0.6196935772895813,
                        0.9235674142837524,
                        0.08968889713287354,
                        0.5078135132789612,
                        0.1594308614730835,
                        0.7941300868988037,
                        0.6009437441825867,
                        0.8273658752441406,
                        0.9493407011032105,
                        0.7109973430633545,
                        0.017221808433532716,
                        0.6827532052993774,
                        0.902321457862854,
                        0.04751408100128174,
                        0.04720604419708252,
                        0.9701136350631714,
                        0.20256578922271729,
                        0.7371317148208618
                    ],
                    "Weights": [
                        0.9980809688568115,
                        -0.5623862743377686,
                        -0.714658260345459,
                        -0.6300854682922363,
                        -0.5108058452606201,
                        -0.9197413921356201,
                        0.34654518961906435,
                        -0.6934385299682617,
                        0.8834998607635498,
                        -0.21724188327789308,
                        -0.697904109954834,
                        0.8534369468688965,
                        -0.8102595806121826,
                        -0.2590698003768921,
                        0.3644818961620331,
                        -0.023645997047424318,
                        0.7547829151153565,
                        -0.29037654399871828,
                        0.12829458713531495,
                        -0.5204837322235107
                    ],
                    "Bias": -0.8980209827423096
                },
                {
                    "Value": 0.10038495063781738,
                    "PreviousLayerNeuronValues": [
                        0.11993908882141113,
                        0.9223591089248657,
                        0.6196935772895813,
                        0.9235674142837524,
                        0.08968889713287354,
                        0.5078135132789612,
                        0.1594308614730835,
                        0.7941300868988037,
                        0.6009437441825867,
                        0.8273658752441406,
                        0.9493407011032105,
                        0.7109973430633545,
                        0.017221808433532716,
                        0.6827532052993774,
                        0.902321457862854,
                        0.04751408100128174,
                        0.04720604419708252,
                        0.9701136350631714,
                        0.20256578922271729,
                        0.7371317148208618
                    ],
                    "Weights": [
                        -0.4641669988632202,
                        -0.5803618431091309,
                        0.5131235122680664,
                        0.6941237449645996,
                        0.3515441119670868,
                        0.21375620365142823,
                        0.9009010791778565,
                        0.06986749172210694,
                        0.15859782695770265,
                        0.3483109176158905,
                        -0.981231689453125,
                        -0.12565171718597413,
                        -0.2731984853744507,
                        -0.7803032398223877,
                        0.6118180751800537,
                        -0.760282039642334,
                        0.5027289390563965,
                        0.6843211650848389,
                        -0.868584156036377,
                        0.15386712551116944
                    ],
                    "Bias": -0.5730605125427246
                },
                {
                    "Value": 2.0476808547973635,
                    "PreviousLayerNeuronValues": [
                        0.11993908882141113,
                        0.9223591089248657,
                        0.6196935772895813,
                        0.9235674142837524,
                        0.08968889713287354,
                        0.5078135132789612,
                        0.1594308614730835,
                        0.7941300868988037,
                        0.6009437441825867,
                        0.8273658752441406,
                        0.9493407011032105,
                        0.7109973430633545,
                        0.017221808433532716,
                        0.6827532052993774,
                        0.902321457862854,
                        0.04751408100128174,
                        0.04720604419708252,
                        0.9701136350631714,
                        0.20256578922271729,
                        0.7371317148208618
                    ],
                    "Weights": [
                        0.48317334055900576,
                        -0.1536778211593628,
                        0.7401316165924072,
                        0.8632895946502686,
                        -0.9388160705566406,
                        0.033007025718688968,
                        0.5820333957672119,
                        0.960838794708252,
                        -0.2684546709060669,
                        -0.4967888593673706,
                        0.7461795806884766,
                        0.5730502605438232,
                        0.4494428336620331,
                        -0.5299341678619385,
                        0.6488471031188965,
                        -0.3991180658340454,
                        0.7926967144012451,
                        -0.9148175716400147,
                        -0.20127546787261964,
                        0.673830509185791
                    ],
                    "Bias": -0.2746385335922241
                },
                {
                    "Value": 0.0,
                    "PreviousLayerNeuronValues": [
                        0.11993908882141113,
                        0.9223591089248657,
                        0.6196935772895813,
                        0.9235674142837524,
                        0.08968889713287354,
                        0.5078135132789612,
                        0.1594308614730835,
                        0.7941300868988037,
                        0.6009437441825867,
                        0.8273658752441406,
                        0.9493407011032105,
                        0.7109973430633545,
                        0.017221808433532716,
                        0.6827532052993774,
                        0.902321457862854,
                        0.04751408100128174,
                        0.04720604419708252,
                        0.9701136350631714,
                        0.20256578922271729,
                        0.7371317148208618
                    ],
                    "Weights": [
                        -0.4045499563217163,
                        -0.26985490322113039,
                        -0.669513463973999,
                        0.12618887424468995,
                        0.7914557456970215,
                        0.11680328845977783,
                        -0.4071415662765503,
                        0.1942974328994751,
                        -0.33284127712249758,
                        0.7186102867126465,
                        0.38328811526298525,
                        -0.94185471534729,
                        0.1639653444290161,
                        0.18348848819732667,
                        -0.5618464946746826,
                        0.4980027377605438,
                        0.4264785945415497,
                        0.2563726603984833,
                        -0.39050614833831789,
                        -0.377069354057312
                    ],
                    "Bias": -0.5631914138793945
                },
                {
                    "Value": 0.0,
                    "PreviousLayerNeuronValues": [
                        0.11993908882141113,
                        0.9223591089248657,
                        0.6196935772895813,
                        0.9235674142837524,
                        0.08968889713287354,
                        0.5078135132789612,
                        0.1594308614730835,
                        0.7941300868988037,
                        0.6009437441825867,
                        0.8273658752441406,
                        0.9493407011032105,
                        0.7109973430633545,
                        0.017221808433532716,
                        0.6827532052993774,
                        0.902321457862854,
                        0.04751408100128174,
                        0.04720604419708252,
                        0.9701136350631714,
                        0.20256578922271729,
                        0.7371317148208618
                    ],
                    "Weights": [
                        0.4976522624492645,
                        -0.414281964302063,
                        -0.9509501457214356,
                        -0.7342879772186279,
                        0.37634512782096865,
                        0.055791497230529788,
                        0.04992878437042236,
                        0.9198770523071289,
                        -0.43925559520721438,
                        0.001833796501159668,
                        -0.11489903926849365,
                        0.9998500347137451,
                        0.9191431999206543,
                        0.4085104167461395,
                        -0.12687313556671143,
                        -0.37873613834381106,
                        0.27484437823295596,
                        -0.47564399242401125,
                        -0.7789933681488037,
                        -0.25764167308807375
                    ],
                    "Bias": 0.7746176719665527
                },
                {
                    "Value": 2.4365968704223635,
                    "PreviousLayerNeuronValues": [
                        0.11993908882141113,
                        0.9223591089248657,
                        0.6196935772895813,
                        0.9235674142837524,
                        0.08968889713287354,
                        0.5078135132789612,
                        0.1594308614730835,
                        0.7941300868988037,
                        0.6009437441825867,
                        0.8273658752441406,
                        0.9493407011032105,
                        0.7109973430633545,
                        0.017221808433532716,
                        0.6827532052993774,
                        0.902321457862854,
                        0.04751408100128174,
                        0.04720604419708252,
                        0.9701136350631714,
                        0.20256578922271729,
                        0.7371317148208618
                    ],
                    "Weights": [
                        -0.5441782474517822,
                        0.7259595394134522,
                        -0.7386908531188965,
                        0.9358906745910645,
                        0.37117454409599306,
                        -0.6084387302398682,
                        0.5337145328521729,
                        0.24240291118621827,
                        0.37599441409111025,
                        -0.6365876197814941,
                        0.536646842956543,
                        0.8072426319122315,
                        -0.5447924137115479,
                        0.8945999145507813,
                        0.10812294483184815,
                        -0.36577069759368899,
                        -0.14341318607330323,
                        -0.6702752113342285,
                        -0.10114943981170654,
                        -0.10666143894195557
                    ],
                    "Bias": 0.7156331539154053
                },
                {
                    "Value": 1.65972900390625,
                    "PreviousLayerNeuronValues": [
                        0.11993908882141113,
                        0.9223591089248657,
                        0.6196935772895813,
                        0.9235674142837524,
                        0.08968889713287354,
                        0.5078135132789612,
                        0.1594308614730835,
                        0.7941300868988037,
                        0.6009437441825867,
                        0.8273658752441406,
                        0.9493407011032105,
                        0.7109973430633545,
                        0.017221808433532716,
                        0.6827532052993774,
                        0.902321457862854,
                        0.04751408100128174,
                        0.04720604419708252,
                        0.9701136350631714,
                        0.20256578922271729,
                        0.7371317148208618
                    ],
                    "Weights": [
                        -0.6609516143798828,
                        0.7976417541503906,
                        0.31789204478263857,
                        0.8278524875640869,
                        -0.44361603260040285,
                        -0.032088398933410647,
                        0.5868923664093018,
                        -0.30383002758026125,
                        0.4725777804851532,
                        -0.9235641956329346,
                        0.5743865966796875,
                        0.65519118309021,
                        -0.8467245101928711,
                        0.117728590965271,
                        -0.385503888130188,
                        -0.7185602188110352,
                        -0.9672808647155762,
                        0.9210493564605713,
                        -0.3102349042892456,
                        0.18394887447357179
                    ],
                    "Bias": -0.8899028301239014
                },
                {
                    "Value": 0.10076376795768738,
                    "PreviousLayerNeuronValues": [
                        0.11993908882141113,
                        0.9223591089248657,
                        0.6196935772895813,
                        0.9235674142837524,
                        0.08968889713287354,
                        0.5078135132789612,
                        0.1594308614730835,
                        0.7941300868988037,
                        0.6009437441825867,
                        0.8273658752441406,
                        0.9493407011032105,
                        0.7109973430633545,
                        0.017221808433532716,
                        0.6827532052993774,
                        0.902321457862854,
                        0.04751408100128174,
                        0.04720604419708252,
                        0.9701136350631714,
                        0.20256578922271729,
                        0.7371317148208618
                    ],
                    "Weights": [
                        0.48082563281059267,
                        -0.209511399269104,
                        0.7061502933502197,
                        0.6066277027130127,
                        -0.09054696559906006,
                        -0.6832561492919922,
                        -0.6782388687133789,
                        -0.8460524082183838,
                        -0.13840115070343018,
                        0.9628114700317383,
                        0.027919888496398927,
                        -0.8518385887145996,
                        0.47916409373283389,
                        -0.21548306941986085,
                        -0.321560263633728,
                        -0.052910447120666507,
                        -0.7693977355957031,
                        -0.36271536350250246,
                        -0.02135026454925537,
                        0.7671229839324951
                    ],
                    "Bias": 0.49788329005241396
                },
                {
                    "Value": 0.0,
                    "PreviousLayerNeuronValues": [
                        0.11993908882141113,
                        0.9223591089248657,
                        0.6196935772895813,
                        0.9235674142837524,
                        0.08968889713287354,
                        0.5078135132789612,
                        0.1594308614730835,
                        0.7941300868988037,
                        0.6009437441825867,
                        0.8273658752441406,
                        0.9493407011032105,
                        0.7109973430633545,
                        0.017221808433532716,
                        0.6827532052993774,
                        0.902321457862854,
                        0.04751408100128174,
                        0.04720604419708252,
                        0.9701136350631714,
                        0.20256578922271729,
                        0.7371317148208618
                    ],
                    "Weights": [
                        -0.9335687160491943,
                        0.012988686561584473,
                        0.8787698745727539,
                        -0.8852121829986572,
                        -0.26098787784576418,
                        -0.3593555688858032,
                        -0.6607425212860107,
                        0.20046603679656983,
                        0.12725722789764405,
                        0.0797339677810669,
                        -0.8411197662353516,
                        0.44411417841911318,
                        0.3972756564617157,
                        0.6816208362579346,
                        -0.8098094463348389,
                        -0.8040633201599121,
                        0.23261797428131104,
                        -0.6465580463409424,
                        -0.04716503620147705,
                        -0.5472452640533447
                    ],
                    "Bias": 0.40475818514823916
                },
                {
                    "Value": 1.5367977619171143,
                    "PreviousLayerNeuronValues": [
                        0.11993908882141113,
                        0.9223591089248657,
                        0.6196935772895813,
                        0.9235674142837524,
                        0.08968889713287354,
                        0.5078135132789612,
                        0.1594308614730835,
                        0.7941300868988037,
                        0.6009437441825867,
                        0.8273658752441406,
                        0.9493407011032105,
                        0.7109973430633545,
                        0.017221808433532716,
                        0.6827532052993774,
                        0.902321457862854,
                        0.04751408100128174,
                        0.04720604419708252,
                        0.9701136350631714,
                        0.20256578922271729,
                        0.7371317148208618
                    ],
                    "Weights": [
                        -0.3929558992385864,
                        0.15065014362335206,
                        0.7175791263580322,
                        0.07976233959197998,
                        -0.8936724662780762,
                        -0.13127481937408448,
                        -0.1964653730392456,
                        -0.41417014598846438,
                        0.5520448684692383,
                        0.95699143409729,
                        0.7256512641906738,
                        0.11196744441986084,
                        0.9559578895568848,
                        -0.6597199440002441,
                        0.2317417860031128,
                        0.2525593936443329,
                        0.880561113357544,
                        0.40715929865837099,
                        0.40465137362480166,
                        0.25304552912712099
                    ],
                    "Bias": -0.9505541324615479
                },
                {
                    "Value": 0.0,
                    "PreviousLayerNeuronValues": [
                        0.11993908882141113,
                        0.9223591089248657,
                        0.6196935772895813,
                        0.9235674142837524,
                        0.08968889713287354,
                        0.5078135132789612,
                        0.1594308614730835,
                        0.7941300868988037,
                        0.6009437441825867,
                        0.8273658752441406,
                        0.9493407011032105,
                        0.7109973430633545,
                        0.017221808433532716,
                        0.6827532052993774,
                        0.902321457862854,
                        0.04751408100128174,
                        0.04720604419708252,
                        0.9701136350631714,
                        0.20256578922271729,
                        0.7371317148208618
                    ],
                    "Weights": [
                        0.026366114616394044,
                        -0.28427135944366457,
                        -0.22508585453033448,
                        0.15632188320159913,
                        -0.3785744905471802,
                        0.2848219573497772,
                        -0.37057650089263918,
                        -0.6659090518951416,
                        0.4187147319316864,
                        -0.5656387805938721,
                        0.7214162349700928,
                        0.9876449108123779,
                        0.8054578304290772,
                        0.8241884708404541,
                        -0.7773027420043945,
                        -0.6615912914276123,
                        -0.6198439598083496,
                        0.1860278844833374,
                        -0.9089539051055908,
                        -0.9714982509613037
                    ],
                    "Bias": -0.5331954956054688
                },
                {
                    "Value": 0.6758017539978027,
                    "PreviousLayerNeuronValues": [
                        0.11993908882141113,
                        0.9223591089248657,
                        0.6196935772895813,
                        0.9235674142837524,
                        0.08968889713287354,
                        0.5078135132789612,
                        0.1594308614730835,
                        0.7941300868988037,
                        0.6009437441825867,
                        0.8273658752441406,
                        0.9493407011032105,
                        0.7109973430633545,
                        0.017221808433532716,
                        0.6827532052993774,
                        0.902321457862854,
                        0.04751408100128174,
                        0.04720604419708252,
                        0.9701136350631714,
                        0.20256578922271729,
                        0.7371317148208618
                    ],
                    "Weights": [
                        -0.8601698875427246,
                        0.08818924427032471,
                        0.8148977756500244,
                        -0.8554608821868897,
                        -0.016941189765930177,
                        0.1727675199508667,
                        -0.1059650182723999,
                        -0.8759596347808838,
                        0.1493295431137085,
                        0.7071940898895264,
                        0.44558951258659365,
                        -0.25329720973968508,
                        -0.18675529956817628,
                        0.3738085925579071,
                        -0.8006815910339356,
                        -0.4508267641067505,
                        0.02246558666229248,
                        0.10807669162750244,
                        -0.7774491310119629,
                        0.9004123210906982
                    ],
                    "Bias": 0.5709977149963379
                },
                {
                    "Value": 0.0,
                    "PreviousLayerNeuronValues": [
                        0.11993908882141113,
                        0.9223591089248657,
                        0.6196935772895813,
                        0.9235674142837524,
                        0.08968889713287354,
                        0.5078135132789612,
                        0.1594308614730835,
                        0.7941300868988037,
                        0.6009437441825867,
                        0.8273658752441406,
                        0.9493407011032105,
                        0.7109973430633545,
                        0.017221808433532716,
                        0.6827532052993774,
                        0.902321457862854,
                        0.04751408100128174,
                        0.04720604419708252,
                        0.9701136350631714,
                        0.20256578922271729,
                        0.7371317148208618
                    ],
                    "Weights": [
                        -0.42702043056488039,
                        -0.9329507350921631,
                        0.6060383319854736,
                        0.8709044456481934,
                        0.7558722496032715,
                        -0.9119131565093994,
                        -0.9705092906951904,
                        -0.5239613056182861,
                        -0.4873460531234741,
                        0.8877139091491699,
                        -0.26933205127716067,
                        -0.15231573581695558,
                        0.6843094825744629,
                        -0.710482120513916,
                        0.4359540641307831,
                        0.6588656902313232,
                        -0.19445550441741944,
                        -0.052930235862731937,
                        0.0354384183883667,
                        0.5718309879302979
                    ],
                    "Bias": -0.5139048099517822
                },
                {
                    "Value": 0.0,
                    "PreviousLayerNeuronValues": [
                        0.11993908882141113,
                        0.9223591089248657,
                        0.6196935772895813,
                        0.9235674142837524,
                        0.08968889713287354,
                        0.5078135132789612,
                        0.1594308614730835,
                        0.7941300868988037,
                        0.6009437441825867,
                        0.8273658752441406,
                        0.9493407011032105,
                        0.7109973430633545,
                        0.017221808433532716,
                        0.6827532052993774,
                        0.902321457862854,
                        0.04751408100128174,
                        0.04720604419708252,
                        0.9701136350631714,
                        0.20256578922271729,
                        0.7371317148208618
                    ],
                    "Weights": [
                        -0.45188963413238528,
                        0.083793044090271,
                        0.17123281955718995,
                        0.9526634216308594,
                        -0.2416442632675171,
                        0.7358472347259522,
                        -0.4479762315750122,
                        0.14685237407684327,
                        0.09657847881317139,
                        -0.7205967903137207,
                        -0.3830918073654175,
                        0.7088487148284912,
                        0.6313815116882324,
                        -0.9469890594482422,
                        -0.8263759613037109,
                        -0.516371488571167,
                        -0.049050211906433108,
                        -0.08903872966766358,
                        0.04548370838165283,
                        0.7064261436462402
                    ],
                    "Bias": -0.9400827884674072
                },
                {
                    "Value": 1.1701738834381104,
                    "PreviousLayerNeuronValues": [
                        0.11993908882141113,
                        0.9223591089248657,
                        0.6196935772895813,
                        0.9235674142837524,
                        0.08968889713287354,
                        0.5078135132789612,
                        0.1594308614730835,
                        0.7941300868988037,
                        0.6009437441825867,
                        0.8273658752441406,
                        0.9493407011032105,
                        0.7109973430633545,
                        0.017221808433532716,
                        0.6827532052993774,
                        0.902321457862854,
                        0.04751408100128174,
                        0.04720604419708252,
                        0.9701136350631714,
                        0.20256578922271729,
                        0.7371317148208618
                    ],
                    "Weights": [
                        0.8415846824645996,
                        -0.8731992244720459,
                        0.7931969165802002,
                        -0.05798542499542236,
                        0.3853623569011688,
                        0.278548926115036,
                        -0.4593857526779175,
                        0.3924965560436249,
                        -0.6627669334411621,
                        -0.414725661277771,
                        -0.1500462293624878,
                        -0.17968499660491944,
                        -0.6188993453979492,
                        0.9854831695556641,
                        0.7154042720794678,
                        0.6441190242767334,
                        -0.35157310962677,
                        0.2598831355571747,
                        0.9397408962249756,
                        0.059847235679626468
                    ],
                    "Bias": 0.22549498081207276
                },
                {
                    "Value": 1.137608289718628,
                    "PreviousLayerNeuronValues": [
                        0.11993908882141113,
                        0.9223591089248657,
                        0.6196935772895813,
                        0.9235674142837524,
                        0.08968889713287354,
                        0.5078135132789612,
                        0.1594308614730835,
                        0.7941300868988037,
                        0.6009437441825867,
                        0.8273658752441406,
                        0.9493407011032105,
                        0.7109973430633545,
                        0.017221808433532716,
                        0.6827532052993774,
                        0.902321457862854,
                        0.04751408100128174,
                        0.04720604419708252,
                        0.9701136350631714,
                        0.20256578922271729,
                        0.7371317148208618
                    ],
                    "Weights": [
                        -0.7039906978607178,
                        -0.43469464778900149,
                        0.20080959796905518,
                        0.2189871072769165,
                        -0.7824544906616211,
                        0.010485053062438965,
                        -0.7121171951293945,
                        -0.4507654905319214,
                        0.6963968276977539,
                        -0.023680806159973146,
                        0.46184250712394717,
                        -0.15686380863189698,
                        0.8219363689422607,
                        0.29105493426322939,
                        -0.8348245620727539,
                        0.4758622348308563,
                        -0.6236128807067871,
                        0.504256010055542,
                        0.5965080261230469,
                        0.6329057216644287
                    ],
                    "Bias": 0.5775148868560791
                },
                {
                    "Value": 0.0,
                    "PreviousLayerNeuronValues": [
                        0.11993908882141113,
                        0.9223591089248657,
                        0.6196935772895813,
                        0.9235674142837524,
                        0.08968889713287354,
                        0.5078135132789612,
                        0.1594308614730835,
                        0.7941300868988037,
                        0.6009437441825867,
                        0.8273658752441406,
                        0.9493407011032105,
                        0.7109973430633545,
                        0.017221808433532716,
                        0.6827532052993774,
                        0.902321457862854,
                        0.04751408100128174,
                        0.04720604419708252,
                        0.9701136350631714,
                        0.20256578922271729,
                        0.7371317148208618
                    ],
                    "Weights": [
                        0.5892879962921143,
                        -0.8604838848114014,
                        -0.7545232772827148,
                        0.9154293537139893,
                        0.2475200891494751,
                        0.1082383394241333,
                        0.25563403964042666,
                        -0.3876301050186157,
                        -0.46934616565704348,
                        0.40121981501579287,
                        -0.04379379749298096,
                        0.02731788158416748,
                        0.11039197444915772,
                        0.8000352382659912,
                        -0.275112509727478,
                        0.3742391765117645,
                        0.7956745624542236,
                        0.38350507616996767,
                        -0.8121953010559082,
                        -0.7271606922149658
                    ],
                    "Bias": -0.6224331855773926
                },
                {
                    "Value": 0.0,
                    "PreviousLayerNeuronValues": [
                        0.11993908882141113,
                        0.9223591089248657,
                        0.6196935772895813,
                        0.9235674142837524,
                        0.08968889713287354,
                        0.5078135132789612,
                        0.1594308614730835,
                        0.7941300868988037,
                        0.6009437441825867,
                        0.8273658752441406,
                        0.9493407011032105,
                        0.7109973430633545,
                        0.017221808433532716,
                        0.6827532052993774,
                        0.902321457862854,
                        0.04751408100128174,
                        0.04720604419708252,
                        0.9701136350631714,
                        0.20256578922271729,
                        0.7371317148208618
                    ],
                    "Weights": [
                        -0.6269471645355225,
                        0.18247759342193604,
                        -0.4697786569595337,
                        0.765160322189331,
                        -0.7850699424743652,
                        0.3262729346752167,
                        0.687185525894165,
                        -0.2777613401412964,
                        0.46437880396842959,
                        0.11914145946502686,
                        -0.395046591758728,
                        0.08900368213653565,
                        -0.15579164028167725,
                        -0.7500667572021484,
                        -0.005205273628234863,
                        0.45511481165885928,
                        -0.7231712341308594,
                        -0.5241997241973877,
                        -0.3266862630844116,
                        -0.762592077255249
                    ],
                    "Bias": 0.9641077518463135
                }
            ]
        },
        {
            "Neurons": [
                {
                    "Value": 1.8513789176940919,
                    "PreviousLayerNeuronValues": [
                        1.9473469257354737,
                        0.0,
                        1.2483230829238892,
                        1.931190013885498,
                        0.0,
                        1.4744868278503419,
                        0.0,
                        0.0,
                        0.0,
                        0.0,
                        0.8334493637084961,
                        0.0,
                        0.0,
                        2.0510716438293459,
                        0.0,
                        0.10038495063781738,
                        2.0476808547973635,
                        0.0,
                        0.0,
                        2.4365968704223635,
                        1.65972900390625,
                        0.10076376795768738,
                        0.0,
                        1.5367977619171143,
                        0.0,
                        0.6758017539978027,
                        0.0,
                        0.0,
                        1.1701738834381104,
                        1.137608289718628,
                        0.0,
                        0.0
                    ],
                    "Weights": [
                        -0.34710681438446047,
                        -0.5575659275054932,
                        0.5062475204467773,
                        -0.13734352588653565,
                        -0.6478321552276611,
                        0.0463336706161499,
                        0.025324702262878419,
                        -0.903012752532959,
                        0.19103801250457765,
                        0.1442621946334839,
                        0.17692673206329347,
                        -0.21055471897125245,
                        -0.42180192470550539,
                        0.7891058921813965,
                        0.1592317819595337,
                        -0.1476212739944458,
                        0.2292550802230835,
                        -0.6968998908996582,
                        0.3326992690563202,
                        -0.5877861976623535,
                        -0.20922958850860597,
                        0.19740712642669679,
                        -0.13311851024627686,
                        -0.20049035549163819,
                        -0.8046715259552002,
                        -0.19655263423919679,
                        -0.6639153957366943,
                        -0.8735167980194092,
                        0.46942541003227236,
                        0.8505997657775879,
                        0.11198890209197998,
                        -0.4765430688858032
                    ],
                    "Bias": 0.5552353858947754
                },
                {
                    "Value": 3.836609363555908,
                    "PreviousLayerNeuronValues": [
                        1.9473469257354737,
                        0.0,
                        1.2483230829238892,
                        1.931190013885498,
                        0.0,
                        1.4744868278503419,
                        0.0,
                        0.0,
                        0.0,
                        0.0,
                        0.8334493637084961,
                        0.0,
                        0.0,
                        2.0510716438293459,
                        0.0,
                        0.10038495063781738,
                        2.0476808547973635,
                        0.0,
                        0.0,
                        2.4365968704223635,
                        1.65972900390625,
                        0.10076376795768738,
                        0.0,
                        1.5367977619171143,
                        0.0,
                        0.6758017539978027,
                        0.0,
                        0.0,
                        1.1701738834381104,
                        1.137608289718628,
                        0.0,
                        0.0
                    ],
                    "Weights": [
                        0.34050461649894717,
                        -0.10960400104522705,
                        0.9734780788421631,
                        0.6747722625732422,
                        -0.33700644969940188,
                        -0.4338632822036743,
                        -0.15226805210113526,
                        -0.06518256664276123,
                        -0.13167989253997804,
                        -0.0008331537246704102,
                        0.5762362480163574,
                        0.6616208553314209,
                        0.6814825534820557,
                        0.3597225844860077,
                        -0.6417407989501953,
                        -0.7797994613647461,
                        0.7477970123291016,
                        -0.9823338985443115,
                        0.19487082958221436,
                        0.007255196571350098,
                        -0.45045721530914309,
                        -0.5998272895812988,
                        0.9915070533752441,
                        -0.10772097110748291,
                        -0.01661694049835205,
                        0.38278529047966006,
                        0.10350525379180908,
                        0.5498547554016113,
                        -0.45402848720550539,
                        -0.29933273792266848,
                        -0.7773432731628418,
                        -0.6241195201873779
                    ],
                    "Bias": 0.19294989109039308
                },
                {
                    "Value": 2.6503796577453615,
                    "PreviousLayerNeuronValues": [
                        1.9473469257354737,
                        0.0,
                        1.2483230829238892,
                        1.931190013885498,
                        0.0,
                        1.4744868278503419,
                        0.0,
                        0.0,
                        0.0,
                        0.0,
                        0.8334493637084961,
                        0.0,
                        0.0,
                        2.0510716438293459,
                        0.0,
                        0.10038495063781738,
                        2.0476808547973635,
                        0.0,
                        0.0,
                        2.4365968704223635,
                        1.65972900390625,
                        0.10076376795768738,
                        0.0,
                        1.5367977619171143,
                        0.0,
                        0.6758017539978027,
                        0.0,
                        0.0,
                        1.1701738834381104,
                        1.137608289718628,
                        0.0,
                        0.0
                    ],
                    "Weights": [
                        0.8958361148834229,
                        0.454905241727829,
                        0.4611506164073944,
                        0.7110602855682373,
                        -0.9132201671600342,
                        -0.9387786388397217,
                        -0.620121955871582,
                        -0.7791614532470703,
                        0.8234384059906006,
                        -0.0005680322647094727,
                        0.13583052158355714,
                        -0.5116181373596191,
                        0.9948482513427734,
                        -0.21417605876922608,
                        -0.5513949394226074,
                        -0.6743886470794678,
                        -0.3765944242477417,
                        0.9196457862854004,
                        0.6842668056488037,
                        -0.2076789140701294,
                        0.130243182182312,
                        0.17018210887908936,
                        0.7526247501373291,
                        0.2505664527416229,
                        -0.3191870450973511,
                        0.6487421989440918,
                        -0.17866981029510499,
                        0.5499334335327148,
                        0.34424278140068056,
                        -0.2551654577255249,
                        -0.1730269193649292,
                        -0.5318222045898438
                    ],
                    "Bias": 0.8428380489349365
                },
                {
                    "Value": 3.025900363922119,
                    "PreviousLayerNeuronValues": [
                        1.9473469257354737,
                        0.0,
                        1.2483230829238892,
                        1.931190013885498,
                        0.0,
                        1.4744868278503419,
                        0.0,
                        0.0,
                        0.0,
                        0.0,
                        0.8334493637084961,
                        0.0,
                        0.0,
                        2.0510716438293459,
                        0.0,
                        0.10038495063781738,
                        2.0476808547973635,
                        0.0,
                        0.0,
                        2.4365968704223635,
                        1.65972900390625,
                        0.10076376795768738,
                        0.0,
                        1.5367977619171143,
                        0.0,
                        0.6758017539978027,
                        0.0,
                        0.0,
                        1.1701738834381104,
                        1.137608289718628,
                        0.0,
                        0.0
                    ],
                    "Weights": [
                        -0.9241976737976074,
                        -0.2812899351119995,
                        0.5582268238067627,
                        0.09871494770050049,
                        0.38750001788139346,
                        0.6201915740966797,
                        -0.13500750064849854,
                        0.7513890266418457,
                        0.563650369644165,
                        -0.195870041847229,
                        -0.3953968286514282,
                        -0.6881492137908936,
                        -0.6196627616882324,
                        0.6065154075622559,
                        0.4034859836101532,
                        -0.2749990224838257,
                        0.618873119354248,
                        0.7036960124969482,
                        -0.32524383068084719,
                        0.23617804050445558,
                        -0.3708699941635132,
                        0.5342092514038086,
                        0.6092061996459961,
                        0.17247188091278077,
                        -0.6452293395996094,
                        -0.4807189702987671,
                        -0.8731777667999268,
                        0.15831267833709718,
                        -0.0835338830947876,
                        0.6930458545684815,
                        0.209264874458313,
                        -0.619349479675293
                    ],
                    "Bias": 0.2249675989151001
                },
                {
                    "Value": 0.0,
                    "PreviousLayerNeuronValues": [
                        1.9473469257354737,
                        0.0,
                        1.2483230829238892,
                        1.931190013885498,
                        0.0,
                        1.4744868278503419,
                        0.0,
                        0.0,
                        0.0,
                        0.0,
                        0.8334493637084961,
                        0.0,
                        0.0,
                        2.0510716438293459,
                        0.0,
                        0.10038495063781738,
                        2.0476808547973635,
                        0.0,
                        0.0,
                        2.4365968704223635,
                        1.65972900390625,
                        0.10076376795768738,
                        0.0,
                        1.5367977619171143,
                        0.0,
                        0.6758017539978027,
                        0.0,
                        0.0,
                        1.1701738834381104,
                        1.137608289718628,
                        0.0,
                        0.0
                    ],
                    "Weights": [
                        -0.04731595516204834,
                        0.30673477053642275,
                        -0.7242815494537354,
                        -0.3474498987197876,
                        0.36578699946403506,
                        0.7548551559448242,
                        -0.5362319946289063,
                        0.5358235836029053,
                        0.027368903160095216,
                        -0.23773705959320069,
                        -0.5924937725067139,
                        0.39254137873649599,
                        0.2089482545852661,
                        -0.6064367294311523,
                        -0.65390944480896,
                        0.6817281246185303,
                        0.8526315689086914,
                        0.0872417688369751,
                        -0.948824405670166,
                        -0.21178853511810304,
                        0.4227881133556366,
                        -0.6869349479675293,
                        0.2621020972728729,
                        0.48348018527030947,
                        -0.8998048305511475,
                        0.8156027793884277,
                        0.628415584564209,
                        -0.5133838653564453,
                        0.09946548938751221,
                        -0.8482847213745117,
                        0.7104628086090088,
                        0.9954831600189209
                    ],
                    "Bias": -0.4234811067581177
                },
                {
                    "Value": 5.072813987731934,
                    "PreviousLayerNeuronValues": [
                        1.9473469257354737,
                        0.0,
                        1.2483230829238892,
                        1.931190013885498,
                        0.0,
                        1.4744868278503419,
                        0.0,
                        0.0,
                        0.0,
                        0.0,
                        0.8334493637084961,
                        0.0,
                        0.0,
                        2.0510716438293459,
                        0.0,
                        0.10038495063781738,
                        2.0476808547973635,
                        0.0,
                        0.0,
                        2.4365968704223635,
                        1.65972900390625,
                        0.10076376795768738,
                        0.0,
                        1.5367977619171143,
                        0.0,
                        0.6758017539978027,
                        0.0,
                        0.0,
                        1.1701738834381104,
                        1.137608289718628,
                        0.0,
                        0.0
                    ],
                    "Weights": [
                        -0.46310102939605715,
                        -0.09638631343841553,
                        0.5055747032165527,
                        0.16921913623809815,
                        -0.12245666980743408,
                        0.8766598701477051,
                        0.38675305247306826,
                        0.43826958537101748,
                        0.6174769401550293,
                        0.34687539935112,
                        -0.9023289680480957,
                        0.8932359218597412,
                        0.7193832397460938,
                        0.6524665355682373,
                        -0.3442138433456421,
                        0.9663527011871338,
                        0.3523249328136444,
                        0.22260677814483643,
                        -0.9515876770019531,
                        0.10508906841278076,
                        0.0541461706161499,
                        0.5072216987609863,
                        0.7616281509399414,
                        0.7846634387969971,
                        -0.5593349933624268,
                        0.3523256480693817,
                        -0.6446323394775391,
                        -0.9806809425354004,
                        -0.03475916385650635,
                        0.9529070854187012,
                        -0.27363502979278567,
                        -0.5765964984893799
                    ],
                    "Bias": -0.56494140625
                },
                {
                    "Value": 0.0,
                    "PreviousLayerNeuronValues": [
                        1.9473469257354737,
                        0.0,
                        1.2483230829238892,
                        1.931190013885498,
                        0.0,
                        1.4744868278503419,
                        0.0,
                        0.0,
                        0.0,
                        0.0,
                        0.8334493637084961,
                        0.0,
                        0.0,
                        2.0510716438293459,
                        0.0,
                        0.10038495063781738,
                        2.0476808547973635,
                        0.0,
                        0.0,
                        2.4365968704223635,
                        1.65972900390625,
                        0.10076376795768738,
                        0.0,
                        1.5367977619171143,
                        0.0,
                        0.6758017539978027,
                        0.0,
                        0.0,
                        1.1701738834381104,
                        1.137608289718628,
                        0.0,
                        0.0
                    ],
                    "Weights": [
                        0.872352123260498,
                        0.7246828079223633,
                        -0.6259567737579346,
                        0.6556394100189209,
                        -0.8109996318817139,
                        0.02455747127532959,
                        -0.6104590892791748,
                        0.11163771152496338,
                        -0.7613048553466797,
                        -0.5886123180389404,
                        -0.207511305809021,
                        0.9361279010772705,
                        -0.3773454427719116,
                        -0.6270790100097656,
                        0.6487083435058594,
                        -0.0003947019577026367,
                        -0.22138893604278565,
                        -0.3768121004104614,
                        0.9420318603515625,
                        0.19609606266021729,
                        -0.7995970249176025,
                        -0.2283390760421753,
                        0.3809950053691864,
                        0.8107373714447022,
                        -0.24850571155548097,
                        -0.37587058544158938,
                        0.29696032404899599,
                        0.38217684626579287,
                        -0.9956774711608887,
                        -0.7504291534423828,
                        0.6255195140838623,
                        -0.61480712890625
                    ],
                    "Bias": 0.003982663154602051
                },
                {
                    "Value": 3.5882019996643068,
                    "PreviousLayerNeuronValues": [
                        1.9473469257354737,
                        0.0,
                        1.2483230829238892,
                        1.931190013885498,
                        0.0,
                        1.4744868278503419,
                        0.0,
                        0.0,
                        0.0,
                        0.0,
                        0.8334493637084961,
                        0.0,
                        0.0,
                        2.0510716438293459,
                        0.0,
                        0.10038495063781738,
                        2.0476808547973635,
                        0.0,
                        0.0,
                        2.4365968704223635,
                        1.65972900390625,
                        0.10076376795768738,
                        0.0,
                        1.5367977619171143,
                        0.0,
                        0.6758017539978027,
                        0.0,
                        0.0,
                        1.1701738834381104,
                        1.137608289718628,
                        0.0,
                        0.0
                    ],
                    "Weights": [
                        -0.0286790132522583,
                        -0.43629324436187746,
                        -0.19433939456939698,
                        0.6109318733215332,
                        0.2927188575267792,
                        0.32323190569877627,
                        -0.2583962678909302,
                        -0.8471457958221436,
                        0.9962882995605469,
                        -0.45333564281463625,
                        -0.4935039281845093,
                        0.21229946613311768,
                        0.10597479343414307,
                        0.805448055267334,
                        0.9046194553375244,
                        -0.1560424566268921,
                        -0.16364538669586183,
                        0.9323134422302246,
                        0.44236013293266299,
                        0.16096341609954835,
                        0.6471855640411377,
                        0.09108364582061768,
                        -0.4889601469039917,
                        0.1955946683883667,
                        -0.8719315528869629,
                        0.7969143390655518,
                        -0.8885781764984131,
                        -0.21622145175933839,
                        -0.395105242729187,
                        -0.5708963871002197,
                        -0.8576900959014893,
                        -0.5517880916595459
                    ],
                    "Bias": 0.13737761974334718
                },
                {
                    "Value": 0.0,
                    "PreviousLayerNeuronValues": [
                        1.9473469257354737,
                        0.0,
                        1.2483230829238892,
                        1.931190013885498,
                        0.0,
                        1.4744868278503419,
                        0.0,
                        0.0,
                        0.0,
                        0.0,
                        0.8334493637084961,
                        0.0,
                        0.0,
                        2.0510716438293459,
                        0.0,
                        0.10038495063781738,
                        2.0476808547973635,
                        0.0,
                        0.0,
                        2.4365968704223635,
                        1.65972900390625,
                        0.10076376795768738,
                        0.0,
                        1.5367977619171143,
                        0.0,
                        0.6758017539978027,
                        0.0,
                        0.0,
                        1.1701738834381104,
                        1.137608289718628,
                        0.0,
                        0.0
                    ],
                    "Weights": [
                        -0.9391012191772461,
                        -0.008385777473449707,
                        0.8697237968444824,
                        -0.4340254068374634,
                        0.9817161560058594,
                        -0.7590861320495606,
                        -0.49876201152801516,
                        -0.8954873085021973,
                        -0.02645432949066162,
                        0.9131155014038086,
                        -0.9116480350494385,
                        -0.8097195625305176,
                        0.6429569721221924,
                        -0.8048102855682373,
                        -0.3426409959793091,
                        -0.6764159202575684,
                        -0.656578779220581,
                        -0.6011734008789063,
                        0.521512508392334,
                        -0.23226892948150636,
                        0.1789015531539917,
                        0.3492755591869354,
                        -0.87673020362854,
                        0.9293203353881836,
                        -0.61330246925354,
                        0.8256585597991943,
                        -0.023200154304504396,
                        0.6177773475646973,
                        0.02204573154449463,
                        0.1218329668045044,
                        -0.32974350452423098,
                        0.6487126350402832
                    ],
                    "Bias": 0.9513514041900635
                },
                {
                    "Value": 1.5644515752792359,
                    "PreviousLayerNeuronValues": [
                        1.9473469257354737,
                        0.0,
                        1.2483230829238892,
                        1.931190013885498,
                        0.0,
                        1.4744868278503419,
                        0.0,
                        0.0,
                        0.0,
                        0.0,
                        0.8334493637084961,
                        0.0,
                        0.0,
                        2.0510716438293459,
                        0.0,
                        0.10038495063781738,
                        2.0476808547973635,
                        0.0,
                        0.0,
                        2.4365968704223635,
                        1.65972900390625,
                        0.10076376795768738,
                        0.0,
                        1.5367977619171143,
                        0.0,
                        0.6758017539978027,
                        0.0,
                        0.0,
                        1.1701738834381104,
                        1.137608289718628,
                        0.0,
                        0.0
                    ],
                    "Weights": [
                        -0.04017055034637451,
                        0.9976422786712647,
                        -0.9447643756866455,
                        0.7358396053314209,
                        0.28124281764030459,
                        0.49172112345695498,
                        0.8105690479278565,
                        -0.36187827587127688,
                        -0.6318874359130859,
                        0.3222787082195282,
                        0.8637905120849609,
                        0.6398289203643799,
                        0.7080368995666504,
                        -0.678999662399292,
                        0.004239916801452637,
                        -0.43753087520599368,
                        -0.6397867202758789,
                        0.5224151611328125,
                        0.842883825302124,
                        0.2988984286785126,
                        -0.3331197500228882,
                        -0.08241641521453858,
                        -0.714184045791626,
                        0.3048510253429413,
                        0.4486858546733856,
                        0.873253345489502,
                        0.9221625328063965,
                        0.5029780864715576,
                        0.8478095531463623,
                        0.7007184028625488,
                        0.6822364330291748,
                        0.2611701190471649
                    ],
                    "Bias": -0.3122521638870239
                },
                {
                    "Value": 2.841373920440674,
                    "PreviousLayerNeuronValues": [
                        1.9473469257354737,
                        0.0,
                        1.2483230829238892,
                        1.931190013885498,
                        0.0,
                        1.4744868278503419,
                        0.0,
                        0.0,
                        0.0,
                        0.0,
                        0.8334493637084961,
                        0.0,
                        0.0,
                        2.0510716438293459,
                        0.0,
                        0.10038495063781738,
                        2.0476808547973635,
                        0.0,
                        0.0,
                        2.4365968704223635,
                        1.65972900390625,
                        0.10076376795768738,
                        0.0,
                        1.5367977619171143,
                        0.0,
                        0.6758017539978027,
                        0.0,
                        0.0,
                        1.1701738834381104,
                        1.137608289718628,
                        0.0,
                        0.0
                    ],
                    "Weights": [
                        -0.1105431318283081,
                        0.05415141582489014,
                        0.7610354423522949,
                        0.4416217505931854,
                        -0.10043442249298096,
                        0.9084367752075195,
                        0.261393278837204,
                        -0.31849777698516848,
                        -0.25158488750457766,
                        0.018013596534729005,
                        0.5981135368347168,
                        0.513662576675415,
                        -0.21159422397613526,
                        0.9316887855529785,
                        -0.7676498889923096,
                        0.19279539585113526,
                        0.3018905818462372,
                        0.3411714732646942,
                        0.3431989848613739,
                        -0.5111844539642334,
                        -0.7238514423370361,
                        0.6493711471557617,
                        0.7777633666992188,
                        -0.13590824604034425,
                        0.5201516151428223,
                        -0.6867756843566895,
                        -0.781522274017334,
                        -0.4178584814071655,
                        0.819284200668335,
                        -0.6973280906677246,
                        0.9786145687103272,
                        0.4019570052623749
                    ],
                    "Bias": -0.2436150312423706
                },
                {
                    "Value": 0.0,
                    "PreviousLayerNeuronValues": [
                        1.9473469257354737,
                        0.0,
                        1.2483230829238892,
                        1.931190013885498,
                        0.0,
                        1.4744868278503419,
                        0.0,
                        0.0,
                        0.0,
                        0.0,
                        0.8334493637084961,
                        0.0,
                        0.0,
                        2.0510716438293459,
                        0.0,
                        0.10038495063781738,
                        2.0476808547973635,
                        0.0,
                        0.0,
                        2.4365968704223635,
                        1.65972900390625,
                        0.10076376795768738,
                        0.0,
                        1.5367977619171143,
                        0.0,
                        0.6758017539978027,
                        0.0,
                        0.0,
                        1.1701738834381104,
                        1.137608289718628,
                        0.0,
                        0.0
                    ],
                    "Weights": [
                        -0.43669283390045168,
                        0.8310065269470215,
                        0.848618745803833,
                        -0.012418389320373536,
                        -0.5509898662567139,
                        0.31506821513175967,
                        -0.6743152141571045,
                        -0.23221838474273683,
                        -0.9167087078094482,
                        0.2090386152267456,
                        -0.5879230499267578,
                        -0.446006178855896,
                        0.9795668125152588,
                        0.07063567638397217,
                        0.7492227554321289,
                        0.8759918212890625,
                        -0.7877202033996582,
                        0.0023037195205688478,
                        -0.8800828456878662,
                        0.5427613258361816,
                        0.7964730262756348,
                        0.5520772933959961,
                        0.8091044425964356,
                        -0.19926226139068604,
                        0.9479143619537354,
                        -0.22760045528411866,
                        0.7810370922088623,
                        -0.8623340129852295,
                        -0.5727746486663818,
                        -0.7722365856170654,
                        -0.03925955295562744,
                        -0.6407835483551025
                    ],
                    "Bias": 0.14635956287384034
                },
                {
                    "Value": 6.805976390838623,
                    "PreviousLayerNeuronValues": [
                        1.9473469257354737,
                        0.0,
                        1.2483230829238892,
                        1.931190013885498,
                        0.0,
                        1.4744868278503419,
                        0.0,
                        0.0,
                        0.0,
                        0.0,
                        0.8334493637084961,
                        0.0,
                        0.0,
                        2.0510716438293459,
                        0.0,
                        0.10038495063781738,
