{
    "HiddenLayers": [
        {
            "HiddenNeurons": [
                {
                    "Value": 0.3551475405693054,
                    "PreviousLayerNeuronValues": [
                        0.20892824232578278,
                        0.3132536709308624,
                        0.34312382340431216,
                        0.21100392937660218,
                        0.26040831208229067,
                        0.3536016047000885,
                        0.23358133435249329,
                        0.29317885637283327,
                        0.250470906496048,
                        0.2665700912475586,
                        0.2626238763332367,
                        0.27304941415786745,
                        0.25094160437583926,
                        0.27114418148994448,
                        0.1977430284023285,
                        0.3074774444103241,
                        0.2718254029750824,
                        0.2270788550376892,
                        0.17847661674022675,
                        0.29342973232269289,
                        0.4015417993068695,
                        0.0,
                        1.0
                    ],
                    "Weights": [
                        0.575527548789978,
                        -0.059974439442157748,
                        0.4705592393875122,
                        0.37865352630615237,
                        -0.877602219581604,
                        0.07700006663799286,
                        0.9101632237434387,
                        0.9296627044677734,
                        0.4061533212661743,
                        -1.1154838800430298,
                        0.09884164482355118,
                        -1.2137595415115357,
                        0.05227416753768921,
                        -0.08650948107242584,
                        1.312720537185669,
                        0.02820693701505661,
                        1.2657681703567505,
                        -0.30671319365501406,
                        0.6230549216270447,
                        0.014058277010917664,
                        -0.13929243385791779,
                        -0.09206456691026688,
                        -1.3705716133117676
                    ],
                    "Bias": 1.0084116458892823
                },
                {
                    "Value": 0.0,
                    "PreviousLayerNeuronValues": [
                        0.20892824232578278,
                        0.3132536709308624,
                        0.34312382340431216,
                        0.21100392937660218,
                        0.26040831208229067,
                        0.3536016047000885,
                        0.23358133435249329,
                        0.29317885637283327,
                        0.250470906496048,
                        0.2665700912475586,
                        0.2626238763332367,
                        0.27304941415786745,
                        0.25094160437583926,
                        0.27114418148994448,
                        0.1977430284023285,
                        0.3074774444103241,
                        0.2718254029750824,
                        0.2270788550376892,
                        0.17847661674022675,
                        0.29342973232269289,
                        0.4015417993068695,
                        0.0,
                        1.0
                    ],
                    "Weights": [
                        -0.7869812846183777,
                        -0.2795349061489105,
                        0.3951820135116577,
                        0.32053929567337038,
                        0.34084105491638186,
                        -1.865721344947815,
                        1.0294779539108277,
                        0.6228505373001099,
                        0.33988791704177859,
                        0.6772293448448181,
                        0.7553370594978333,
                        1.7136105298995972,
                        0.016154780983924867,
                        -1.2137370109558106,
                        0.8941280841827393,
                        -0.3045012652873993,
                        0.6224371194839478,
                        1.0115264654159547,
                        -1.0210928916931153,
                        0.08144151419401169,
                        1.6039800643920899,
                        0.22611385583877564,
                        -1.6839284896850587
                    ],
                    "Bias": -0.5358348488807678
                },
                {
                    "Value": 3.0715677738189699,
                    "PreviousLayerNeuronValues": [
                        0.20892824232578278,
                        0.3132536709308624,
                        0.34312382340431216,
                        0.21100392937660218,
                        0.26040831208229067,
                        0.3536016047000885,
                        0.23358133435249329,
                        0.29317885637283327,
                        0.250470906496048,
                        0.2665700912475586,
                        0.2626238763332367,
                        0.27304941415786745,
                        0.25094160437583926,
                        0.27114418148994448,
                        0.1977430284023285,
                        0.3074774444103241,
                        0.2718254029750824,
                        0.2270788550376892,
                        0.17847661674022675,
                        0.29342973232269289,
                        0.4015417993068695,
                        0.0,
                        1.0
                    ],
                    "Weights": [
                        0.3663349747657776,
                        0.04904787242412567,
                        1.1271578073501588,
                        0.2986808717250824,
                        -0.861040472984314,
                        -0.2676776647567749,
                        -0.1842954158782959,
                        0.5081682205200195,
                        -0.9875297546386719,
                        -1.1638157367706299,
                        -1.0310401916503907,
                        -2.035761833190918,
                        -1.1865086555480958,
                        1.819679856300354,
                        -0.027347557246685029,
                        0.05687381699681282,
                        1.3375521898269654,
                        -0.06823498755693436,
                        0.2817661762237549,
                        0.8245428204536438,
                        0.7747927308082581,
                        -0.2828947901725769,
                        1.2779310941696168
                    ],
                    "Bias": 1.6899570226669312
                },
                {
                    "Value": 1.3896182775497437,
                    "PreviousLayerNeuronValues": [
                        0.20892824232578278,
                        0.3132536709308624,
                        0.34312382340431216,
                        0.21100392937660218,
                        0.26040831208229067,
                        0.3536016047000885,
                        0.23358133435249329,
                        0.29317885637283327,
                        0.250470906496048,
                        0.2665700912475586,
                        0.2626238763332367,
                        0.27304941415786745,
                        0.25094160437583926,
                        0.27114418148994448,
                        0.1977430284023285,
                        0.3074774444103241,
                        0.2718254029750824,
                        0.2270788550376892,
                        0.17847661674022675,
                        0.29342973232269289,
                        0.4015417993068695,
                        0.0,
                        1.0
                    ],
                    "Weights": [
                        -0.6435474157333374,
                        -0.43361011147499087,
                        -0.5637195706367493,
                        0.8513677716255188,
                        -0.4564858376979828,
                        -0.21388746798038484,
                        -0.3892085552215576,
                        -0.24888008832931519,
                        -0.0691143348813057,
                        0.7681065201759338,
                        -0.8949944376945496,
                        -0.5111653208732605,
                        1.234917163848877,
                        0.15505976974964143,
                        -2.1293773651123049,
                        1.217491626739502,
                        -0.00977335125207901,
                        0.8554288148880005,
                        1.3740544319152833,
                        0.3086063861846924,
                        -0.28645047545433047,
                        0.3413717746734619,
                        1.6155349016189576
                    ],
                    "Bias": -0.11386813223361969
                },
                {
                    "Value": 1.0349982976913453,
                    "PreviousLayerNeuronValues": [
                        0.20892824232578278,
                        0.3132536709308624,
                        0.34312382340431216,
                        0.21100392937660218,
                        0.26040831208229067,
                        0.3536016047000885,
                        0.23358133435249329,
                        0.29317885637283327,
                        0.250470906496048,
                        0.2665700912475586,
                        0.2626238763332367,
                        0.27304941415786745,
                        0.25094160437583926,
                        0.27114418148994448,
                        0.1977430284023285,
                        0.3074774444103241,
                        0.2718254029750824,
                        0.2270788550376892,
                        0.17847661674022675,
                        0.29342973232269289,
                        0.4015417993068695,
                        0.0,
                        1.0
                    ],
                    "Weights": [
                        -0.18193326890468598,
                        0.5326910018920898,
                        0.5231289863586426,
                        -0.005562774837017059,
                        0.4456157088279724,
                        -0.056276582181453708,
                        -0.22123393416404725,
                        -0.7533525228500366,
                        1.5848677158355713,
                        -0.2166636884212494,
                        0.06724785268306732,
                        -0.1658412665128708,
                        0.4326695203781128,
                        -1.2728087902069092,
                        -0.9041908383369446,
                        0.503307044506073,
                        0.24196159839630128,
                        -0.07595973461866379,
                        0.6868987083435059,
                        0.027468055486679078,
                        0.32604557275772097,
                        1.1584718227386475,
                        -0.35985320806503298
                    ],
                    "Bias": 0.9029693007469177
                },
                {
                    "Value": 0.0,
                    "PreviousLayerNeuronValues": [
                        0.20892824232578278,
                        0.3132536709308624,
                        0.34312382340431216,
                        0.21100392937660218,
                        0.26040831208229067,
                        0.3536016047000885,
                        0.23358133435249329,
                        0.29317885637283327,
                        0.250470906496048,
                        0.2665700912475586,
                        0.2626238763332367,
                        0.27304941415786745,
                        0.25094160437583926,
                        0.27114418148994448,
                        0.1977430284023285,
                        0.3074774444103241,
                        0.2718254029750824,
                        0.2270788550376892,
                        0.17847661674022675,
                        0.29342973232269289,
                        0.4015417993068695,
                        0.0,
                        1.0
                    ],
                    "Weights": [
                        -0.9757346510887146,
                        0.20538297295570374,
                        -1.6976391077041627,
                        0.780705988407135,
                        0.8606677055358887,
                        -1.566773533821106,
                        -0.9229238033294678,
                        -1.1234897375106812,
                        0.1425871104001999,
                        0.7163630127906799,
                        -0.43485531210899355,
                        0.31422096490859988,
                        -2.487685203552246,
                        -0.5054752826690674,
                        0.43728795647621157,
                        0.2873806059360504,
                        -0.8507199287414551,
                        0.1851704716682434,
                        -1.1861534118652344,
                        -2.2620341777801515,
                        0.5732815265655518,
                        1.9446685314178467,
                        0.5469681024551392
                    ],
                    "Bias": 1.804198980331421
                },
                {
                    "Value": 0.5843091607093811,
                    "PreviousLayerNeuronValues": [
                        0.20892824232578278,
                        0.3132536709308624,
                        0.34312382340431216,
                        0.21100392937660218,
                        0.26040831208229067,
                        0.3536016047000885,
                        0.23358133435249329,
                        0.29317885637283327,
                        0.250470906496048,
                        0.2665700912475586,
                        0.2626238763332367,
                        0.27304941415786745,
                        0.25094160437583926,
                        0.27114418148994448,
                        0.1977430284023285,
                        0.3074774444103241,
                        0.2718254029750824,
                        0.2270788550376892,
                        0.17847661674022675,
                        0.29342973232269289,
                        0.4015417993068695,
                        0.0,
                        1.0
                    ],
                    "Weights": [
                        -0.7981564998626709,
                        -0.6971018314361572,
                        -1.8288977146148682,
                        0.31117337942123415,
                        0.8021710515022278,
                        0.4104834198951721,
                        -0.5800790190696716,
                        -0.5226040482521057,
                        0.25430673360824587,
                        -1.540269136428833,
                        0.39174264669418337,
                        0.736599326133728,
                        0.8761483430862427,
                        -1.7624034881591797,
                        -1.9316723346710206,
                        -0.28807196021080019,
                        1.6406338214874268,
                        1.4329595565795899,
                        0.35490620136260989,
                        0.24708467721939088,
                        0.08638691157102585,
                        0.7307766079902649,
                        0.7605898380279541
                    ],
                    "Bias": 0.5349435806274414
                },
                {
                    "Value": 3.724207878112793,
                    "PreviousLayerNeuronValues": [
                        0.20892824232578278,
                        0.3132536709308624,
                        0.34312382340431216,
                        0.21100392937660218,
                        0.26040831208229067,
                        0.3536016047000885,
                        0.23358133435249329,
                        0.29317885637283327,
                        0.250470906496048,
                        0.2665700912475586,
                        0.2626238763332367,
                        0.27304941415786745,
                        0.25094160437583926,
                        0.27114418148994448,
                        0.1977430284023285,
                        0.3074774444103241,
                        0.2718254029750824,
                        0.2270788550376892,
                        0.17847661674022675,
                        0.29342973232269289,
                        0.4015417993068695,
                        0.0,
                        1.0
                    ],
                    "Weights": [
                        0.7393357753753662,
                        0.6248372197151184,
                        -0.886383056640625,
                        -0.0275089293718338,
                        1.0119221210479737,
                        -0.03548644483089447,
                        0.7493409514427185,
                        -0.3597434461116791,
                        1.4722665548324586,
                        -0.42479121685028078,
                        -1.2073668241500855,
                        0.12311296164989472,
                        -1.0636380910873414,
                        0.7568569779396057,
                        -0.9086482524871826,
                        1.0009019374847413,
                        0.5152103900909424,
                        -1.2699602842330933,
                        0.16882312297821046,
                        -1.699036717414856,
                        -0.6879947781562805,
                        -0.9554864168167114,
                        2.026313066482544
                    ],
                    "Bias": 2.191681385040283
                },
                {
                    "Value": 0.7467866539955139,
                    "PreviousLayerNeuronValues": [
                        0.20892824232578278,
                        0.3132536709308624,
                        0.34312382340431216,
                        0.21100392937660218,
                        0.26040831208229067,
                        0.3536016047000885,
                        0.23358133435249329,
                        0.29317885637283327,
                        0.250470906496048,
                        0.2665700912475586,
                        0.2626238763332367,
                        0.27304941415786745,
                        0.25094160437583926,
                        0.27114418148994448,
                        0.1977430284023285,
                        0.3074774444103241,
                        0.2718254029750824,
                        0.2270788550376892,
                        0.17847661674022675,
                        0.29342973232269289,
                        0.4015417993068695,
                        0.0,
                        1.0
                    ],
                    "Weights": [
                        -0.767728865146637,
                        0.1119346171617508,
                        1.6801238059997559,
                        -1.0048670768737794,
                        1.305725336074829,
                        0.48510536551475527,
                        1.9863691329956055,
                        1.7409416437149048,
                        0.14150787889957429,
                        -1.7340526580810547,
                        0.40715649724006655,
                        0.5013997554779053,
                        0.4981512427330017,
                        0.45578718185424807,
                        -0.3050861656665802,
                        -1.5613090991973878,
                        -1.4868110418319703,
                        0.2502603232860565,
                        0.024942457675933839,
                        1.3285486698150635,
                        -0.6209427118301392,
                        -0.41209253668785097,
                        -1.0399000644683838
                    ],
                    "Bias": 0.7387650609016419
                },
                {
                    "Value": 0.0,
                    "PreviousLayerNeuronValues": [
                        0.20892824232578278,
                        0.3132536709308624,
                        0.34312382340431216,
                        0.21100392937660218,
                        0.26040831208229067,
                        0.3536016047000885,
                        0.23358133435249329,
                        0.29317885637283327,
                        0.250470906496048,
                        0.2665700912475586,
                        0.2626238763332367,
                        0.27304941415786745,
                        0.25094160437583926,
                        0.27114418148994448,
                        0.1977430284023285,
                        0.3074774444103241,
                        0.2718254029750824,
                        0.2270788550376892,
                        0.17847661674022675,
                        0.29342973232269289,
                        0.4015417993068695,
                        0.0,
                        1.0
                    ],
                    "Weights": [
                        1.341944932937622,
                        0.5288757681846619,
                        0.7721856236457825,
                        -0.642941415309906,
                        -0.47562336921691897,
                        -0.005966991186141968,
                        0.6030107736587524,
                        -0.24719247221946717,
                        0.792637825012207,
                        -0.19627708196640016,
                        -1.4039250612258912,
                        -0.6391298174858093,
                        -0.32879915833473208,
                        -0.8387701511383057,
                        1.4696173667907715,
                        -0.42114129662513735,
                        -0.41517749428749087,
                        0.16702014207839967,
                        0.9880432486534119,
                        0.17822591960430146,
                        -0.9010743498802185,
                        1.430496096611023,
                        -1.0327385663986207
                    ],
                    "Bias": -1.0454307794570923
                },
                {
                    "Value": 0.0,
                    "PreviousLayerNeuronValues": [
                        0.20892824232578278,
                        0.3132536709308624,
                        0.34312382340431216,
                        0.21100392937660218,
                        0.26040831208229067,
                        0.3536016047000885,
                        0.23358133435249329,
                        0.29317885637283327,
                        0.250470906496048,
                        0.2665700912475586,
                        0.2626238763332367,
                        0.27304941415786745,
                        0.25094160437583926,
                        0.27114418148994448,
                        0.1977430284023285,
                        0.3074774444103241,
                        0.2718254029750824,
                        0.2270788550376892,
                        0.17847661674022675,
                        0.29342973232269289,
                        0.4015417993068695,
                        0.0,
                        1.0
                    ],
                    "Weights": [
                        0.6523935794830322,
                        -0.15217173099517823,
                        -0.802069365978241,
                        0.34752747416496279,
                        -0.2280365228652954,
                        -1.4545085430145264,
                        0.3151331841945648,
                        -0.7192485332489014,
                        -0.15240506827831269,
                        0.7175484299659729,
                        -0.531455934047699,
                        0.23371130228042603,
                        0.7630853652954102,
                        -1.1098556518554688,
                        -0.2710271179676056,
                        -0.5183886289596558,
                        1.0787273645401,
                        0.43424689769744875,
                        1.3979641199111939,
                        0.42298686504364016,
                        -1.1463314294815064,
                        -0.49526843428611758,
                        -0.03168870508670807
                    ],
                    "Bias": -0.11285211145877838
                },
                {
                    "Value": 0.39232659339904787,
                    "PreviousLayerNeuronValues": [
                        0.20892824232578278,
                        0.3132536709308624,
                        0.34312382340431216,
                        0.21100392937660218,
                        0.26040831208229067,
                        0.3536016047000885,
                        0.23358133435249329,
                        0.29317885637283327,
                        0.250470906496048,
                        0.2665700912475586,
                        0.2626238763332367,
                        0.27304941415786745,
                        0.25094160437583926,
                        0.27114418148994448,
                        0.1977430284023285,
                        0.3074774444103241,
                        0.2718254029750824,
                        0.2270788550376892,
                        0.17847661674022675,
                        0.29342973232269289,
                        0.4015417993068695,
                        0.0,
                        1.0
                    ],
                    "Weights": [
                        1.028252124786377,
                        1.177725911140442,
                        -0.6419289708137512,
                        1.1209280490875245,
                        -0.3066903054714203,
                        0.570648729801178,
                        0.2859022617340088,
                        0.20086345076560975,
                        -0.06494864821434021,
                        -2.575669765472412,
                        -1.7079427242279053,
                        1.7714948654174805,
                        -0.26120105385780337,
                        0.2521378993988037,
                        0.44478753209114077,
                        -0.22980231046676637,
                        0.785469114780426,
                        0.5490329265594482,
                        -0.1366478055715561,
                        0.2356943041086197,
                        -1.365386724472046,
                        -0.2332332730293274,
                        -0.044097475707530978
                    ],
                    "Bias": 0.40171462297439577
                },
                {
                    "Value": 0.0,
                    "PreviousLayerNeuronValues": [
                        0.20892824232578278,
                        0.3132536709308624,
                        0.34312382340431216,
                        0.21100392937660218,
                        0.26040831208229067,
                        0.3536016047000885,
                        0.23358133435249329,
                        0.29317885637283327,
                        0.250470906496048,
                        0.2665700912475586,
                        0.2626238763332367,
                        0.27304941415786745,
                        0.25094160437583926,
                        0.27114418148994448,
                        0.1977430284023285,
                        0.3074774444103241,
                        0.2718254029750824,
                        0.2270788550376892,
                        0.17847661674022675,
                        0.29342973232269289,
                        0.4015417993068695,
                        0.0,
                        1.0
                    ],
                    "Weights": [
                        1.356465220451355,
                        1.2739603519439698,
                        -0.5246430039405823,
                        -0.0958980917930603,
                        -1.797021508216858,
                        -0.19546644389629365,
                        -0.9067182540893555,
                        0.5385896563529968,
                        0.6105918288230896,
                        0.8913755416870117,
                        -0.373763769865036,
                        -1.360368013381958,
                        -1.5965005159378052,
                        1.3060117959976197,
                        0.2792624235153198,
                        -0.14874497056007386,
                        -0.8812828063964844,
                        -0.25463730096817019,
                        1.5773494243621827,
                        1.7398457527160645,
                        -0.21225547790527345,
                        1.0794792175292969,
                        -0.5656763315200806
                    ],
                    "Bias": -1.348836064338684
                },
                {
                    "Value": 0.0,
                    "PreviousLayerNeuronValues": [
                        0.20892824232578278,
                        0.3132536709308624,
                        0.34312382340431216,
                        0.21100392937660218,
                        0.26040831208229067,
                        0.3536016047000885,
                        0.23358133435249329,
                        0.29317885637283327,
                        0.250470906496048,
                        0.2665700912475586,
                        0.2626238763332367,
                        0.27304941415786745,
                        0.25094160437583926,
                        0.27114418148994448,
                        0.1977430284023285,
                        0.3074774444103241,
                        0.2718254029750824,
                        0.2270788550376892,
                        0.17847661674022675,
                        0.29342973232269289,
                        0.4015417993068695,
                        0.0,
                        1.0
                    ],
                    "Weights": [
                        1.7464009523391724,
                        -0.4780893921852112,
                        0.019269518554210664,
                        -1.4577198028564454,
                        0.09074544906616211,
                        -1.4085522890090943,
                        -0.7777796387672424,
                        -0.6592917442321777,
                        -0.41817086935043337,
                        0.3665369153022766,
                        -0.9686442613601685,
                        0.9780474305152893,
                        1.7050162553787232,
                        -0.47201305627822878,
                        0.7857004404067993,
                        -1.2042824029922486,
                        -0.16051369905471803,
                        -0.45201969146728518,
                        -0.6329623460769653,
                        0.024368587881326677,
                        -0.3902101516723633,
                        1.5902981758117676,
                        -1.1799336671829224
                    ],
                    "Bias": -0.5662679076194763
                },
                {
                    "Value": 1.557881236076355,
                    "PreviousLayerNeuronValues": [
                        0.20892824232578278,
                        0.3132536709308624,
                        0.34312382340431216,
                        0.21100392937660218,
                        0.26040831208229067,
                        0.3536016047000885,
                        0.23358133435249329,
                        0.29317885637283327,
                        0.250470906496048,
                        0.2665700912475586,
                        0.2626238763332367,
                        0.27304941415786745,
                        0.25094160437583926,
                        0.27114418148994448,
                        0.1977430284023285,
                        0.3074774444103241,
                        0.2718254029750824,
                        0.2270788550376892,
                        0.17847661674022675,
                        0.29342973232269289,
                        0.4015417993068695,
                        0.0,
                        1.0
                    ],
                    "Weights": [
                        -1.0188976526260377,
                        0.9405930042266846,
                        -1.1346787214279175,
                        1.7777446508407593,
                        0.47194796800613406,
                        -1.0824552774429322,
                        0.2722867429256439,
                        1.7370446920394898,
                        0.39527377486228945,
                        -0.414387047290802,
                        1.4910792112350464,
                        -0.3935971260070801,
                        -0.9053778052330017,
                        -0.40841716527938845,
                        -0.3030751943588257,
                        0.22490383684635163,
                        0.9247851967811585,
                        0.6032127141952515,
                        -0.7645166516304016,
                        0.7099438309669495,
                        0.5154271125793457,
                        -1.4887901544570923,
                        0.6000644564628601
                    ],
                    "Bias": -0.03387437015771866
                },
                {
                    "Value": 0.0,
                    "PreviousLayerNeuronValues": [
                        0.20892824232578278,
                        0.3132536709308624,
                        0.34312382340431216,
                        0.21100392937660218,
                        0.26040831208229067,
                        0.3536016047000885,
                        0.23358133435249329,
                        0.29317885637283327,
                        0.250470906496048,
                        0.2665700912475586,
                        0.2626238763332367,
                        0.27304941415786745,
                        0.25094160437583926,
                        0.27114418148994448,
                        0.1977430284023285,
                        0.3074774444103241,
                        0.2718254029750824,
                        0.2270788550376892,
                        0.17847661674022675,
                        0.29342973232269289,
                        0.4015417993068695,
                        0.0,
                        1.0
                    ],
                    "Weights": [
                        0.627733051776886,
                        -0.4924430847167969,
                        -1.3718143701553345,
                        0.22195327281951905,
                        -0.5956969857215881,
                        0.33611494302749636,
                        -0.18327440321445466,
                        0.2419252097606659,
                        -0.696570634841919,
                        0.0959351658821106,
                        -2.0418739318847658,
                        0.07761017233133316,
                        -0.8120958805084229,
                        0.38731396198272707,
                        -1.3610080480575562,
                        1.1229395866394044,
                        -1.5000118017196656,
                        -0.9006648063659668,
                        1.6486945152282715,
                        -0.9031285643577576,
                        -0.9929587841033936,
                        0.8449453711509705,
                        -0.8023143410682678
                    ],
                    "Bias": -1.016878366470337
                },
                {
                    "Value": 0.0,
                    "PreviousLayerNeuronValues": [
                        0.20892824232578278,
                        0.3132536709308624,
                        0.34312382340431216,
                        0.21100392937660218,
                        0.26040831208229067,
                        0.3536016047000885,
                        0.23358133435249329,
                        0.29317885637283327,
                        0.250470906496048,
                        0.2665700912475586,
                        0.2626238763332367,
                        0.27304941415786745,
                        0.25094160437583926,
                        0.27114418148994448,
                        0.1977430284023285,
                        0.3074774444103241,
                        0.2718254029750824,
                        0.2270788550376892,
                        0.17847661674022675,
                        0.29342973232269289,
                        0.4015417993068695,
                        0.0,
                        1.0
                    ],
                    "Weights": [
                        0.1427396833896637,
                        -0.2588900029659271,
                        -0.8509117960929871,
                        -0.02075863629579544,
                        0.13365037739276887,
                        1.2330563068389893,
                        -1.4987373352050782,
                        -0.4147144556045532,
                        -1.1207547187805176,
                        -0.19081076979637147,
                        0.33940473198890688,
                        -0.8275299072265625,
                        -0.18839356303215028,
                        -0.10376262664794922,
                        -0.8188844919204712,
                        -0.2634056806564331,
                        -1.0290722846984864,
                        0.614498496055603,
                        0.2911851704120636,
                        0.503593921661377,
                        0.30026185512542727,
                        0.031062226742506028,
                        0.9398676753044128
                    ],
                    "Bias": -0.6861551403999329
                },
                {
                    "Value": 1.1793005466461182,
                    "PreviousLayerNeuronValues": [
                        0.20892824232578278,
                        0.3132536709308624,
                        0.34312382340431216,
                        0.21100392937660218,
                        0.26040831208229067,
                        0.3536016047000885,
                        0.23358133435249329,
                        0.29317885637283327,
                        0.250470906496048,
                        0.2665700912475586,
                        0.2626238763332367,
                        0.27304941415786745,
                        0.25094160437583926,
                        0.27114418148994448,
                        0.1977430284023285,
                        0.3074774444103241,
                        0.2718254029750824,
                        0.2270788550376892,
                        0.17847661674022675,
                        0.29342973232269289,
                        0.4015417993068695,
                        0.0,
                        1.0
                    ],
                    "Weights": [
                        0.22859834134578706,
                        -0.28035968542099,
                        0.5075056552886963,
                        -0.360633909702301,
                        -1.6434924602508546,
                        1.859451174736023,
                        -0.45871999859809878,
                        -0.522471010684967,
                        -0.5986985564231873,
                        1.5964864492416382,
                        1.8259621858596802,
                        -0.854323148727417,
                        -0.3892233371734619,
                        0.13406075537204743,
                        -0.2988334894180298,
                        -0.26085153222084048,
                        -0.4137505888938904,
                        1.5490456819534302,
                        -0.11608950793743134,
                        1.5514557361602784,
                        0.12687379121780396,
                        1.1550893783569337,
                        -0.4359632432460785
                    ],
                    "Bias": 0.5420610904693604
                },
                {
                    "Value": 1.9347946643829346,
                    "PreviousLayerNeuronValues": [
                        0.20892824232578278,
                        0.3132536709308624,
                        0.34312382340431216,
                        0.21100392937660218,
                        0.26040831208229067,
                        0.3536016047000885,
                        0.23358133435249329,
                        0.29317885637283327,
                        0.250470906496048,
                        0.2665700912475586,
                        0.2626238763332367,
                        0.27304941415786745,
                        0.25094160437583926,
                        0.27114418148994448,
                        0.1977430284023285,
                        0.3074774444103241,
                        0.2718254029750824,
                        0.2270788550376892,
                        0.17847661674022675,
                        0.29342973232269289,
                        0.4015417993068695,
                        0.0,
                        1.0
                    ],
                    "Weights": [
                        -1.0309747457504273,
                        0.8273554444313049,
                        0.35907217860221865,
                        -0.5373790264129639,
                        -0.2766370475292206,
                        0.8135337233543396,
                        -0.9268273115158081,
                        -0.6862550973892212,
                        0.9316689372062683,
                        0.488077312707901,
                        -2.014976739883423,
                        -0.5785527229309082,
                        -1.4329067468643189,
                        1.011450171470642,
                        -0.5226377844810486,
                        -0.8348862528800964,
                        -0.5736531019210815,
                        0.34770333766937258,
                        -0.6351933479309082,
                        1.2070143222808838,
                        -0.46391338109970095,
                        0.052582938224077228,
                        1.2450824975967408
                    ],
                    "Bias": 1.6297061443328858
                },
                {
                    "Value": 0.0,
                    "PreviousLayerNeuronValues": [
                        0.20892824232578278,
                        0.3132536709308624,
                        0.34312382340431216,
                        0.21100392937660218,
                        0.26040831208229067,
                        0.3536016047000885,
                        0.23358133435249329,
                        0.29317885637283327,
                        0.250470906496048,
                        0.2665700912475586,
                        0.2626238763332367,
                        0.27304941415786745,
                        0.25094160437583926,
                        0.27114418148994448,
                        0.1977430284023285,
                        0.3074774444103241,
                        0.2718254029750824,
                        0.2270788550376892,
                        0.17847661674022675,
                        0.29342973232269289,
                        0.4015417993068695,
                        0.0,
                        1.0
                    ],
                    "Weights": [
                        -0.7032970190048218,
                        -0.5458987355232239,
                        -0.3480587601661682,
                        0.0936846062541008,
                        -0.04007938876748085,
                        -0.29094043374061587,
                        -0.310685396194458,
                        -1.7110371589660645,
                        -0.29378482699394228,
                        0.14987432956695558,
                        0.6619704365730286,
                        0.3084535300731659,
                        -1.0182312726974488,
                        -0.2692793309688568,
                        -0.7922490835189819,
                        -1.548443078994751,
                        -0.41318386793136599,
                        0.33091264963150027,
                        0.3162476420402527,
                        0.1602906882762909,
                        -1.1006114482879639,
                        0.93034827709198,
                        -0.1293599009513855
                    ],
                    "Bias": -1.2890479564666749
                },
                {
                    "Value": 0.0,
                    "PreviousLayerNeuronValues": [
                        0.20892824232578278,
                        0.3132536709308624,
                        0.34312382340431216,
                        0.21100392937660218,
                        0.26040831208229067,
                        0.3536016047000885,
                        0.23358133435249329,
                        0.29317885637283327,
                        0.250470906496048,
                        0.2665700912475586,
                        0.2626238763332367,
                        0.27304941415786745,
                        0.25094160437583926,
                        0.27114418148994448,
                        0.1977430284023285,
                        0.3074774444103241,
                        0.2718254029750824,
                        0.2270788550376892,
                        0.17847661674022675,
                        0.29342973232269289,
                        0.4015417993068695,
                        0.0,
                        1.0
                    ],
                    "Weights": [
                        -0.5158118605613709,
                        -0.8545523285865784,
                        -1.4296376705169678,
                        -0.6609858274459839,
                        0.561464786529541,
                        0.6695115566253662,
                        -0.4037967622280121,
                        -0.0023271217942237856,
                        -0.5626931190490723,
                        -0.4891088604927063,
                        -0.3091207444667816,
                        0.47608011960983279,
                        1.3889527320861817,
                        -1.2307605743408204,
                        -0.5953118801116943,
                        -1.3894939422607422,
                        -1.0268280506134034,
                        1.2582703828811646,
                        1.3671789169311524,
                        -0.6912009119987488,
                        -0.2310759723186493,
                        1.5627931356430054,
                        -0.275185227394104
                    ],
                    "Bias": -0.623369574546814
                },
                {
                    "Value": 0.0,
                    "PreviousLayerNeuronValues": [
                        0.20892824232578278,
                        0.3132536709308624,
                        0.34312382340431216,
                        0.21100392937660218,
                        0.26040831208229067,
                        0.3536016047000885,
                        0.23358133435249329,
                        0.29317885637283327,
                        0.250470906496048,
                        0.2665700912475586,
                        0.2626238763332367,
                        0.27304941415786745,
                        0.25094160437583926,
                        0.27114418148994448,
                        0.1977430284023285,
                        0.3074774444103241,
                        0.2718254029750824,
                        0.2270788550376892,
                        0.17847661674022675,
                        0.29342973232269289,
                        0.4015417993068695,
                        0.0,
                        1.0
                    ],
                    "Weights": [
                        -0.9355786442756653,
                        -0.43464896082878115,
                        -1.8482953310012818,
                        0.41148319840431216,
                        -1.0434939861297608,
                        1.1064648628234864,
                        -1.9689205884933472,
                        0.5129343867301941,
                        -0.45121127367019656,
                        0.37791430950164797,
                        0.5946710109710693,
                        -0.9108790755271912,
                        1.3234570026397706,
                        0.010702107101678849,
                        -0.9481446743011475,
                        -1.0215699672698975,
                        -0.762937605381012,
                        0.9323709011077881,
                        1.329064130783081,
                        0.5274301171302795,
                        -1.3168073892593384,
                        -2.5352511405944826,
                        0.115245021879673
                    ],
                    "Bias": 0.16047728061676026
                },
                {
                    "Value": 0.0,
                    "PreviousLayerNeuronValues": [
                        0.20892824232578278,
                        0.3132536709308624,
                        0.34312382340431216,
                        0.21100392937660218,
                        0.26040831208229067,
                        0.3536016047000885,
                        0.23358133435249329,
                        0.29317885637283327,
                        0.250470906496048,
                        0.2665700912475586,
                        0.2626238763332367,
                        0.27304941415786745,
                        0.25094160437583926,
                        0.27114418148994448,
                        0.1977430284023285,
                        0.3074774444103241,
                        0.2718254029750824,
                        0.2270788550376892,
                        0.17847661674022675,
                        0.29342973232269289,
                        0.4015417993068695,
                        0.0,
                        1.0
                    ],
                    "Weights": [
                        -1.8223131895065308,
                        -0.4345983862876892,
                        -0.7732503414154053,
                        -1.969347357749939,
                        -0.28216326236724856,
                        -1.006248950958252,
                        0.07429520785808563,
                        -0.794463038444519,
                        -0.0146254301071167,
                        0.46854984760284426,
                        0.7790517210960388,
                        -0.7158207297325134,
                        0.8265162110328674,
                        0.7475512027740479,
                        -0.6983296275138855,
                        -0.4603903293609619,
                        0.010369069874286652,
                        0.5663833618164063,
                        -0.39164143800735476,
                        0.17625692486763,
                        0.6868822574615479,
                        -0.17494907975196839,
                        0.6111986637115479
                    ],
                    "Bias": 0.4488953649997711
                },
                {
                    "Value": 0.0,
                    "PreviousLayerNeuronValues": [
                        0.20892824232578278,
                        0.3132536709308624,
                        0.34312382340431216,
                        0.21100392937660218,
                        0.26040831208229067,
                        0.3536016047000885,
                        0.23358133435249329,
                        0.29317885637283327,
                        0.250470906496048,
                        0.2665700912475586,
                        0.2626238763332367,
                        0.27304941415786745,
                        0.25094160437583926,
                        0.27114418148994448,
                        0.1977430284023285,
                        0.3074774444103241,
                        0.2718254029750824,
                        0.2270788550376892,
                        0.17847661674022675,
                        0.29342973232269289,
                        0.4015417993068695,
                        0.0,
                        1.0
                    ],
                    "Weights": [
                        0.20628111064434052,
                        0.23942026495933534,
                        0.25309044122695925,
                        1.2789256572723389,
                        0.7618667483329773,
                        1.42495596408844,
                        -1.4097601175308228,
                        -0.3042004108428955,
                        0.8775607347488403,
                        0.2544454336166382,
                        -1.7115861177444459,
                        -0.3976143002510071,
                        -1.3853082656860352,
                        0.19082504510879517,
                        0.7553205490112305,
                        -1.0483468770980836,
                        0.10102135688066483,
                        0.3413397967815399,
                        0.3079138994216919,
                        -1.0102616548538209,
                        0.16218000650405885,
                        1.4424093961715699,
                        -0.1878083348274231
                    ],
                    "Bias": -0.7489656209945679
                },
                {
                    "Value": 0.0,
                    "PreviousLayerNeuronValues": [
                        0.20892824232578278,
                        0.3132536709308624,
                        0.34312382340431216,
                        0.21100392937660218,
                        0.26040831208229067,
                        0.3536016047000885,
                        0.23358133435249329,
                        0.29317885637283327,
                        0.250470906496048,
                        0.2665700912475586,
                        0.2626238763332367,
                        0.27304941415786745,
                        0.25094160437583926,
                        0.27114418148994448,
                        0.1977430284023285,
                        0.3074774444103241,
                        0.2718254029750824,
                        0.2270788550376892,
                        0.17847661674022675,
                        0.29342973232269289,
                        0.4015417993068695,
                        0.0,
                        1.0
                    ],
                    "Weights": [
                        0.44355741143226626,
                        0.9920523166656494,
                        0.20050793886184693,
                        -0.4006611406803131,
                        -0.5334364771842957,
                        0.34242308139801028,
                        0.972157895565033,
                        -1.2614988088607789,
                        -0.3540097177028656,
                        -0.6671526432037354,
                        -0.7351629734039307,
                        0.36098071932792666,
                        -1.3581527471542359,
                        -0.9748214483261108,
                        0.6134315133094788,
                        -0.7781835794448853,
                        0.6090079545974731,
                        -0.8562456965446472,
                        0.630272626876831,
                        -0.10293879359960556,
                        -2.4092254638671877,
                        -0.33113956451416018,
                        -1.1312984228134156
                    ],
                    "Bias": 0.4386569559574127
                },
                {
                    "Value": 0.0,
                    "PreviousLayerNeuronValues": [
                        0.20892824232578278,
                        0.3132536709308624,
                        0.34312382340431216,
                        0.21100392937660218,
                        0.26040831208229067,
                        0.3536016047000885,
                        0.23358133435249329,
                        0.29317885637283327,
                        0.250470906496048,
                        0.2665700912475586,
                        0.2626238763332367,
                        0.27304941415786745,
                        0.25094160437583926,
                        0.27114418148994448,
                        0.1977430284023285,
                        0.3074774444103241,
                        0.2718254029750824,
                        0.2270788550376892,
                        0.17847661674022675,
                        0.29342973232269289,
                        0.4015417993068695,
                        0.0,
                        1.0
                    ],
                    "Weights": [
                        -0.44717371463775637,
                        0.17603464424610139,
                        -0.3558366000652313,
                        0.25576746463775637,
                        0.1926935911178589,
                        -0.9234603643417358,
                        0.6898379921913147,
                        -0.8961158990859985,
                        1.0907866954803467,
                        1.6886621713638306,
                        -0.268720805644989,
                        -0.27382850646972659,
                        0.16575723886489869,
                        1.0843721628189088,
                        0.40333428978919985,
                        -0.5518286824226379,
                        0.3306039273738861,
                        0.5267192125320435,
                        -0.8582144379615784,
                        -0.5380656123161316,
                        -1.1838757991790772,
                        -0.1990252435207367,
                        -1.0223909616470338
                    ],
                    "Bias": 0.27577343583106997
                },
                {
                    "Value": 1.2462891340255738,
                    "PreviousLayerNeuronValues": [
                        0.20892824232578278,
                        0.3132536709308624,
                        0.34312382340431216,
                        0.21100392937660218,
                        0.26040831208229067,
                        0.3536016047000885,
                        0.23358133435249329,
                        0.29317885637283327,
                        0.250470906496048,
                        0.2665700912475586,
                        0.2626238763332367,
                        0.27304941415786745,
                        0.25094160437583926,
                        0.27114418148994448,
                        0.1977430284023285,
                        0.3074774444103241,
                        0.2718254029750824,
                        0.2270788550376892,
                        0.17847661674022675,
                        0.29342973232269289,
                        0.4015417993068695,
                        0.0,
                        1.0
                    ],
                    "Weights": [
                        0.7592968344688416,
                        1.4591313600540162,
                        0.28544488549232485,
                        -1.2746505737304688,
                        -0.24725735187530518,
                        1.0067358016967774,
                        -1.9380067586898804,
                        0.5139364004135132,
                        0.767418622970581,
                        0.35058271884918215,
                        1.6391825675964356,
                        0.8837872743606567,
                        1.2577217817306519,
                        0.7723543047904968,
                        -0.8997649550437927,
                        0.3498991131782532,
                        -0.9778903126716614,
                        -0.4165608882904053,
                        -0.47727108001708987,
                        -0.47099238634109499,
                        1.0257662534713746,
                        -1.289833903312683,
                        1.4168226718902588
                    ],
                    "Bias": -1.8450959920883179
                },
                {
                    "Value": 1.0219277143478394,
                    "PreviousLayerNeuronValues": [
                        0.20892824232578278,
                        0.3132536709308624,
                        0.34312382340431216,
                        0.21100392937660218,
                        0.26040831208229067,
                        0.3536016047000885,
                        0.23358133435249329,
                        0.29317885637283327,
                        0.250470906496048,
                        0.2665700912475586,
                        0.2626238763332367,
                        0.27304941415786745,
                        0.25094160437583926,
                        0.27114418148994448,
                        0.1977430284023285,
                        0.3074774444103241,
                        0.2718254029750824,
                        0.2270788550376892,
                        0.17847661674022675,
                        0.29342973232269289,
                        0.4015417993068695,
                        0.0,
                        1.0
                    ],
                    "Weights": [
                        0.7122717499732971,
                        -0.9468485713005066,
                        -1.252206563949585,
                        0.059087544679641727,
                        -0.7660796642303467,
                        0.015494421124458313,
                        -0.9817667007446289,
                        1.246468186378479,
                        0.31082993745803835,
                        -1.054945945739746,
                        1.7815459966659547,
                        0.9493170380592346,
                        -0.48038652539253237,
                        -0.5516188144683838,
                        1.2396873235702515,
                        1.6511086225509644,
                        0.14881667494773866,
                        0.12377877533435822,
                        0.5508695840835571,
                        -1.5814299583435059,
                        0.6169747710227966,
                        0.6808629631996155,
                        1.695610523223877
                    ],
                    "Bias": -1.007804036140442
                },
                {
                    "Value": 0.0,
                    "PreviousLayerNeuronValues": [
                        0.20892824232578278,
                        0.3132536709308624,
                        0.34312382340431216,
                        0.21100392937660218,
                        0.26040831208229067,
                        0.3536016047000885,
                        0.23358133435249329,
                        0.29317885637283327,
                        0.250470906496048,
                        0.2665700912475586,
                        0.2626238763332367,
                        0.27304941415786745,
                        0.25094160437583926,
                        0.27114418148994448,
                        0.1977430284023285,
                        0.3074774444103241,
                        0.2718254029750824,
                        0.2270788550376892,
                        0.17847661674022675,
                        0.29342973232269289,
                        0.4015417993068695,
                        0.0,
                        1.0
                    ],
                    "Weights": [
                        0.4614931344985962,
                        -0.2638763189315796,
                        -1.2835321426391602,
                        -1.3381892442703248,
                        0.32630547881126406,
                        0.9733654260635376,
                        -0.06931725889444351,
                        0.10460970550775528,
                        0.6232785582542419,
                        -0.12173928320407868,
                        0.17785164713859559,
                        -1.0107158422470093,
                        -0.09669308364391327,
                        1.045525074005127,
                        -0.19169607758522035,
                        -1.770747423171997,
                        1.1787447929382325,
                        0.6044595837593079,
                        -0.8011384010314941,
                        0.8762853741645813,
                        -0.5106601715087891,
                        0.4274834096431732,
                        -0.3943421244621277
                    ],
                    "Bias": 0.11482677608728409
                },
                {
                    "Value": 1.3191230297088624,
                    "PreviousLayerNeuronValues": [
                        0.20892824232578278,
                        0.3132536709308624,
                        0.34312382340431216,
                        0.21100392937660218,
                        0.26040831208229067,
                        0.3536016047000885,
                        0.23358133435249329,
                        0.29317885637283327,
                        0.250470906496048,
                        0.2665700912475586,
                        0.2626238763332367,
                        0.27304941415786745,
                        0.25094160437583926,
                        0.27114418148994448,
                        0.1977430284023285,
                        0.3074774444103241,
                        0.2718254029750824,
                        0.2270788550376892,
                        0.17847661674022675,
                        0.29342973232269289,
                        0.4015417993068695,
                        0.0,
                        1.0
                    ],
                    "Weights": [
                        0.7987622022628784,
                        -0.2924558222293854,
                        -0.1109340563416481,
                        1.1459996700286866,
                        0.604791522026062,
                        1.2368437051773072,
                        -1.1665418148040772,
                        1.2616671323776246,
                        -0.14211848378181458,
                        -0.014025881886482239,
                        -0.4138050079345703,
                        0.9665226340293884,
                        -0.05902697890996933,
                        -0.4925096333026886,
                        0.022464308887720109,
                        0.7515707612037659,
                        0.5287134051322937,
                        -1.6442714929580689,
                        -1.0941812992095948,
                        0.21947665512561799,
                        -0.7951469421386719,
                        -0.9804670810699463,
                        0.08470303565263748
                    ],
                    "Bias": 0.7399014830589294
                },
                {
                    "Value": 1.6732592582702637,
                    "PreviousLayerNeuronValues": [
                        0.20892824232578278,
                        0.3132536709308624,
                        0.34312382340431216,
                        0.21100392937660218,
                        0.26040831208229067,
                        0.3536016047000885,
                        0.23358133435249329,
                        0.29317885637283327,
                        0.250470906496048,
                        0.2665700912475586,
                        0.2626238763332367,
                        0.27304941415786745,
                        0.25094160437583926,
                        0.27114418148994448,
                        0.1977430284023285,
                        0.3074774444103241,
                        0.2718254029750824,
                        0.2270788550376892,
                        0.17847661674022675,
                        0.29342973232269289,
                        0.4015417993068695,
                        0.0,
                        1.0
                    ],
                    "Weights": [
                        0.7762046456336975,
                        -2.5944244861602785,
                        -0.5562093257904053,
                        0.3008691668510437,
                        0.8017551898956299,
                        1.124205470085144,
                        0.09147978574037552,
                        0.9672541618347168,
                        0.6388378739356995,
                        0.16899654269218446,
                        -0.8892519474029541,
                        0.7072896957397461,
                        -0.10914872586727143,
                        -0.9568098783493042,
                        -1.7745485305786133,
                        -0.3378838300704956,
                        -0.5866970419883728,
                        -1.6887174844741822,
                        0.171500563621521,
                        0.15108920633792878,
                        -0.49840301275253298,
                        0.5137944221496582,
                        2.1952900886535646
                    ],
                    "Bias": 0.5897356867790222
                },
                {
                    "Value": 0.5313779711723328,
                    "PreviousLayerNeuronValues": [
                        0.20892824232578278,
                        0.3132536709308624,
                        0.34312382340431216,
                        0.21100392937660218,
                        0.26040831208229067,
                        0.3536016047000885,
                        0.23358133435249329,
                        0.29317885637283327,
                        0.250470906496048,
                        0.2665700912475586,
                        0.2626238763332367,
                        0.27304941415786745,
                        0.25094160437583926,
                        0.27114418148994448,
                        0.1977430284023285,
                        0.3074774444103241,
                        0.2718254029750824,
                        0.2270788550376892,
                        0.17847661674022675,
                        0.29342973232269289,
                        0.4015417993068695,
                        0.0,
                        1.0
                    ],
                    "Weights": [
                        0.3629353642463684,
                        0.2671961188316345,
                        -1.0251154899597169,
                        -0.07105766236782074,
                        0.05823802202939987,
                        0.27593255043029787,
                        -0.04936199635267258,
                        -0.6852152347564697,
                        0.9245390295982361,
                        -0.8286967873573303,
                        0.12348348647356034,
                        -0.5603474974632263,
                        -0.6392819881439209,
                        0.1831544041633606,
                        1.4727554321289063,
                        -0.6662628650665283,
                        0.2264762669801712,
                        -0.9134646058082581,
                        -0.5030671954154968,
                        0.3065505623817444,
                        0.7706475853919983,
                        -0.6695991158485413,
                        1.4239070415496827
                    ],
                    "Bias": -0.6150795817375183
                }
            ]
        },
        {
            "HiddenNeurons": [
                {
                    "Value": 0.0,
                    "PreviousLayerNeuronValues": [
                        0.3551475405693054,
                        0.0,
                        3.0715677738189699,
                        1.3896182775497437,
                        1.0349982976913453,
                        0.0,
                        0.5843091607093811,
                        3.724207878112793,
                        0.7467866539955139,
                        0.0,
                        0.0,
                        0.39232659339904787,
                        0.0,
                        0.0,
                        1.557881236076355,
                        0.0,
                        0.0,
                        1.1793005466461182,
                        1.9347946643829346,
                        0.0,
                        0.0,
                        0.0,
                        0.0,
                        0.0,
                        0.0,
                        0.0,
                        1.2462891340255738,
                        1.0219277143478394,
                        0.0,
                        1.3191230297088624,
                        1.6732592582702637,
                        0.5313779711723328
                    ],
                    "Weights": [
                        0.6510302424430847,
                        -0.2787690758705139,
                        -1.3684877157211304,
                        0.616825520992279,
                        -1.9096910953521729,
                        0.3439903259277344,
                        -1.1740913391113282,
                        -0.7315738201141357,
                        0.7999439239501953,
                        1.25816810131073,
                        0.6410006284713745,
                        -0.1818702518939972,
                        0.7619752287864685,
                        -0.14920949935913087,
                        -0.5175665616989136,
                        0.8779808282852173,
                        1.6761014461517335,
                        -0.8684976100921631,
                        -0.159295916557312,
                        -0.9563084840774536,
                        0.7671524286270142,
                        -0.30106446146965029,
                        0.18370458483695985,
                        2.129150867462158,
                        0.9955039024353027,
                        0.39223170280456545,
                        0.1014770120382309,
                        -1.9452905654907227,
                        0.107033371925354,
                        1.0071401596069337,
                        1.8504563570022584,
                        -0.04987237602472305
                    ],
                    "Bias": -0.5195783376693726
                },
                {
                    "Value": 0.0,
                    "PreviousLayerNeuronValues": [
                        0.3551475405693054,
                        0.0,
                        3.0715677738189699,
                        1.3896182775497437,
                        1.0349982976913453,
                        0.0,
                        0.5843091607093811,
                        3.724207878112793,
                        0.7467866539955139,
                        0.0,
                        0.0,
                        0.39232659339904787,
                        0.0,
                        0.0,
                        1.557881236076355,
                        0.0,
                        0.0,
                        1.1793005466461182,
                        1.9347946643829346,
                        0.0,
                        0.0,
                        0.0,
                        0.0,
                        0.0,
                        0.0,
                        0.0,
                        1.2462891340255738,
                        1.0219277143478394,
                        0.0,
                        1.3191230297088624,
                        1.6732592582702637,
                        0.5313779711723328
                    ],
                    "Weights": [
                        -0.6540200710296631,
                        -0.6957178711891174,
                        -0.5959633588790894,
                        0.3162956237792969,
                        0.3300321102142334,
                        0.5517919063568115,
                        1.9009195566177369,
                        0.03345661610364914,
                        -0.40262943506240847,
                        -1.4403347969055176,
                        0.36631307005882265,
                        0.20117707550525666,
                        0.6234056353569031,
                        -0.8445956707000732,
                        -0.3153420686721802,
                        0.1212366446852684,
                        -0.6635729670524597,
                        -1.1263152360916138,
                        1.3210077285766602,
                        -0.08614903688430786,
                        2.1574866771698,
                        2.2560341358184816,
                        -1.2710438966751099,
                        -0.41703909635543826,
                        -0.8216661214828491,
                        0.8749985098838806,
                        -0.7174549102783203,
                        -1.4326108694076539,
                        -0.331951767206192,
                        -0.5238389372825623,
                        0.37800660729408266,
                        1.6653873920440674
                    ],
                    "Bias": -0.40342992544174197
                },
                {
                    "Value": 0.0,
                    "PreviousLayerNeuronValues": [
                        0.3551475405693054,
                        0.0,
                        3.0715677738189699,
                        1.3896182775497437,
                        1.0349982976913453,
                        0.0,
                        0.5843091607093811,
                        3.724207878112793,
                        0.7467866539955139,
                        0.0,
                        0.0,
                        0.39232659339904787,
                        0.0,
                        0.0,
                        1.557881236076355,
                        0.0,
                        0.0,
                        1.1793005466461182,
                        1.9347946643829346,
                        0.0,
                        0.0,
                        0.0,
                        0.0,
                        0.0,
                        0.0,
                        0.0,
                        1.2462891340255738,
                        1.0219277143478394,
                        0.0,
                        1.3191230297088624,
                        1.6732592582702637,
                        0.5313779711723328
                    ],
                    "Weights": [
                        1.1665599346160889,
                        0.17326253652572633,
                        -1.0855889320373536,
                        -0.6304348111152649,
                        0.6348145008087158,
                        -1.2265933752059937,
                        -0.4491960406303406,
                        -0.5382440090179443,
                        -0.5841790437698364,
                        0.1533919870853424,
                        -0.7060521841049194,
                        1.1509259939193726,
                        0.4356124997138977,
                        -0.7501192092895508,
                        -1.148324966430664,
                        -0.7005237936973572,
                        -0.36010414361953738,
                        0.6915514469146729,
                        0.5165061950683594,
                        2.124598503112793,
                        -0.7811727523803711,
                        -0.7658352255821228,
                        -0.11873001605272293,
                        1.039792537689209,
                        0.30323249101638796,
                        -0.38425278663635256,
                        -0.7169488668441773,
                        -0.06024660915136337,
                        0.8796927332878113,
                        0.6630486845970154,
                        0.32233548164367678,
                        0.8865228295326233
                    ],
                    "Bias": 0.8044496178627014
                },
                {
                    "Value": 1.2607296705245972,
                    "PreviousLayerNeuronValues": [
                        0.3551475405693054,
                        0.0,
                        3.0715677738189699,
                        1.3896182775497437,
                        1.0349982976913453,
                        0.0,
                        0.5843091607093811,
                        3.724207878112793,
                        0.7467866539955139,
                        0.0,
                        0.0,
                        0.39232659339904787,
                        0.0,
                        0.0,
                        1.557881236076355,
                        0.0,
                        0.0,
                        1.1793005466461182,
                        1.9347946643829346,
                        0.0,
                        0.0,
                        0.0,
                        0.0,
                        0.0,
                        0.0,
                        0.0,
                        1.2462891340255738,
                        1.0219277143478394,
                        0.0,
                        1.3191230297088624,
                        1.6732592582702637,
                        0.5313779711723328
                    ],
                    "Weights": [
                        0.8223354816436768,
                        -1.0706781148910523,
                        -0.88006991147995,
                        0.6612037420272827,
                        0.8759611248970032,
                        -1.1224806308746338,
                        -1.4001816511154175,
                        -0.6684921383857727,
                        0.44389286637306216,
                        1.140718936920166,
                        -0.9618309140205383,
                        0.31122133135795596,
                        -0.30095750093460085,
                        0.38982805609703066,
                        -1.1136664152145386,
                        0.8452559113502502,
                        0.7678321599960327,
                        0.6037764549255371,
                        1.2534140348434449,
                        -1.0424240827560425,
                        0.7762409448623657,
                        -0.09550043195486069,
                        1.0069471597671509,
                        -0.246707946062088,
                        -0.38680732250213625,
                        -0.012498289346694947,
                        -0.8775154948234558,
                        0.38122978806495669,
                        1.9463942050933838,
                        0.3183707892894745,
                        1.8434278964996338,
                        -0.3897000551223755
                    ],
                    "Bias": 0.7050349116325378
                },
                {
                    "Value": 13.925227165222168,
                    "PreviousLayerNeuronValues": [
                        0.3551475405693054,
                        0.0,
                        3.0715677738189699,
                        1.3896182775497437,
                        1.0349982976913453,
                        0.0,
                        0.5843091607093811,
                        3.724207878112793,
                        0.7467866539955139,
                        0.0,
                        0.0,
                        0.39232659339904787,
                        0.0,
                        0.0,
                        1.557881236076355,
                        0.0,
                        0.0,
                        1.1793005466461182,
                        1.9347946643829346,
                        0.0,
                        0.0,
                        0.0,
                        0.0,
                        0.0,
                        0.0,
                        0.0,
                        1.2462891340255738,
                        1.0219277143478394,
                        0.0,
                        1.3191230297088624,
                        1.6732592582702637,
                        0.5313779711723328
                    ],
                    "Weights": [
                        -1.2292753458023072,
                        0.6220442652702332,
                        1.6719245910644532,
                        0.34928590059280398,
                        0.8950120210647583,
                        -0.71933513879776,
                        -0.11587651818990708,
                        1.4330837726593018,
                        -0.3706899583339691,
                        -0.8095793128013611,
                        1.9139732122421265,
                        -0.3256135582923889,
                        0.6833409667015076,
                        -0.10306936502456665,
                        0.34575772285461428,
                        -0.22881412506103517,
                        -2.735787868499756,
                        -0.08693980425596237,
                        0.3523577153682709,
                        0.2546279728412628,
                        -1.600759744644165,
                        -0.5165817141532898,
                        0.5199514031410217,
                        -0.10973718762397766,
                        -1.356067180633545,
                        -0.5507677793502808,
                        0.9198697805404663,
                        0.767923891544342,
                        -1.8248710632324219,
                        1.1963151693344117,
                        -0.9134388566017151,
                        -0.9300879836082459
                    ],
                    "Bias": 0.3453551232814789
                },
                {
                    "Value": 1.3858249187469483,
                    "PreviousLayerNeuronValues": [
                        0.3551475405693054,
                        0.0,
                        3.0715677738189699,
                        1.3896182775497437,
                        1.0349982976913453,
                        0.0,
                        0.5843091607093811,
                        3.724207878112793,
                        0.7467866539955139,
                        0.0,
                        0.0,
                        0.39232659339904787,
                        0.0,
                        0.0,
                        1.557881236076355,
                        0.0,
                        0.0,
                        1.1793005466461182,
                        1.9347946643829346,
                        0.0,
                        0.0,
                        0.0,
                        0.0,
                        0.0,
                        0.0,
                        0.0,
                        1.2462891340255738,
                        1.0219277143478394,
                        0.0,
                        1.3191230297088624,
                        1.6732592582702637,
                        0.5313779711723328
                    ],
                    "Weights": [
                        0.5099104642868042,
                        1.215328335762024,
                        0.66019606590271,
                        2.4217424392700197,
                        -1.61270272731781,
                        0.4311707019805908,
                        1.934456467628479,
                        0.08225764334201813,
                        -0.8261153697967529,
                        -1.246791124343872,
                        1.402864694595337,
                        -0.2722450792789459,
                        -0.8842581510543823,
                        0.9420419335365295,
                        -0.9695523977279663,
                        0.0779639407992363,
                        -1.0150189399719239,
                        -0.746712863445282,
                        -0.5075164437294006,
                        0.1492043137550354,
                        1.058279275894165,
                        -0.5921478271484375,
                        -0.29913008213043215,
                        -0.38907331228256228,
                        -0.17142626643180848,
                        0.23034679889678956,
                        0.4827219545841217,
                        0.3902759253978729,
                        0.4532657861709595,
                        -0.9358659982681274,
                        0.06252599507570267,
                        -0.3675440847873688
                    ],
                    "Bias": 0.4655637741088867
                },
                {
                    "Value": 0.0,
                    "PreviousLayerNeuronValues": [
                        0.3551475405693054,
                        0.0,
                        3.0715677738189699,
                        1.3896182775497437,
                        1.0349982976913453,
                        0.0,
                        0.5843091607093811,
                        3.724207878112793,
                        0.7467866539955139,
                        0.0,
                        0.0,
                        0.39232659339904787,
                        0.0,
                        0.0,
                        1.557881236076355,
                        0.0,
                        0.0,
                        1.1793005466461182,
                        1.9347946643829346,
                        0.0,
                        0.0,
                        0.0,
                        0.0,
                        0.0,
                        0.0,
                        0.0,
                        1.2462891340255738,
                        1.0219277143478394,
                        0.0,
                        1.3191230297088624,
                        1.6732592582702637,
                        0.5313779711723328
                    ],
                    "Weights": [
                        1.0910437107086182,
                        1.0539690256118775,
                        -0.6058307886123657,
                        0.20094308257102967,
                        -0.1335725486278534,
                        0.43370673060417178,
                        0.28975167870521548,
                        -1.3486483097076417,
                        0.989555299282074,
                        -0.6572004556655884,
                        -1.112296462059021,
                        0.6969324946403503,
                        1.235503911972046,
                        1.1026285886764527,
                        -0.4621769189834595,
                        0.7623870968818665,
                        0.7793298959732056,
                        0.41021695733070376,
                        -0.28404518961906435,
                        1.2098976373672486,
                        -0.921090841293335,
                        -1.3089098930358887,
                        1.3981126546859742,
                        0.4692469835281372,
                        0.1418258547782898,
                        0.8586723208427429,
                        0.4014374911785126,
                        0.0001702047884464264,
                        0.38379180431365969,
                        0.29824018478393557,
                        -0.2644076943397522,
                        0.45632413029670718
                    ],
                    "Bias": -0.38262078166007998
                },
                {
                    "Value": 0.0,
                    "PreviousLayerNeuronValues": [
                        0.3551475405693054,
                        0.0,
                        3.0715677738189699,
                        1.3896182775497437,
                        1.0349982976913453,
                        0.0,
                        0.5843091607093811,
                        3.724207878112793,
                        0.7467866539955139,
                        0.0,
                        0.0,
                        0.39232659339904787,
                        0.0,
                        0.0,
                        1.557881236076355,
                        0.0,
                        0.0,
                        1.1793005466461182,
                        1.9347946643829346,
                        0.0,
                        0.0,
                        0.0,
                        0.0,
                        0.0,
                        0.0,
                        0.0,
                        1.2462891340255738,
                        1.0219277143478394,
                        0.0,
                        1.3191230297088624,
                        1.6732592582702637,
                        0.5313779711723328
                    ],
                    "Weights": [
                        0.484408974647522,
                        -1.67890465259552,
                        -1.3384546041488648,
                        1.8005000352859498,
                        -0.658348023891449,
                        -1.0793240070343018,
                        0.8839042782783508,
                        -0.8422379493713379,
                        0.8196881413459778,
                        -0.9750027656555176,
                        0.346729040145874,
                        -0.3027571737766266,
                        -0.14056861400604249,
                        -0.4606175422668457,
                        0.3159909248352051,
                        -0.16924557089805604,
                        1.4268934726715088,
                        0.6878499388694763,
                        0.28566423058509829,
                        -0.7181572318077087,
                        -0.9629656672477722,
                        -0.6741294860839844,
                        0.13865500688552857,
                        2.1493935585021974,
                        0.7992700338363648,
                        -0.7502006888389587,
                        -0.41492760181427,
                        -0.426766574382782,
                        -0.5559730529785156,
                        0.3322453200817108,
                        -0.22227290272712708,
                        -0.5630977153778076
                    ],
                    "Bias": -1.5219292640686036
                },
                {
                    "Value": 0.23816072940826417,
                    "PreviousLayerNeuronValues": [
                        0.3551475405693054,
                        0.0,
                        3.0715677738189699,
                        1.3896182775497437,
                        1.0349982976913453,
                        0.0,
                        0.5843091607093811,
                        3.724207878112793,
                        0.7467866539955139,
                        0.0,
                        0.0,
                        0.39232659339904787,
                        0.0,
                        0.0,
                        1.557881236076355,
                        0.0,
                        0.0,
                        1.1793005466461182,
                        1.9347946643829346,
                        0.0,
                        0.0,
                        0.0,
                        0.0,
                        0.0,
                        0.0,
                        0.0,
                        1.2462891340255738,
                        1.0219277143478394,
                        0.0,
                        1.3191230297088624,
                        1.6732592582702637,
                        0.5313779711723328
                    ],
                    "Weights": [
                        -0.0820566862821579,
                        -0.28711891174316409,
                        -0.1740620732307434,
                        1.0225129127502442,
                        0.9237930774688721,
                        -0.4422544836997986,
                        -1.4210877418518067,
                        -0.8345155715942383,
                        0.7686976194381714,
                        -0.13330301642417909,
                        -0.4684107303619385,
                        0.5627285838127136,
                        1.0731970071792603,
                        -0.16029435396194459,
                        0.2219439297914505,
                        0.5456362962722778,
                        0.5077017545700073,
                        0.3369143009185791,
                        0.33387529850006106,
                        -0.7008540034294128,
                        -0.4538285434246063,
                        -0.5592804551124573,
                        1.3147149085998536,
                        2.0686776638031008,
                        0.5684366822242737,
                        0.49000924825668337,
                        0.11335425823926926,
                        -1.1737574338912964,
                        -0.6225127577781677,
                        1.2348747253417969,
                        -0.0479554645717144,
                        -0.04318268597126007
                    ],
                    "Bias": -0.28824877738952639
                },
                {
                    "Value": 0.0,
                    "PreviousLayerNeuronValues": [
                        0.3551475405693054,
                        0.0,
                        3.0715677738189699,
                        1.3896182775497437,
                        1.0349982976913453,
                        0.0,
                        0.5843091607093811,
                        3.724207878112793,
                        0.7467866539955139,
                        0.0,
                        0.0,
                        0.39232659339904787,
                        0.0,
                        0.0,
                        1.557881236076355,
                        0.0,
                        0.0,
                        1.1793005466461182,
                        1.9347946643829346,
                        0.0,
                        0.0,
                        0.0,
                        0.0,
                        0.0,
                        0.0,
                        0.0,
                        1.2462891340255738,
                        1.0219277143478394,
                        0.0,
                        1.3191230297088624,
                        1.6732592582702637,
                        0.5313779711723328
                    ],
                    "Weights": [
                        -1.4105610847473145,
                        -0.3898526728153229,
                        -1.1567407846450806,
