{
    "HiddenLayers": [
        {
            "Neurons": [
                {
                    "Value": 0.0,
                    "PreviousLayerNeuronValues": [
                        0.0,
                        0.0,
                        0.0,
                        0.0,
                        0.0,
                        0.0,
                        0.0,
                        0.0,
                        0.0,
                        0.0,
                        0.0,
                        0.0,
                        0.0,
                        0.0,
                        0.0,
                        0.0,
                        0.0,
                        0.0,
                        0.0,
                        0.0
                    ],
                    "Weights": [
                        -0.7459032535552979,
                        -0.8853039741516113,
                        -0.3643723726272583,
                        -0.7428750991821289,
                        -0.8699195384979248,
                        -0.7219195365905762,
                        0.8555028438568115,
                        -0.4704209566116333,
                        -0.9399771690368652,
                        -0.33659660816192629,
                        -0.8875086307525635,
                        -0.8961498737335205,
                        -0.6236608028411865,
                        -0.3691035509109497,
                        -0.23089277744293214,
                        -0.711667537689209,
                        0.8878602981567383,
                        -0.09655940532684326,
                        0.5226681232452393,
                        0.6012959480285645
                    ],
                    "Bias": -0.14428246021270753
                },
                {
                    "Value": 0.0,
                    "PreviousLayerNeuronValues": [
                        0.0,
                        0.0,
                        0.0,
                        0.0,
                        0.0,
                        0.0,
                        0.0,
                        0.0,
                        0.0,
                        0.0,
                        0.0,
                        0.0,
                        0.0,
                        0.0,
                        0.0,
                        0.0,
                        0.0,
                        0.0,
                        0.0,
                        0.0
                    ],
                    "Weights": [
                        0.38159844279289248,
                        -0.5194206237792969,
                        -0.6868653297424316,
                        -0.8238840103149414,
                        -0.6358859539031982,
                        -0.3419910669326782,
                        -0.3766595125198364,
                        -0.01678335666656494,
                        -0.09509527683258057,
                        0.2444535493850708,
                        0.2770800292491913,
                        0.6518747806549072,
                        -0.1873706579208374,
                        0.7710597515106201,
                        -0.22591841220855714,
                        0.8835766315460205,
                        0.8878977298736572,
                        0.703059196472168,
                        0.7247083187103272,
                        -0.010414958000183106
                    ],
                    "Bias": -0.14983761310577393
                },
                {
                    "Value": 0.0,
                    "PreviousLayerNeuronValues": [
                        0.0,
                        0.0,
                        0.0,
                        0.0,
                        0.0,
                        0.0,
                        0.0,
                        0.0,
                        0.0,
                        0.0,
                        0.0,
                        0.0,
                        0.0,
                        0.0,
                        0.0,
                        0.0,
                        0.0,
                        0.0,
                        0.0,
                        0.0
                    ],
                    "Weights": [
                        0.1682366132736206,
                        -0.059836745262145999,
                        0.8987493515014648,
                        0.8426737785339356,
                        0.691523551940918,
                        0.4775068461894989,
                        -0.48258912563323977,
                        -0.6089034080505371,
                        0.881903886795044,
                        -0.5845215320587158,
                        0.06674396991729737,
                        -0.8417563438415527,
                        -0.596057653427124,
                        -0.8456132411956787,
                        -0.22571122646331788,
                        0.8667702674865723,
                        -0.8378021717071533,
                        -0.7598483562469482,
                        0.07966530323028565,
                        -0.7333462238311768
                    ],
                    "Bias": -0.3767155408859253
                },
                {
                    "Value": 0.0,
                    "PreviousLayerNeuronValues": [
                        0.0,
                        0.0,
                        0.0,
                        0.0,
                        0.0,
                        0.0,
                        0.0,
                        0.0,
                        0.0,
                        0.0,
                        0.0,
                        0.0,
                        0.0,
                        0.0,
                        0.0,
                        0.0,
                        0.0,
                        0.0,
                        0.0,
                        0.0
                    ],
                    "Weights": [
                        0.07631790637969971,
                        -0.6400265693664551,
                        -0.6589794158935547,
                        -0.11429727077484131,
                        0.9247696399688721,
                        0.8530740737915039,
                        -0.2796894311904907,
                        0.08910143375396729,
                        0.570235013961792,
                        0.19290602207183839,
                        -0.41900718212127688,
                        -0.9695906639099121,
                        0.01311337947845459,
                        0.02389061450958252,
                        0.41574522852897646,
                        0.41701647639274599,
                        0.582233190536499,
                        0.34058353304862978,
                        -0.8699910640716553,
                        -0.577939510345459
                    ],
                    "Bias": -0.6128647327423096
                },
                {
                    "Value": 0.0,
                    "PreviousLayerNeuronValues": [
                        0.0,
                        0.0,
                        0.0,
                        0.0,
                        0.0,
                        0.0,
                        0.0,
                        0.0,
                        0.0,
                        0.0,
                        0.0,
                        0.0,
                        0.0,
                        0.0,
                        0.0,
                        0.0,
                        0.0,
                        0.0,
                        0.0,
                        0.0
                    ],
                    "Weights": [
                        -0.503309965133667,
                        -0.9602370262145996,
                        0.32592126727104189,
                        0.20514023303985597,
                        -0.48255956172943118,
                        -0.34248435497283938,
                        -0.6803090572357178,
                        -0.5523641109466553,
                        0.02399599552154541,
                        0.33484694361686709,
                        -0.2154463529586792,
                        0.1279674768447876,
                        0.7274971008300781,
                        0.3871161639690399,
                        -0.27476298809051516,
                        -0.7274503707885742,
                        0.7126336097717285,
                        0.15170466899871827,
                        -0.03228867053985596,
                        -0.4271663427352905
                    ],
                    "Bias": -0.5739004611968994
                },
                {
                    "Value": 0.0,
                    "PreviousLayerNeuronValues": [
                        0.0,
                        0.0,
                        0.0,
                        0.0,
                        0.0,
                        0.0,
                        0.0,
                        0.0,
                        0.0,
                        0.0,
                        0.0,
                        0.0,
                        0.0,
                        0.0,
                        0.0,
                        0.0,
                        0.0,
                        0.0,
                        0.0,
                        0.0
                    ],
                    "Weights": [
                        -0.568307638168335,
                        -0.5265350341796875,
                        0.8575716018676758,
                        -0.23207080364227296,
                        -0.0650252103805542,
                        -0.1096426248550415,
                        0.6473591327667236,
                        -0.8461353778839111,
                        -0.12480270862579346,
                        -0.7831485271453857,
                        0.9948182106018066,
                        -0.45469796657562258,
                        -0.47570955753326418,
                        0.8639354705810547,
                        0.8593838214874268,
                        -0.0908733606338501,
                        -0.7008445262908936,
                        -0.04832899570465088,
                        0.5411820411682129,
                        -0.017630457878112794
                    ],
                    "Bias": -0.12977492809295655
                },
                {
                    "Value": 0.35886093974113467,
                    "PreviousLayerNeuronValues": [
                        0.0,
                        0.0,
                        0.0,
                        0.0,
                        0.0,
                        0.0,
                        0.0,
                        0.0,
                        0.0,
                        0.0,
                        0.0,
                        0.0,
                        0.0,
                        0.0,
                        0.0,
                        0.0,
                        0.0,
                        0.0,
                        0.0,
                        0.0
                    ],
                    "Weights": [
                        -0.8476505279541016,
                        0.6138834953308106,
                        0.09217393398284912,
                        0.5355167388916016,
                        0.09012711048126221,
                        -0.2616368532180786,
                        0.6287896633148193,
                        -0.16229093074798585,
                        0.3608874976634979,
                        0.6224186420440674,
                        0.5429859161376953,
                        0.4951305091381073,
                        -0.1163872480392456,
                        -0.6386229991912842,
                        -0.38728153705596926,
                        -0.45383942127227785,
                        0.5990586280822754,
                        0.9298229217529297,
                        -0.1473907232284546,
                        -0.5042381286621094
                    ],
                    "Bias": 0.35886093974113467
                },
                {
                    "Value": 0.0,
                    "PreviousLayerNeuronValues": [
                        0.0,
                        0.0,
                        0.0,
                        0.0,
                        0.0,
                        0.0,
                        0.0,
                        0.0,
                        0.0,
                        0.0,
                        0.0,
                        0.0,
                        0.0,
                        0.0,
                        0.0,
                        0.0,
                        0.0,
                        0.0,
                        0.0,
                        0.0
                    ],
                    "Weights": [
                        0.09710395336151123,
                        -0.12949860095977784,
                        0.28613683581352236,
                        0.07469213008880615,
                        -0.17058098316192628,
                        0.7960948944091797,
                        0.5607945919036865,
                        -0.7130978107452393,
                        -0.8231353759765625,
                        -0.6182913780212402,
                        0.6284916400909424,
                        -0.32238733768463137,
                        0.34430381655693056,
                        -0.12016093730926514,
                        -0.22703421115875245,
                        0.7031030654907227,
                        0.5997512340545654,
                        0.4252888858318329,
                        -0.156011700630188,
                        0.3106352984905243
                    ],
                    "Bias": -0.6876490116119385
                },
                {
                    "Value": 0.02918851375579834,
                    "PreviousLayerNeuronValues": [
                        0.0,
                        0.0,
                        0.0,
                        0.0,
                        0.0,
                        0.0,
                        0.0,
                        0.0,
                        0.0,
                        0.0,
                        0.0,
                        0.0,
                        0.0,
                        0.0,
                        0.0,
                        0.0,
                        0.0,
                        0.0,
                        0.0,
                        0.0
                    ],
                    "Weights": [
                        0.35564514994621279,
                        -0.35395753383636477,
                        0.9514131546020508,
                        -0.0843273401260376,
                        0.1653996706008911,
                        -0.02142798900604248,
                        0.5962841510772705,
                        -0.01923072338104248,
                        0.4367947280406952,
                        0.37584730982780459,
                        -0.12930285930633546,
                        -0.5451905727386475,
                        0.9847795963287354,
                        0.8621971607208252,
                        -0.8143587112426758,
                        -0.3213690519332886,
                        -0.8337812423706055,
                        -0.602081298828125,
                        0.663027286529541,
                        -0.40922224521636965
                    ],
                    "Bias": 0.02918851375579834
                },
                {
                    "Value": 0.8709304332733154,
                    "PreviousLayerNeuronValues": [
                        0.0,
                        0.0,
                        0.0,
                        0.0,
                        0.0,
                        0.0,
                        0.0,
                        0.0,
                        0.0,
                        0.0,
                        0.0,
                        0.0,
                        0.0,
                        0.0,
                        0.0,
                        0.0,
                        0.0,
                        0.0,
                        0.0,
                        0.0
                    ],
                    "Weights": [
                        -0.5781018733978272,
                        -0.5836155414581299,
                        -0.08887732028961182,
                        -0.47026193141937258,
                        -0.06366336345672608,
                        -0.7858912944793701,
                        -0.2963443994522095,
                        -0.3874934911727905,
                        -0.0690075159072876,
                        0.11732089519500733,
                        -0.484775185585022,
                        0.274776428937912,
                        -0.367000937461853,
                        -0.6068170070648193,
                        -0.48088133335113528,
                        0.18228447437286378,
                        0.2340925931930542,
                        0.11379086971282959,
                        0.5624263286590576,
                        0.7537479400634766
                    ],
                    "Bias": 0.8709304332733154
                },
                {
                    "Value": 0.0,
                    "PreviousLayerNeuronValues": [
                        0.0,
                        0.0,
                        0.0,
                        0.0,
                        0.0,
                        0.0,
                        0.0,
                        0.0,
                        0.0,
                        0.0,
                        0.0,
                        0.0,
                        0.0,
                        0.0,
                        0.0,
                        0.0,
                        0.0,
                        0.0,
                        0.0,
                        0.0
                    ],
                    "Weights": [
                        0.8084418773651123,
                        -0.772228479385376,
                        0.7356939315795898,
                        -0.3806995153427124,
                        0.19710981845855714,
                        -0.352228045463562,
                        0.6547043323516846,
                        0.14910757541656495,
                        0.2538709342479706,
                        -0.17065536975860597,
                        -0.8380470275878906,
                        0.6104180812835693,
                        0.19309651851654054,
                        -0.32542431354522707,
                        -0.529327392578125,
                        -0.058310627937316897,
                        -0.08526957035064697,
                        -0.7249274253845215,
                        0.7493669986724854,
                        -0.16887152194976808
                    ],
                    "Bias": -0.08057606220245362
                },
                {
                    "Value": 0.03603684902191162,
                    "PreviousLayerNeuronValues": [
                        0.0,
                        0.0,
                        0.0,
                        0.0,
                        0.0,
                        0.0,
                        0.0,
                        0.0,
                        0.0,
                        0.0,
                        0.0,
                        0.0,
                        0.0,
                        0.0,
                        0.0,
                        0.0,
                        0.0,
                        0.0,
                        0.0,
                        0.0
                    ],
                    "Weights": [
                        -0.4004155397415161,
                        0.2572598159313202,
                        0.2165452241897583,
                        0.8318345546722412,
                        -0.30403149127960207,
                        0.20464003086090089,
                        -0.6585524082183838,
                        -0.13528621196746827,
                        -0.22995269298553468,
                        0.2382887601852417,
                        0.7802822589874268,
                        -0.4706186056137085,
                        0.014335036277770996,
                        -0.6006991863250732,
                        0.8085532188415527,
                        -0.5084154605865479,
                        0.32768747210502627,
                        -0.06005990505218506,
                        0.9721701145172119,
                        -0.08585703372955322
                    ],
                    "Bias": 0.03603684902191162
                },
                {
                    "Value": 0.0,
                    "PreviousLayerNeuronValues": [
                        0.0,
                        0.0,
                        0.0,
                        0.0,
                        0.0,
                        0.0,
                        0.0,
                        0.0,
                        0.0,
                        0.0,
                        0.0,
                        0.0,
                        0.0,
                        0.0,
                        0.0,
                        0.0,
                        0.0,
                        0.0,
                        0.0,
                        0.0
                    ],
                    "Weights": [
                        0.7052383422851563,
                        -0.42227041721343996,
                        -0.2927631139755249,
                        -0.84663987159729,
                        -0.2115544080734253,
                        -0.480289101600647,
                        -0.6040499210357666,
                        -0.32496917247772219,
                        -0.6262190341949463,
                        0.531435489654541,
                        0.22020018100738526,
                        0.3930768668651581,
                        0.12628281116485597,
                        -0.11483943462371826,
                        -0.276192307472229,
                        0.13605988025665284,
                        -0.09469711780548096,
                        -0.3027864694595337,
                        0.4236299693584442,
                        -0.055626511573791507
                    ],
                    "Bias": -0.5628361701965332
                },
                {
                    "Value": 0.0,
                    "PreviousLayerNeuronValues": [
                        0.0,
                        0.0,
                        0.0,
                        0.0,
                        0.0,
                        0.0,
                        0.0,
                        0.0,
                        0.0,
                        0.0,
                        0.0,
                        0.0,
                        0.0,
                        0.0,
                        0.0,
                        0.0,
                        0.0,
                        0.0,
                        0.0,
                        0.0
                    ],
                    "Weights": [
                        0.6018011569976807,
                        -0.9894869327545166,
                        0.47029444575309756,
                        0.27847811579704287,
                        -0.30505669116973879,
                        -0.44059503078460696,
                        0.15847527980804444,
                        0.1811610460281372,
                        -0.9218120574951172,
                        0.79463791847229,
                        -0.6303730010986328,
                        0.3768124282360077,
                        0.14560043811798097,
                        0.9600319862365723,
                        0.730396032333374,
                        0.37657949328422549,
                        -0.8645951747894287,
                        0.3263396918773651,
                        0.026634812355041505,
                        0.7058041095733643
                    ],
                    "Bias": -0.5387599468231201
                },
                {
                    "Value": 0.16490089893341065,
                    "PreviousLayerNeuronValues": [
                        0.0,
                        0.0,
                        0.0,
                        0.0,
                        0.0,
                        0.0,
                        0.0,
                        0.0,
                        0.0,
                        0.0,
                        0.0,
                        0.0,
                        0.0,
                        0.0,
                        0.0,
                        0.0,
                        0.0,
                        0.0,
                        0.0,
                        0.0
                    ],
                    "Weights": [
                        -0.04124724864959717,
                        -0.6002421379089356,
                        -0.2082611322402954,
                        -0.004291176795959473,
                        -0.20146715641021729,
                        -0.1307145357131958,
                        -0.32594573497772219,
                        0.8496377468109131,
                        -0.9005954265594482,
                        -0.30241215229034426,
                        -0.982947826385498,
                        -0.3335791826248169,
                        -0.8096427917480469,
                        -0.6375703811645508,
                        0.10325920581817627,
                        -0.23223531246185304,
                        0.29514357447624209,
                        -0.8563799858093262,
                        -0.31553566455841067,
                        0.7060081958770752
                    ],
                    "Bias": 0.16490089893341065
                },
                {
                    "Value": 0.2109454870223999,
                    "PreviousLayerNeuronValues": [
                        0.0,
                        0.0,
                        0.0,
                        0.0,
                        0.0,
                        0.0,
                        0.0,
                        0.0,
                        0.0,
                        0.0,
                        0.0,
                        0.0,
                        0.0,
                        0.0,
                        0.0,
                        0.0,
                        0.0,
                        0.0,
                        0.0,
                        0.0
                    ],
                    "Weights": [
                        -0.47419703006744387,
                        -0.012708783149719239,
                        -0.17222487926483155,
                        0.40118905901908877,
                        -0.1317960023880005,
                        -0.05679166316986084,
                        0.2726881206035614,
                        0.18435204029083253,
                        0.41118571162223818,
                        -0.03125131130218506,
                        -0.4293934106826782,
                        -0.38192689418792727,
                        0.9990894794464111,
                        -0.20167696475982667,
                        -0.47535574436187746,
                        0.2777392566204071,
                        0.046684861183166507,
                        0.027212977409362794,
                        0.8696467876434326,
                        -0.04217541217803955
                    ],
                    "Bias": 0.2109454870223999
                },
                {
                    "Value": 0.8939054012298584,
                    "PreviousLayerNeuronValues": [
                        0.0,
                        0.0,
                        0.0,
                        0.0,
                        0.0,
                        0.0,
                        0.0,
                        0.0,
                        0.0,
                        0.0,
                        0.0,
                        0.0,
                        0.0,
                        0.0,
                        0.0,
                        0.0,
                        0.0,
                        0.0,
                        0.0,
                        0.0
                    ],
                    "Weights": [
                        -0.4957348108291626,
                        0.7196924686431885,
                        -0.24258768558502198,
                        -0.32586443424224856,
                        0.49057576060295107,
                        -0.11119735240936279,
                        0.10129654407501221,
                        0.21231067180633546,
                        0.7369718551635742,
                        0.4029483497142792,
                        -0.3035649061203003,
                        0.6799831390380859,
                        -0.2843846082687378,
                        0.7298281192779541,
                        0.01152336597442627,
                        -0.5334720611572266,
                        -0.8284025192260742,
                        0.39081379771232607,
                        -0.7516834735870361,
                        0.08090555667877197
                    ],
                    "Bias": 0.8939054012298584
                },
                {
                    "Value": 0.0,
                    "PreviousLayerNeuronValues": [
                        0.0,
                        0.0,
                        0.0,
                        0.0,
                        0.0,
                        0.0,
                        0.0,
                        0.0,
                        0.0,
                        0.0,
                        0.0,
                        0.0,
                        0.0,
                        0.0,
                        0.0,
                        0.0,
                        0.0,
                        0.0,
                        0.0,
                        0.0
                    ],
                    "Weights": [
                        0.4336383044719696,
                        0.3010067641735077,
                        -0.9433443546295166,
                        -0.4428015947341919,
                        0.9600512981414795,
                        0.3038923442363739,
                        0.2374502420425415,
                        0.24126017093658448,
                        -0.41092026233673098,
                        0.7081801891326904,
                        0.018243908882141115,
                        -0.73563551902771,
                        0.9407455921173096,
                        -0.5226430892944336,
                        -0.9626765251159668,
                        0.3130950629711151,
                        -0.35882294178009035,
                        0.9350206851959229,
                        -0.30201494693756106,
                        0.30150744318962099
                    ],
                    "Bias": -0.6797442436218262
                },
                {
                    "Value": 0.7173421382904053,
                    "PreviousLayerNeuronValues": [
                        0.0,
                        0.0,
                        0.0,
                        0.0,
                        0.0,
                        0.0,
                        0.0,
                        0.0,
                        0.0,
                        0.0,
                        0.0,
                        0.0,
                        0.0,
                        0.0,
                        0.0,
                        0.0,
                        0.0,
                        0.0,
                        0.0,
                        0.0
                    ],
                    "Weights": [
                        0.015186429023742676,
                        0.31903597712516787,
                        -0.3889964818954468,
                        -0.31979358196258547,
                        0.9606883525848389,
                        0.5490696430206299,
                        0.6132040023803711,
                        0.9191267490386963,
                        0.2078937292098999,
                        0.07366383075714112,
                        0.841536283493042,
                        -0.39592134952545168,
                        -0.7923629283905029,
                        0.30106493830680849,
                        0.9830918312072754,
                        -0.22790682315826417,
                        -0.5701017379760742,
                        0.383665531873703,
                        -0.3112300634384155,
                        0.3097393214702606
                    ],
                    "Bias": 0.7173421382904053
                },
                {
                    "Value": 0.12875592708587647,
                    "PreviousLayerNeuronValues": [
                        0.0,
                        0.0,
                        0.0,
                        0.0,
                        0.0,
                        0.0,
                        0.0,
                        0.0,
                        0.0,
                        0.0,
                        0.0,
                        0.0,
                        0.0,
                        0.0,
                        0.0,
                        0.0,
                        0.0,
                        0.0,
                        0.0,
                        0.0
                    ],
                    "Weights": [
                        0.14971745014190675,
                        -0.34530341625213625,
                        0.8945410251617432,
                        -0.844637393951416,
                        -0.7839555740356445,
                        -0.6896018981933594,
                        0.8858027458190918,
                        -0.1422799825668335,
                        -0.4789208173751831,
                        -0.3297227621078491,
                        0.6446967124938965,
                        0.9170479774475098,
                        -0.3453930616378784,
                        -0.05342447757720947,
                        0.7510297298431397,
                        -0.49206769466400149,
                        -0.26829802989959719,
                        -0.9559338092803955,
                        -0.6669268608093262,
                        0.793285608291626
                    ],
                    "Bias": 0.12875592708587647
                },
                {
                    "Value": 0.0,
                    "PreviousLayerNeuronValues": [
                        0.0,
                        0.0,
                        0.0,
                        0.0,
                        0.0,
                        0.0,
                        0.0,
                        0.0,
                        0.0,
                        0.0,
                        0.0,
                        0.0,
                        0.0,
                        0.0,
                        0.0,
                        0.0,
                        0.0,
                        0.0,
                        0.0,
                        0.0
                    ],
                    "Weights": [
                        -0.4191805124282837,
                        -0.9154269695281982,
                        -0.6263906955718994,
                        -0.614311695098877,
                        0.9920377731323242,
                        -0.3221036195755005,
                        -0.17233192920684815,
                        0.0670555830001831,
                        0.42012855410575869,
                        0.33650681376457217,
                        -0.350472092628479,
                        -0.4709857702255249,
                        -0.9782953262329102,
                        -0.16530382633209229,
                        0.33142778277397158,
                        -0.21108901500701905,
                        0.3659617602825165,
                        0.1986764669418335,
                        -0.505990743637085,
                        0.2745220363140106
                    ],
                    "Bias": -0.6064548492431641
                },
                {
                    "Value": 0.09284722805023194,
                    "PreviousLayerNeuronValues": [
                        0.0,
                        0.0,
                        0.0,
                        0.0,
                        0.0,
                        0.0,
                        0.0,
                        0.0,
                        0.0,
                        0.0,
                        0.0,
                        0.0,
                        0.0,
                        0.0,
                        0.0,
                        0.0,
                        0.0,
                        0.0,
                        0.0,
                        0.0
                    ],
                    "Weights": [
                        -0.9911274909973145,
                        -0.2003389596939087,
                        0.22387349605560304,
                        -0.7685718536376953,
                        -0.9431149959564209,
                        -0.9062638282775879,
                        0.08487594127655029,
                        -0.9368011951446533,
                        0.8991608619689941,
                        -0.15362346172332765,
                        -0.40243804454803469,
                        0.5296001434326172,
                        0.6878106594085693,
                        0.5244331359863281,
                        0.8569333553314209,
                        0.31697770953178408,
                        -0.23239457607269288,
                        0.9486935138702393,
                        0.5518088340759277,
                        0.43582817912101748
                    ],
                    "Bias": 0.09284722805023194
                },
                {
                    "Value": 0.83931565284729,
                    "PreviousLayerNeuronValues": [
                        0.0,
                        0.0,
                        0.0,
                        0.0,
                        0.0,
                        0.0,
                        0.0,
                        0.0,
                        0.0,
                        0.0,
                        0.0,
                        0.0,
                        0.0,
                        0.0,
                        0.0,
                        0.0,
                        0.0,
                        0.0,
                        0.0,
                        0.0
                    ],
                    "Weights": [
                        0.6974587440490723,
                        0.22175562381744386,
                        -0.6656897068023682,
                        -0.4695171117782593,
                        -0.8602297306060791,
                        0.014699578285217286,
                        -0.7721893787384033,
                        -0.6070842742919922,
                        -0.38825738430023196,
                        -0.6292192935943604,
                        0.2285093069076538,
                        -0.5103859901428223,
                        -0.4509166479110718,
                        -0.035869479179382327,
                        0.7213180065155029,
                        0.3658742606639862,
                        -0.6996240615844727,
                        0.5175585746765137,
                        0.18818247318267823,
                        -0.6064622402191162
                    ],
                    "Bias": 0.83931565284729
                },
                {
                    "Value": 0.0,
                    "PreviousLayerNeuronValues": [
                        0.0,
                        0.0,
                        0.0,
                        0.0,
                        0.0,
                        0.0,
                        0.0,
                        0.0,
                        0.0,
                        0.0,
                        0.0,
                        0.0,
                        0.0,
                        0.0,
                        0.0,
                        0.0,
                        0.0,
                        0.0,
                        0.0,
                        0.0
                    ],
                    "Weights": [
                        -0.49595367908477785,
                        -0.8791549205780029,
                        -0.3568676710128784,
                        0.9625115394592285,
                        -0.21618640422821046,
                        -0.5905077457427979,
                        -0.16749799251556397,
                        0.8539047241210938,
                        0.577368974685669,
                        -0.6552913188934326,
                        0.6784100532531738,
                        -0.16575372219085694,
                        -0.17127883434295655,
                        0.7791004180908203,
                        0.8047401905059815,
                        -0.005280613899230957,
                        0.569955587387085,
                        0.408004492521286,
                        -0.412502646446228,
                        0.5164394378662109
                    ],
                    "Bias": -0.5875282287597656
                },
                {
                    "Value": 0.05542933940887451,
                    "PreviousLayerNeuronValues": [
                        0.0,
                        0.0,
                        0.0,
                        0.0,
                        0.0,
                        0.0,
                        0.0,
                        0.0,
                        0.0,
                        0.0,
                        0.0,
                        0.0,
                        0.0,
                        0.0,
                        0.0,
                        0.0,
                        0.0,
                        0.0,
                        0.0,
                        0.0
                    ],
                    "Weights": [
                        -0.2318938970565796,
                        -0.08372485637664795,
                        0.1109853982925415,
                        -0.7223834991455078,
                        0.13639533519744874,
                        0.047945380210876468,
                        0.49379703402519228,
                        -0.2475208044052124,
                        -0.655754566192627,
                        -0.31208908557891848,
                        -0.117714524269104,
                        0.832942008972168,
                        -0.7439680099487305,
                        -0.5126333236694336,
                        -0.222983717918396,
                        0.23716318607330323,
                        -0.2594093084335327,
                        -0.2038952112197876,
                        -0.9338054656982422,
                        0.9419472217559815
                    ],
                    "Bias": 0.05542933940887451
                },
                {
                    "Value": 0.0,
                    "PreviousLayerNeuronValues": [
                        0.0,
                        0.0,
                        0.0,
                        0.0,
                        0.0,
                        0.0,
                        0.0,
                        0.0,
                        0.0,
                        0.0,
                        0.0,
                        0.0,
                        0.0,
                        0.0,
                        0.0,
                        0.0,
                        0.0,
                        0.0,
                        0.0,
                        0.0
                    ],
                    "Weights": [
                        -0.20645081996917725,
                        0.7232265472412109,
                        0.770540714263916,
                        -0.15081322193145753,
                        0.9988999366760254,
                        -0.1837712526321411,
                        0.8090953826904297,
                        0.538642168045044,
                        0.6152219772338867,
                        -0.5063509941101074,
                        -0.9325864315032959,
                        0.5841684341430664,
                        -0.8131895065307617,
                        -0.01826298236846924,
                        0.438064306974411,
                        -0.9752097129821777,
                        -0.8065383434295654,
                        -0.827362060546875,
                        0.8434262275695801,
                        0.5397846698760986
                    ],
                    "Bias": -0.8662045001983643
                },
                {
                    "Value": 0.0,
                    "PreviousLayerNeuronValues": [
                        0.0,
                        0.0,
                        0.0,
                        0.0,
                        0.0,
                        0.0,
                        0.0,
                        0.0,
                        0.0,
                        0.0,
                        0.0,
                        0.0,
                        0.0,
                        0.0,
                        0.0,
                        0.0,
                        0.0,
                        0.0,
                        0.0,
                        0.0
                    ],
                    "Weights": [
                        -0.3683124780654907,
                        0.43216726183891299,
                        -0.36506187915802,
                        0.31975623965263369,
                        -0.3077746629714966,
                        0.06091344356536865,
                        0.4356517493724823,
                        -0.7986032962799072,
                        -0.9589331150054932,
                        -0.1774216890335083,
                        0.018215298652648927,
                        0.9944295883178711,
                        0.7456924915313721,
                        -0.7033872604370117,
                        0.7312536239624023,
                        -0.9770264625549316,
                        -0.928645133972168,
                        0.5237457752227783,
                        0.18923771381378175,
                        0.55611252784729
                    ],
                    "Bias": -0.8023209571838379
                },
                {
                    "Value": 0.0,
                    "PreviousLayerNeuronValues": [
                        0.0,
                        0.0,
                        0.0,
                        0.0,
                        0.0,
                        0.0,
                        0.0,
                        0.0,
                        0.0,
                        0.0,
                        0.0,
                        0.0,
                        0.0,
                        0.0,
                        0.0,
                        0.0,
                        0.0,
                        0.0,
                        0.0,
                        0.0
                    ],
                    "Weights": [
                        -0.4280449151992798,
                        -0.4391063451766968,
                        0.061661362648010257,
                        0.41118189692497256,
                        -0.33622491359710696,
                        -0.1722022294998169,
                        0.19249403476715089,
                        0.36284109950065615,
                        0.5375151634216309,
                        -0.4545708894729614,
                        -0.2820550203323364,
                        0.704301118850708,
                        -0.9374606609344482,
                        0.9910693168640137,
                        0.6681063175201416,
                        0.5789370536804199,
                        0.6670370101928711,
                        -0.14534151554107667,
                        -0.9450507164001465,
                        0.11692559719085694
                    ],
                    "Bias": -0.7362802028656006
                },
                {
                    "Value": 0.0,
                    "PreviousLayerNeuronValues": [
                        0.0,
                        0.0,
                        0.0,
                        0.0,
                        0.0,
                        0.0,
                        0.0,
                        0.0,
                        0.0,
                        0.0,
                        0.0,
                        0.0,
                        0.0,
                        0.0,
                        0.0,
                        0.0,
                        0.0,
                        0.0,
                        0.0,
                        0.0
                    ],
                    "Weights": [
                        -0.41194164752960207,
                        0.8563430309295654,
                        0.790046215057373,
                        0.9801344871520996,
                        0.630361795425415,
                        -0.45222508907318118,
                        -0.46690165996551516,
                        -0.9900674819946289,
                        0.24841797351837159,
                        -0.6586546897888184,
                        -0.2147308588027954,
                        0.20505297183990479,
                        -0.07506310939788819,
                        -0.02353084087371826,
                        -0.5426959991455078,
                        -0.4478212594985962,
                        -0.022217154502868654,
                        -0.08621013164520264,
                        0.1848078966140747,
                        0.7442631721496582
                    ],
                    "Bias": -0.37610089778900149
                },
                {
                    "Value": 0.0,
                    "PreviousLayerNeuronValues": [
                        0.0,
                        0.0,
                        0.0,
                        0.0,
                        0.0,
                        0.0,
                        0.0,
                        0.0,
                        0.0,
                        0.0,
                        0.0,
                        0.0,
                        0.0,
                        0.0,
                        0.0,
                        0.0,
                        0.0,
                        0.0,
                        0.0,
                        0.0
                    ],
                    "Weights": [
                        0.10352098941802979,
                        0.3598439395427704,
                        0.9820578098297119,
                        0.17758071422576905,
                        0.954472541809082,
                        -0.26509416103363039,
                        -0.4731248617172241,
                        0.7586555480957031,
                        -0.7763645648956299,
                        0.9879207611083984,
                        0.2965216338634491,
                        0.9152534008026123,
                        -0.8827035427093506,
                        0.17520034313201905,
                        -0.8133959770202637,
                        0.43032214045524599,
                        0.9884400367736816,
                        -0.3070477247238159,
                        0.04988229274749756,
                        -0.7481429576873779
                    ],
                    "Bias": -0.3211718797683716
                },
                {
                    "Value": 0.1021949052810669,
                    "PreviousLayerNeuronValues": [
                        0.0,
                        0.0,
                        0.0,
                        0.0,
                        0.0,
                        0.0,
                        0.0,
                        0.0,
                        0.0,
                        0.0,
                        0.0,
                        0.0,
                        0.0,
                        0.0,
                        0.0,
                        0.0,
                        0.0,
                        0.0,
                        0.0,
                        0.0
                    ],
                    "Weights": [
                        -0.27473342418670657,
                        -0.7244582176208496,
                        0.10456955432891846,
                        0.4567970931529999,
                        0.2672071158885956,
                        -0.2587779760360718,
                        -0.6994798183441162,
                        -0.0471416711807251,
                        -0.4337054491043091,
                        -0.9436707496643066,
                        0.3542775809764862,
                        0.026764988899230958,
                        -0.4675506353378296,
                        0.8269829750061035,
                        0.7771453857421875,
                        0.9185383319854736,
                        -0.7453019618988037,
                        0.7258646488189697,
                        -0.9963452816009522,
                        0.7403593063354492
                    ],
                    "Bias": 0.1021949052810669
                },
                {
                    "Value": 0.3504900634288788,
                    "PreviousLayerNeuronValues": [
                        0.0,
                        0.0,
                        0.0,
                        0.0,
                        0.0,
                        0.0,
                        0.0,
                        0.0,
                        0.0,
                        0.0,
                        0.0,
                        0.0,
                        0.0,
                        0.0,
                        0.0,
                        0.0,
                        0.0,
                        0.0,
                        0.0,
                        0.0
                    ],
                    "Weights": [
                        0.05693614482879639,
                        0.43463775515556338,
                        0.10289180278778076,
                        -0.4703143835067749,
                        0.26735469698905947,
                        -0.6904792785644531,
                        0.5396194458007813,
                        -0.49046409130096438,
                        0.25058504939079287,
                        0.9716091156005859,
                        -0.9453732967376709,
                        0.31653377413749697,
                        -0.6026804447174072,
                        0.8346774578094482,
                        0.3663954436779022,
                        0.5905144214630127,
                        0.48794886469841006,
                        -0.0835951566696167,
                        0.8537251949310303,
                        -0.42709314823150637
                    ],
                    "Bias": 0.3504900634288788
                }
            ]
        }
    ],
    "InputLayer": {
        "Neurons": [],
        "InputNeurons": [
            {
                "Value": 0.0
            },
            {
                "Value": 0.0
            },
            {
                "Value": 0.0
            },
            {
                "Value": 0.0
            },
            {
                "Value": 0.0
            },
            {
                "Value": 0.0
            },
            {
                "Value": 0.0
            },
            {
                "Value": 0.0
            },
            {
                "Value": 0.0
            },
            {
                "Value": 0.0
            },
            {
                "Value": 0.0
            },
            {
                "Value": 0.0
            },
            {
                "Value": 0.0
            },
            {
                "Value": 0.0
            },
            {
                "Value": 0.0
            },
            {
                "Value": 0.0
            },
            {
                "Value": 0.0
            },
            {
                "Value": 0.0
            },
            {
                "Value": 0.0
            },
            {
                "Value": 0.0
            }
        ]
    },
    "OutputLayer": {
        "Neurons": [
            {
                "Value": 0.26740583777427676,
                "PreviousLayerNeuronValues": [
                    0.0,
                    0.0,
                    0.0,
                    0.0,
                    0.0,
                    0.0,
                    0.35886093974113467,
                    0.0,
                    0.02918851375579834,
                    0.8709304332733154,
                    0.0,
                    0.03603684902191162,
                    0.0,
                    0.0,
                    0.16490089893341065,
                    0.2109454870223999,
                    0.8939054012298584,
                    0.0,
                    0.7173421382904053,
                    0.12875592708587647,
                    0.0,
                    0.09284722805023194,
                    0.83931565284729,
                    0.0,
                    0.05542933940887451,
                    0.0,
                    0.0,
                    0.0,
                    0.0,
                    0.0,
                    0.1021949052810669,
                    0.3504900634288788
                ],
                "Weights": [
                    0.00510561466217041,
                    0.2722751796245575,
                    -0.29487740993499758,
                    0.6735925674438477,
                    0.9317276477813721,
                    0.8321220874786377,
                    -0.8269007205963135,
                    -0.9122433662414551,
                    -0.10577285289764404,
                    0.06897962093353272,
                    0.13499581813812257,
                    0.8241903781890869,
                    0.6848790645599365,
                    0.6560897827148438,
                    0.6434164047241211,
                    -0.9864716529846191,
                    -0.3886502981185913,
                    0.10460364818572998,
                    0.7545783519744873,
                    -0.971282958984375,
                    0.5564837455749512,
                    -0.9544572830200195,
                    -0.8967928886413574,
                    -0.7509949207305908,
                    0.7189745903015137,
                    0.8558735847473145,
                    0.5561830997467041,
                    -0.4599534273147583,
                    -0.9294486045837402,
                    -0.5068926811218262,
                    -0.7776761054992676,
                    -0.4777413606643677
                ],
                "Bias": 0.2837805449962616
            },
            {
                "Value": 0.20708230137825013,
                "PreviousLayerNeuronValues": [
                    0.0,
                    0.0,
                    0.0,
                    0.0,
                    0.0,
                    0.0,
                    0.35886093974113467,
                    0.0,
                    0.02918851375579834,
                    0.8709304332733154,
                    0.0,
                    0.03603684902191162,
                    0.0,
                    0.0,
                    0.16490089893341065,
                    0.2109454870223999,
                    0.8939054012298584,
                    0.0,
                    0.7173421382904053,
                    0.12875592708587647,
                    0.0,
                    0.09284722805023194,
                    0.83931565284729,
                    0.0,
                    0.05542933940887451,
                    0.0,
                    0.0,
                    0.0,
                    0.0,
                    0.0,
                    0.1021949052810669,
                    0.3504900634288788
                ],
                "Weights": [
                    0.45712801814079287,
                    0.3171839416027069,
                    -0.18679535388946534,
                    0.9306905269622803,
                    0.7374179363250732,
                    -0.9898850917816162,
                    -0.7497086524963379,
                    -0.09314024448394776,
                    0.6488168239593506,
                    0.326128214597702,
                    -0.7613470554351807,
                    -0.6667449474334717,
                    -0.8094501495361328,
                    -0.6091325283050537,
                    -0.2993992567062378,
                    -0.29916584491729739,
                    -0.7473611831665039,
                    -0.07112228870391846,
                    -0.32635653018951418,
                    0.6339032649993897,
                    0.08719336986541748,
                    0.8757166862487793,
                    -0.28840434551239016,
                    0.7904677391052246,
                    -0.39112389087677,
                    0.15200388431549073,
                    0.21250975131988526,
                    -0.09465634822845459,
                    -0.8576598167419434,
                    -0.8240222930908203,
                    0.2308286428451538,
                    -0.4111107587814331
                ],
                "Bias": -0.11653292179107666
            },
            {
                "Value": 0.12539204955101014,
                "PreviousLayerNeuronValues": [
                    0.0,
                    0.0,
                    0.0,
                    0.0,
                    0.0,
                    0.0,
                    0.35886093974113467,
                    0.0,
                    0.02918851375579834,
                    0.8709304332733154,
                    0.0,
                    0.03603684902191162,
                    0.0,
                    0.0,
                    0.16490089893341065,
                    0.2109454870223999,
                    0.8939054012298584,
                    0.0,
                    0.7173421382904053,
                    0.12875592708587647,
                    0.0,
                    0.09284722805023194,
                    0.83931565284729,
                    0.0,
                    0.05542933940887451,
                    0.0,
                    0.0,
                    0.0,
                    0.0,
                    0.0,
                    0.1021949052810669,
                    0.3504900634288788
                ],
                "Weights": [
                    0.3219420611858368,
                    -0.47602665424346926,
                    -0.7039051055908203,
                    0.8487985134124756,
                    0.5052661895751953,
                    -0.31075775623321535,
                    -0.9504199028015137,
                    0.6270337104797363,
                    -0.6708865165710449,
                    -0.07688319683074951,
                    0.5213487148284912,
                    0.6341032981872559,
                    0.2753901183605194,
                    0.8013718128204346,
                    -0.2788280248641968,
                    -0.6202535629272461,
                    -0.43674981594085696,
                    -0.4208000898361206,
                    -0.23676526546478272,
                    -0.924919605255127,
                    0.7539825439453125,
                    0.4469098746776581,
                    -0.88919997215271,
                    -0.05010640621185303,
                    -0.5534648895263672,
                    -0.3154703378677368,
                    0.45594069361686709,
                    0.5621969699859619,
                    0.46887966990470889,
                    -0.7701528072357178,
                    0.4871828258037567,
                    -0.1688920259475708
                ],
                "Bias": 0.06350219249725342
            },
            {
                "Value": 0.4190678298473358,
                "PreviousLayerNeuronValues": [
                    0.0,
                    0.0,
                    0.0,
                    0.0,
                    0.0,
                    0.0,
                    0.35886093974113467,
                    0.0,
                    0.02918851375579834,
                    0.8709304332733154,
                    0.0,
                    0.03603684902191162,
                    0.0,
                    0.0,
                    0.16490089893341065,
                    0.2109454870223999,
                    0.8939054012298584,
                    0.0,
                    0.7173421382904053,
                    0.12875592708587647,
                    0.0,
                    0.09284722805023194,
                    0.83931565284729,
                    0.0,
                    0.05542933940887451,
                    0.0,
                    0.0,
                    0.0,
                    0.0,
                    0.0,
                    0.1021949052810669,
                    0.3504900634288788
                ],
                "Weights": [
                    0.4862158000469208,
                    -0.09303033351898194,
                    0.04671037197113037,
                    0.8812565803527832,
                    0.13364779949188233,
                    0.25357839465141299,
                    -0.8749721050262451,
                    -0.5364046096801758,
                    0.889275312423706,
                    -0.9318695068359375,
                    0.11685812473297119,
                    -0.08710801601409912,
                    0.42439505457878115,
                    0.868288516998291,
                    0.9953081607818604,
                    0.6880128383636475,
                    0.733079195022583,
                    -0.16748487949371339,
                    -0.1705857515335083,
                    -0.2796705961227417,
                    -0.39899909496307375,
                    0.9575343132019043,
                    0.33067891001701357,
                    0.716221809387207,
                    0.3728494346141815,
                    0.15292823314666749,
                    -0.8926784992218018,
                    -0.6661031246185303,
                    -0.6851952075958252,
                    0.804276704788208,
                    0.14154446125030518,
                    -0.2389160394668579
                ],
                "Bias": -0.3478606939315796
            },
            {
                "Value": 0.46539467573165896,
                "PreviousLayerNeuronValues": [
                    0.0,
                    0.0,
                    0.0,
                    0.0,
                    0.0,
                    0.0,
                    0.35886093974113467,
                    0.0,
                    0.02918851375579834,
                    0.8709304332733154,
                    0.0,
                    0.03603684902191162,
                    0.0,
                    0.0,
                    0.16490089893341065,
                    0.2109454870223999,
                    0.8939054012298584,
                    0.0,
                    0.7173421382904053,
                    0.12875592708587647,
                    0.0,
                    0.09284722805023194,
                    0.83931565284729,
                    0.0,
                    0.05542933940887451,
                    0.0,
                    0.0,
                    0.0,
                    0.0,
                    0.0,
                    0.1021949052810669,
                    0.3504900634288788
                ],
                "Weights": [
                    0.6771302223205566,
                    -0.048012614250183108,
                    -0.7017993927001953,
                    -0.8860533237457275,
                    0.6334896087646484,
                    0.2775070369243622,
                    0.1898719072341919,
                    0.08783900737762451,
                    0.6032898426055908,
                    -0.6723382472991943,
                    -0.6835618019104004,
                    0.09867560863494873,
                    -0.38681113719940188,
                    -0.23709332942962647,
                    -0.5126149654388428,
                    -0.5352139472961426,
                    0.5972082614898682,
                    -0.5405106544494629,
                    -0.6197295188903809,
                    -0.11837780475616455,
                    -0.29394543170928957,
                    0.22988593578338624,
                    0.5246396064758301,
                    0.933952808380127,
                    0.8242993354797363,
                    0.8217864036560059,
                    -0.8450875282287598,
                    0.24844658374786378,
                    -0.8941359519958496,
                    0.9269354343414307,
                    -0.9867105484008789,
                    0.9243741035461426
                ],
                "Bias": -0.24952185153961183
            },
            {
                "Value": 0.720840573310852,
                "PreviousLayerNeuronValues": [
                    0.0,
                    0.0,
                    0.0,
                    0.0,
                    0.0,
                    0.0,
                    0.35886093974113467,
                    0.0,
                    0.02918851375579834,
                    0.8709304332733154,
                    0.0,
                    0.03603684902191162,
                    0.0,
                    0.0,
                    0.16490089893341065,
                    0.2109454870223999,
                    0.8939054012298584,
                    0.0,
                    0.7173421382904053,
                    0.12875592708587647,
                    0.0,
                    0.09284722805023194,
                    0.83931565284729,
                    0.0,
                    0.05542933940887451,
                    0.0,
                    0.0,
                    0.0,
                    0.0,
                    0.0,
                    0.1021949052810669,
                    0.3504900634288788
                ],
                "Weights": [
                    -0.8987622261047363,
                    0.7426102161407471,
                    -0.37457478046417239,
                    0.9172782897949219,
                    -0.5553200244903565,
                    -0.5816848278045654,
                    -0.5565719604492188,
                    -0.69600510597229,
                    0.7766449451446533,
                    0.9721732139587402,
                    0.9901001453399658,
                    0.8391265869140625,
                    0.3936764895915985,
                    0.41435810923576357,
                    0.650648832321167,
                    0.8225107192993164,
                    0.8536581993103027,
                    0.9751796722412109,
                    0.895531177520752,
                    0.05787813663482666,
                    -0.7844643592834473,
                    -0.4729713201522827,
                    -0.16308677196502686,
                    -0.9384195804595947,
                    0.41875597834587099,
                    0.38481661677360537,
                    -0.37341058254241946,
                    0.7831077575683594,
                    0.3557567298412323,
                    0.8673419952392578,
                    0.2382732629776001,
                    -0.9951303005218506
                ],
                "Bias": -0.9629619121551514
            },
            {
                "Value": 0.5399484038352966,
                "PreviousLayerNeuronValues": [
                    0.0,
                    0.0,
                    0.0,
                    0.0,
                    0.0,
                    0.0,
                    0.35886093974113467,
                    0.0,
                    0.02918851375579834,
                    0.8709304332733154,
                    0.0,
                    0.03603684902191162,
                    0.0,
                    0.0,
                    0.16490089893341065,
                    0.2109454870223999,
                    0.8939054012298584,
                    0.0,
                    0.7173421382904053,
                    0.12875592708587647,
                    0.0,
                    0.09284722805023194,
                    0.83931565284729,
                    0.0,
                    0.05542933940887451,
                    0.0,
                    0.0,
                    0.0,
                    0.0,
                    0.0,
                    0.1021949052810669,
                    0.3504900634288788
                ],
                "Weights": [
                    0.5785560607910156,
                    0.34334704279899599,
                    -0.515566349029541,
                    -0.031001687049865724,
                    -0.8636472225189209,
                    0.9289979934692383,
                    0.7158427238464356,
                    -0.4951375722885132,
                    0.8311793804168701,
                    0.3285476863384247,
                    0.9976131916046143,
                    0.37570807337760928,
                    0.5167498588562012,
                    -0.49975669384002688,
                    -0.3699599504470825,
                    0.3761434257030487,
                    0.15645229816436768,
                    -0.026691079139709474,
                    -0.06833446025848389,
                    -0.10664904117584229,
                    0.3504168689250946,
                    0.6846897602081299,
                    -0.6949410438537598,
                    0.3238331973552704,
                    -0.1611851453781128,
                    -0.1842421293258667,
                    0.7609333992004395,
                    -0.2970658540725708,
                    0.8003098964691162,
                    -0.6470160484313965,
                    0.09959542751312256,
                    -0.717029333114624
                ],
                "Bias": 0.25363418459892275
            },
            {
                "Value": 0.7401615977287293,
                "PreviousLayerNeuronValues": [
                    0.0,
                    0.0,
                    0.0,
                    0.0,
                    0.0,
                    0.0,
                    0.35886093974113467,
                    0.0,
                    0.02918851375579834,
                    0.8709304332733154,
                    0.0,
                    0.03603684902191162,
                    0.0,
                    0.0,
                    0.16490089893341065,
                    0.2109454870223999,
                    0.8939054012298584,
                    0.0,
                    0.7173421382904053,
                    0.12875592708587647,
                    0.0,
                    0.09284722805023194,
                    0.83931565284729,
                    0.0,
                    0.05542933940887451,
                    0.0,
                    0.0,
                    0.0,
                    0.0,
                    0.0,
                    0.1021949052810669,
                    0.3504900634288788
                ],
                "Weights": [
                    0.38675567507743838,
                    0.9225552082061768,
                    -0.2502495050430298,
                    0.6034915447235107,
                    -0.550278902053833,
                    -0.5332756042480469,
                    0.2201000452041626,
                    0.9040617942810059,
                    0.9616296291351318,
                    0.574199914932251,
                    0.33840271830558779,
                    -0.7303202152252197,
                    -0.7302687168121338,
                    -0.6720931529998779,
                    0.40335747599601748,
                    0.9361312389373779,
                    0.8679749965667725,
                    -0.1419280767440796,
                    0.7458698749542236,
                    0.7178549766540527,
                    -0.3002725839614868,
                    -0.44639313220977785,
                    -0.7979812622070313,
                    0.7317683696746826,
                    0.4666418731212616,
                    0.011208653450012207,
                    -0.23061978816986085,
                    0.8033583164215088,
                    -0.8955380916595459,
                    -0.5032069683074951,
                    -0.11659371852874756,
                    0.8210585117340088
                ],
                "Bias": -0.7918798923492432
            },
            {
                "Value": 0.7536221146583557,
                "PreviousLayerNeuronValues": [
                    0.0,
                    0.0,
                    0.0,
                    0.0,
                    0.0,
                    0.0,
                    0.35886093974113467,
                    0.0,
                    0.02918851375579834,
                    0.8709304332733154,
                    0.0,
                    0.03603684902191162,
                    0.0,
                    0.0,
                    0.16490089893341065,
                    0.2109454870223999,
                    0.8939054012298584,
                    0.0,
                    0.7173421382904053,
                    0.12875592708587647,
                    0.0,
                    0.09284722805023194,
                    0.83931565284729,
                    0.0,
                    0.05542933940887451,
                    0.0,
                    0.0,
                    0.0,
                    0.0,
                    0.0,
                    0.1021949052810669,
                    0.3504900634288788
                ],
                "Weights": [
                    0.5843791961669922,
                    0.9501800537109375,
                    -0.8184540271759033,
                    -0.38374435901641848,
                    -0.18792688846588136,
                    0.270921915769577,
                    -0.714996337890625,
                    0.057973504066467288,
                    -0.2869201898574829,
                    -0.3459268808364868,
                    -0.686704158782959,
                    0.08589470386505127,
                    -0.3478924036026001,
                    0.9221923351287842,
                    -0.19327223300933839,
                    -0.7566683292388916,
                    0.9295532703399658,
                    -0.5977737903594971,
                    0.5047464370727539,
                    0.40084025263786318,
                    0.823345422744751,
                    -0.9389810562133789,
                    -0.5366904735565186,
                    -0.967637300491333,
                    0.36510035395622256,
                    0.5306768417358398,
                    -0.49994194507598879,
                    0.3881649672985077,
                    -0.8080737590789795,
                    -0.8556313514709473,
                    -0.5777370929718018,
                    0.6043972969055176
                ],
                "Bias": 0.9926376342773438
            },
            {
                "Value": 0.6214389204978943,
                "PreviousLayerNeuronValues": [
                    0.0,
                    0.0,
                    0.0,
                    0.0,
                    0.0,
                    0.0,
                    0.35886093974113467,
                    0.0,
                    0.02918851375579834,
                    0.8709304332733154,
                    0.0,
                    0.03603684902191162,
                    0.0,
                    0.0,
                    0.16490089893341065,
                    0.2109454870223999,
                    0.8939054012298584,
                    0.0,
                    0.7173421382904053,
                    0.12875592708587647,
                    0.0,
                    0.09284722805023194,
                    0.83931565284729,
                    0.0,
                    0.05542933940887451,
                    0.0,
                    0.0,
                    0.0,
                    0.0,
                    0.0,
                    0.1021949052810669,
                    0.3504900634288788
                ],
                "Weights": [
                    -0.14144980907440186,
                    -0.7336864471435547,
                    0.9867846965789795,
                    0.4002234637737274,
                    0.9798777103424072,
                    -0.8958485126495361,
                    0.9308857917785645,
                    -0.3886665105819702,
                    -0.01105034351348877,
                    0.21725332736968995,
                    0.4377858340740204,
                    -0.8962926864624023,
                    -0.9292826652526856,
                    -0.330743670463562,
                    0.808666467666626,
                    0.5674130916595459,
                    -0.3987041711807251,
                    0.9598541259765625,
                    -0.15057599544525147,
                    0.3137650191783905,
                    0.12520372867584229,
                    -0.4671512842178345,
                    0.9633924961090088,
                    -0.6711719036102295,
                    0.4057326018810272,
                    -0.9672789573669434,
                    0.5912737846374512,
                    -0.3175314664840698,
                    -0.2485712766647339,
                    0.9230260848999023,
                    0.15608632564544679,
                    -0.6472048759460449
                ],
                "Bias": -0.40083110332489016
            },
            {
                "Value": 0.4686950743198395,
                "PreviousLayerNeuronValues": [
                    0.0,
                    0.0,
                    0.0,
                    0.0,
                    0.0,
                    0.0,
                    0.35886093974113467,
                    0.0,
                    0.02918851375579834,
                    0.8709304332733154,
                    0.0,
                    0.03603684902191162,
                    0.0,
                    0.0,
                    0.16490089893341065,
                    0.2109454870223999,
                    0.8939054012298584,
                    0.0,
                    0.7173421382904053,
                    0.12875592708587647,
                    0.0,
                    0.09284722805023194,
                    0.83931565284729,
                    0.0,
                    0.05542933940887451,
                    0.0,
                    0.0,
                    0.0,
                    0.0,
                    0.0,
                    0.1021949052810669,
                    0.3504900634288788
                ],
                "Weights": [
                    -0.4701894521713257,
                    -0.6930701732635498,
                    0.34566089510917666,
                    0.897526741027832,
                    -0.9499108791351318,
                    -0.2762337923049927,
                    0.1024237871170044,
                    0.11825406551361084,
                    0.4347047507762909,
                    -0.2679494619369507,
                    0.25134536623954775,
                    -0.31166279315948489,
                    -0.7809228897094727,
                    0.5933060646057129,
                    -0.22203099727630616,
                    -0.6769721508026123,
                    -0.30645716190338137,
                    0.09367620944976807,
                    0.9004330635070801,
                    -0.5383071899414063,
                    0.5126073360443115,
                    -0.5102956295013428,
                    -0.732487678527832,
                    -0.25100958347320559,
                    0.3885593116283417,
                    -0.2712618112564087,
                    -0.5679728984832764,
                    -0.3182135820388794,
                    -0.0474776029586792,
                    0.27065250277519228,
                    0.45914289355278017,
                    -0.4236189126968384
                ],
                "Bias": 0.6887037754058838
            },
            {
                "Value": 0.4475911557674408,
                "PreviousLayerNeuronValues": [
                    0.0,
                    0.0,
                    0.0,
                    0.0,
                    0.0,
                    0.0,
                    0.35886093974113467,
                    0.0,
                    0.02918851375579834,
                    0.8709304332733154,
                    0.0,
                    0.03603684902191162,
                    0.0,
                    0.0,
                    0.16490089893341065,
                    0.2109454870223999,
                    0.8939054012298584,
                    0.0,
                    0.7173421382904053,
                    0.12875592708587647,
                    0.0,
                    0.09284722805023194,
                    0.83931565284729,
                    0.0,
                    0.05542933940887451,
                    0.0,
                    0.0,
                    0.0,
                    0.0,
                    0.0,
                    0.1021949052810669,
                    0.3504900634288788
                ],
                "Weights": [
                    0.4044186770915985,
                    -0.4682825803756714,
                    -0.4574934244155884,
                    0.7191672325134277,
                    0.4430086314678192,
                    0.15755164623260499,
                    -0.6151046752929688,
                    -0.31512463092803957,
                    -0.11638081073760987,
                    0.984285831451416,
                    0.8652124404907227,
                    -0.820932149887085,
                    -0.2965437173843384,
                    0.08124172687530518,
                    0.515192985534668,
                    0.9279415607452393,
                    -0.8898744583129883,
                    -0.9378910064697266,
                    0.9530384540557861,
                    -0.39410507678985598,
                    0.505117654800415,
                    0.7927863597869873,
                    -0.8842732906341553,
                    -0.9924614429473877,
                    0.992706298828125,
                    -0.27921855449676516,
                    0.7666807174682617,
                    -0.5745692253112793,
                    0.7483162879943848,
                    0.08071386814117432,
                    0.27457234263420107,
                    -0.743720531463623
                ],
                "Bias": -0.08592545986175537
            },
            {
                "Value": 0.4258403480052948,
                "PreviousLayerNeuronValues": [
                    0.0,
                    0.0,
                    0.0,
                    0.0,
                    0.0,
                    0.0,
                    0.35886093974113467,
                    0.0,
                    0.02918851375579834,
                    0.8709304332733154,
                    0.0,
                    0.03603684902191162,
                    0.0,
                    0.0,
                    0.16490089893341065,
                    0.2109454870223999,
                    0.8939054012298584,
                    0.0,
                    0.7173421382904053,
                    0.12875592708587647,
                    0.0,
                    0.09284722805023194,
                    0.83931565284729,
                    0.0,
                    0.05542933940887451,
                    0.0,
                    0.0,
                    0.0,
                    0.0,
                    0.0,
                    0.1021949052810669,
                    0.3504900634288788
                ],
                "Weights": [
                    -0.711493968963623,
                    -0.4518827199935913,
                    0.8724589347839356,
                    -0.7675423622131348,
                    -0.7476415634155273,
                    0.3419189155101776,
                    -0.9833486080169678,
                    -0.7215309143066406,
                    0.5621929168701172,
                    -0.9262175559997559,
                    -0.8651151657104492,
                    -0.5396270751953125,
                    0.8831524848937988,
                    0.690485954284668,
                    0.35468026995658877,
                    0.8981971740722656,
                    0.3627729117870331,
                    -0.16056692600250245,
                    -0.5708000659942627,
                    -0.6188173294067383,
                    0.514868974685669,
                    -0.7414543628692627,
                    0.2846541106700897,
                    0.9298748970031738,
                    0.1638427972793579,
                    0.9297943115234375,
                    0.42010828852653506,
                    -0.4675379991531372,
                    0.29671165347099306,
                    -0.18835222721099854,
                    -0.4974406957626343,
                    -0.7290847301483154
                ],
                "Bias": 0.9078617095947266
            },
            {
                "Value": 0.8778924942016602,
                "PreviousLayerNeuronValues": [
                    0.0,
                    0.0,
                    0.0,
                    0.0,
                    0.0,
                    0.0,
                    0.35886093974113467,
                    0.0,
                    0.02918851375579834,
                    0.8709304332733154,
                    0.0,
                    0.03603684902191162,
                    0.0,
                    0.0,
                    0.16490089893341065,
                    0.2109454870223999,
                    0.8939054012298584,
                    0.0,
                    0.7173421382904053,
                    0.12875592708587647,
                    0.0,
                    0.09284722805023194,
                    0.83931565284729,
                    0.0,
                    0.05542933940887451,
                    0.0,
                    0.0,
                    0.0,
                    0.0,
                    0.0,
                    0.1021949052810669,
                    0.3504900634288788
                ],
                "Weights": [
                    -0.6708803176879883,
                    0.9011800289154053,
                    0.3854994475841522,
                    0.9637176990509033,
                    0.2940618693828583,
                    -0.7099897861480713,
                    0.893834114074707,
                    -0.5094504356384277,
                    0.8551197052001953,
                    0.7640988826751709,
                    0.1737881898880005,
                    0.47803351283073428,
                    -0.4424513578414917,
                    0.6154813766479492,
                    0.6964092254638672,
                    0.12228882312774658,
                    -0.653120756149292,
                    0.7784595489501953,
                    0.3597833812236786,
                    -0.4037564992904663,
                    -0.8400709629058838,
                    0.3458397090435028,
                    0.8870983123779297,
                    0.8647265434265137,
                    -0.2470914125442505,
                    -0.8869647979736328,
                    -0.9129014015197754,
                    -0.6337692737579346,
                    -0.6538605690002441,
                    0.16506588459014893,
                    -0.7855198383331299,
                    -0.7836785316467285
                ],
                "Bias": 0.7732663154602051
            },
            {
                "Value": 0.8902616500854492,
                "PreviousLayerNeuronValues": [
                    0.0,
                    0.0,
                    0.0,
                    0.0,
                    0.0,
                    0.0,
                    0.35886093974113467,
                    0.0,
                    0.02918851375579834,
                    0.8709304332733154,
                    0.0,
                    0.03603684902191162,
                    0.0,
                    0.0,
                    0.16490089893341065,
                    0.2109454870223999,
                    0.8939054012298584,
                    0.0,
                    0.7173421382904053,
                    0.12875592708587647,
                    0.0,
                    0.09284722805023194,
                    0.83931565284729,
                    0.0,
                    0.05542933940887451,
                    0.0,
                    0.0,
                    0.0,
                    0.0,
                    0.0,
                    0.1021949052810669,
                    0.3504900634288788
                ],
                "Weights": [
                    -0.8416118621826172,
                    -0.9044210910797119,
                    -0.7937893867492676,
                    0.5759613513946533,
                    0.7363312244415283,
                    -0.2586315870285034,
                    -0.9744429588317871,
                    -0.8669707775115967,
                    -0.365179181098938,
                    0.8718500137329102,
                    0.1047292947769165,
                    -0.13565552234649659,
                    -0.18900930881500245,
                    -0.6999619007110596,
                    0.2545871436595917,
                    -0.5547084808349609,
                    0.6830308437347412,
                    -0.34371840953826907,
                    0.724816083908081,
                    0.307491272687912,
                    -0.7120890617370606,
                    0.5309762954711914,
                    -0.3839012384414673,
                    -0.5847892761230469,
                    0.7901296615600586,
                    -0.5414690971374512,
                    -0.52799391746521,
                    -0.35565197467803957,
                    -0.11542904376983643,
                    -0.4140268564224243,
                    -0.5646548271179199,
                    0.45033594965934756
                ],
                "Bias": 0.7332522869110107
            },
            {
                "Value": 0.3126713037490845,
                "PreviousLayerNeuronValues": [
                    0.0,
                    0.0,
                    0.0,
                    0.0,
                    0.0,
                    0.0,
                    0.35886093974113467,
                    0.0,
                    0.02918851375579834,
                    0.8709304332733154,
                    0.0,
                    0.03603684902191162,
                    0.0,
                    0.0,
                    0.16490089893341065,
                    0.2109454870223999,
                    0.8939054012298584,
                    0.0,
                    0.7173421382904053,
                    0.12875592708587647,
                    0.0,
                    0.09284722805023194,
                    0.83931565284729,
                    0.0,
                    0.05542933940887451,
                    0.0,
                    0.0,
                    0.0,
                    0.0,
                    0.0,
                    0.1021949052810669,
                    0.3504900634288788
                ],
                "Weights": [
                    -0.7512023448944092,
                    0.14641320705413819,
                    -0.7706689834594727,
                    0.8840746879577637,
                    -0.353169322013855,
                    -0.380623459815979,
                    0.06370151042938233,
                    0.4255032241344452,
                    -0.2708081007003784,
                    -0.4712904691696167,
                    0.3191852271556854,
                    0.05095875263214111,
                    0.9874098300933838,
                    0.6622369289398193,
                    0.313003271818161,
                    -0.37048494815826418,
                    0.4341132342815399,
                    -0.7820868492126465,
                    0.017092347145080568,
                    -0.16584455966949464,
                    -0.42704617977142336,
                    -0.3665968179702759,
                    -0.9249541759490967,
                    -0.08712446689605713,
                    0.39856740832328799,
                    0.2977716624736786,
                    -0.5650203227996826,
                    -0.7960796356201172,
                    -0.7607698440551758,
                    0.3890850245952606,
                    0.5259561538696289,
                    0.7126879692077637
                ],
                "Bias": -0.2616833448410034
            },
            {
                "Value": 0.8096030354499817,
                "PreviousLayerNeuronValues": [
                    0.0,
                    0.0,
                    0.0,
                    0.0,
                    0.0,
                    0.0,
                    0.35886093974113467,
                    0.0,
                    0.02918851375579834,
                    0.8709304332733154,
                    0.0,
                    0.03603684902191162,
                    0.0,
                    0.0,
                    0.16490089893341065,
                    0.2109454870223999,
                    0.8939054012298584,
                    0.0,
                    0.7173421382904053,
                    0.12875592708587647,
                    0.0,
                    0.09284722805023194,
                    0.83931565284729,
                    0.0,
                    0.05542933940887451,
                    0.0,
                    0.0,
                    0.0,
                    0.0,
                    0.0,
                    0.1021949052810669,
                    0.3504900634288788
                ],
                "Weights": [
                    -0.04698836803436279,
                    -0.13392102718353272,
                    -0.6310696601867676,
                    -0.19043362140655518,
                    -0.7222929000854492,
                    0.4271189868450165,
                    -0.6740140914916992,
                    0.14296185970306397,
                    -0.5948472023010254,
                    0.07141053676605225,
                    0.46907684206962588,
                    -0.2105480432510376,
                    -0.4274080991744995,
                    0.28203198313713076,
                    -0.4032026529312134,
                    0.32340285181999209,
                    0.6139683723449707,
                    0.5956158638000488,
                    0.4364010989665985,
                    0.6410965919494629,
                    -0.9146382808685303,
                    0.9057354927062988,
                    0.379313200712204,
                    0.9662859439849854,
                    -0.7570478916168213,
                    -0.941753625869751,
                    -0.010443568229675293,
                    0.8025331497192383,
                    0.08674085140228272,
                    0.5163412094116211,
                    -0.07833468914031983,
                    -0.9425528049468994
                ],
