{
    "HiddenLayers": [
        {
            "HiddenNeurons": [
                {
                    "Value": 4.408360004425049,
                    "PreviousLayerNeuronValues": [
                        0.31310054659843447,
                        0.8969924449920654,
                        -0.1345592737197876,
                        -0.2892390489578247,
                        0.5668008327484131,
                        0.2826938331127167,
                        0.0822373628616333,
                        0.6752591133117676,
                        0.20405089855194093,
                        0.7007021903991699,
                        0.965531587600708,
                        0.9084022045135498,
                        0.39533016085624697,
                        -0.4943753480911255,
                        -0.6324665546417236,
                        -0.7537844181060791,
                        0.15754377841949464,
                        0.5101852416992188,
                        -0.5101046562194824,
                        0.5059092044830322
                    ],
                    "Weights": [
                        -0.4055832624435425,
                        0.6803205013275147,
                        -0.8979692459106445,
                        0.11028563976287842,
                        -0.881904125213623,
                        0.886742115020752,
                        0.19588148593902589,
                        0.3893704116344452,
                        -0.10906565189361572,
                        0.7366087436676025,
                        0.6521210670471191,
                        0.7077488899230957,
                        0.5898532867431641,
                        -0.3215903043746948,
                        -0.726513147354126,
                        -0.19711101055145265,
                        -0.5635590553283691,
                        0.3280777633190155,
                        -0.6074860095977783,
                        0.5399775505065918
                    ],
                    "Bias": 0.3779713809490204
                },
                {
                    "Value": 0.32747191190719607,
                    "PreviousLayerNeuronValues": [
                        0.31310054659843447,
                        0.8969924449920654,
                        -0.1345592737197876,
                        -0.2892390489578247,
                        0.5668008327484131,
                        0.2826938331127167,
                        0.0822373628616333,
                        0.6752591133117676,
                        0.20405089855194093,
                        0.7007021903991699,
                        0.965531587600708,
                        0.9084022045135498,
                        0.39533016085624697,
                        -0.4943753480911255,
                        -0.6324665546417236,
                        -0.7537844181060791,
                        0.15754377841949464,
                        0.5101852416992188,
                        -0.5101046562194824,
                        0.5059092044830322
                    ],
                    "Weights": [
                        0.5809357166290283,
                        -0.2772935628890991,
                        -0.5292179584503174,
                        0.6207318305969238,
                        -0.26736629009246828,
                        -0.43733012676239016,
                        -0.17272722721099854,
                        0.7408628463745117,
                        -0.48455941677093508,
                        -0.5466454029083252,
                        -0.17070281505584718,
                        -0.18728339672088624,
                        0.14648711681365968,
                        -0.7436606884002686,
                        -0.3371506929397583,
                        -0.49014604091644289,
                        -0.5808978080749512,
                        0.3359043300151825,
                        -0.11416947841644287,
                        0.0028842687606811525
                    ],
                    "Bias": -0.03921163082122803
                },
                {
                    "Value": 0.0,
                    "PreviousLayerNeuronValues": [
                        0.31310054659843447,
                        0.8969924449920654,
                        -0.1345592737197876,
                        -0.2892390489578247,
                        0.5668008327484131,
                        0.2826938331127167,
                        0.0822373628616333,
                        0.6752591133117676,
                        0.20405089855194093,
                        0.7007021903991699,
                        0.965531587600708,
                        0.9084022045135498,
                        0.39533016085624697,
                        -0.4943753480911255,
                        -0.6324665546417236,
                        -0.7537844181060791,
                        0.15754377841949464,
                        0.5101852416992188,
                        -0.5101046562194824,
                        0.5059092044830322
                    ],
                    "Weights": [
                        0.9392294883728027,
                        0.6408460140228272,
                        0.5405051708221436,
                        -0.5661444664001465,
                        0.1477583646774292,
                        0.9746887683868408,
                        -0.7781484127044678,
                        0.9063324928283691,
                        -0.9703402519226074,
                        -0.5767955780029297,
                        0.011659502983093262,
                        -0.5074253082275391,
                        0.3335523307323456,
                        -0.03699982166290283,
                        0.10231292247772217,
                        0.975416898727417,
                        0.17914044857025147,
                        0.08795678615570069,
                        0.09924829006195069,
                        -0.43066465854644778
                    ],
                    "Bias": -0.286004900932312
                },
                {
                    "Value": 0.0,
                    "PreviousLayerNeuronValues": [
                        0.31310054659843447,
                        0.8969924449920654,
                        -0.1345592737197876,
                        -0.2892390489578247,
                        0.5668008327484131,
                        0.2826938331127167,
                        0.0822373628616333,
                        0.6752591133117676,
                        0.20405089855194093,
                        0.7007021903991699,
                        0.965531587600708,
                        0.9084022045135498,
                        0.39533016085624697,
                        -0.4943753480911255,
                        -0.6324665546417236,
                        -0.7537844181060791,
                        0.15754377841949464,
                        0.5101852416992188,
                        -0.5101046562194824,
                        0.5059092044830322
                    ],
                    "Weights": [
                        0.2720048129558563,
                        0.21904289722442628,
                        0.8799536228179932,
                        -0.5530753135681152,
                        -0.8774032592773438,
                        -0.6975786685943604,
                        0.02610480785369873,
                        0.2848655879497528,
                        -0.6132867336273193,
                        -0.7915573120117188,
                        0.8347795009613037,
                        0.408495157957077,
                        0.08944571018218994,
                        0.8491599559783936,
                        0.1422501802444458,
                        0.14184629917144776,
                        -0.0013047456741333008,
                        0.696774959564209,
                        0.12669503688812257,
                        0.5934672355651856
                    ],
                    "Bias": -0.9135830402374268
                },
                {
                    "Value": 0.0,
                    "PreviousLayerNeuronValues": [
                        0.31310054659843447,
                        0.8969924449920654,
                        -0.1345592737197876,
                        -0.2892390489578247,
                        0.5668008327484131,
                        0.2826938331127167,
                        0.0822373628616333,
                        0.6752591133117676,
                        0.20405089855194093,
                        0.7007021903991699,
                        0.965531587600708,
                        0.9084022045135498,
                        0.39533016085624697,
                        -0.4943753480911255,
                        -0.6324665546417236,
                        -0.7537844181060791,
                        0.15754377841949464,
                        0.5101852416992188,
                        -0.5101046562194824,
                        0.5059092044830322
                    ],
                    "Weights": [
                        -0.39944684505462649,
                        0.44243714213371279,
                        -0.4221607446670532,
                        0.2578599154949188,
                        -0.29659974575042727,
                        0.6732053756713867,
                        -0.8421852588653565,
                        -0.25015556812286379,
                        -0.594961404800415,
                        0.22653710842132569,
                        -0.8017404079437256,
                        -0.7338540554046631,
                        -0.013271450996398926,
                        0.8415522575378418,
                        -0.7474124431610107,
                        -0.5826470851898193,
                        0.6465790271759033,
                        -0.6734027862548828,
                        0.07347738742828369,
                        0.647331714630127
                    ],
                    "Bias": 0.7907884120941162
                },
                {
                    "Value": 0.0,
                    "PreviousLayerNeuronValues": [
                        0.31310054659843447,
                        0.8969924449920654,
                        -0.1345592737197876,
                        -0.2892390489578247,
                        0.5668008327484131,
                        0.2826938331127167,
                        0.0822373628616333,
                        0.6752591133117676,
                        0.20405089855194093,
                        0.7007021903991699,
                        0.965531587600708,
                        0.9084022045135498,
                        0.39533016085624697,
                        -0.4943753480911255,
                        -0.6324665546417236,
                        -0.7537844181060791,
                        0.15754377841949464,
                        0.5101852416992188,
                        -0.5101046562194824,
                        0.5059092044830322
                    ],
                    "Weights": [
                        -0.6794812679290772,
                        -0.590294599533081,
                        -0.02613508701324463,
                        -0.28297626972198489,
                        0.3200530707836151,
                        0.46727749705314639,
                        -0.3141542673110962,
                        0.30646035075187685,
                        -0.36644113063812258,
                        -0.45375239849090578,
                        -0.4815744161605835,
                        -0.5266878604888916,
                        0.8959231376647949,
                        0.5381186008453369,
                        -0.3497856855392456,
                        -0.609687089920044,
                        -0.07649505138397217,
                        0.9492294788360596,
                        0.10866296291351319,
                        -0.9395649433135986
                    ],
                    "Bias": -0.6779742240905762
                },
                {
                    "Value": 0.3030043840408325,
                    "PreviousLayerNeuronValues": [
                        0.31310054659843447,
                        0.8969924449920654,
                        -0.1345592737197876,
                        -0.2892390489578247,
                        0.5668008327484131,
                        0.2826938331127167,
                        0.0822373628616333,
                        0.6752591133117676,
                        0.20405089855194093,
                        0.7007021903991699,
                        0.965531587600708,
                        0.9084022045135498,
                        0.39533016085624697,
                        -0.4943753480911255,
                        -0.6324665546417236,
                        -0.7537844181060791,
                        0.15754377841949464,
                        0.5101852416992188,
                        -0.5101046562194824,
                        0.5059092044830322
                    ],
                    "Weights": [
                        -0.7524044513702393,
                        -0.37565505504608157,
                        -0.09291589260101319,
                        0.5461475849151611,
                        -0.09889876842498779,
                        -0.3453928232192993,
                        0.5611803531646729,
                        0.36682412028312685,
                        -0.755990743637085,
                        -0.284246563911438,
                        0.798797607421875,
                        0.1277235746383667,
                        0.7271342277526856,
                        0.042783379554748538,
                        -0.4245563745498657,
                        -0.9497735500335693,
                        0.4829108417034149,
                        -0.658869743347168,
                        -0.4606674909591675,
                        -0.7225551605224609
                    ],
                    "Bias": -0.5131285190582275
                },
                {
                    "Value": 0.8919772505760193,
                    "PreviousLayerNeuronValues": [
                        0.31310054659843447,
                        0.8969924449920654,
                        -0.1345592737197876,
                        -0.2892390489578247,
                        0.5668008327484131,
                        0.2826938331127167,
                        0.0822373628616333,
                        0.6752591133117676,
                        0.20405089855194093,
                        0.7007021903991699,
                        0.965531587600708,
                        0.9084022045135498,
                        0.39533016085624697,
                        -0.4943753480911255,
                        -0.6324665546417236,
                        -0.7537844181060791,
                        0.15754377841949464,
                        0.5101852416992188,
                        -0.5101046562194824,
                        0.5059092044830322
                    ],
                    "Weights": [
                        -0.9142374992370606,
                        -0.3436323404312134,
                        -0.9208817481994629,
                        -0.8543534278869629,
                        0.07442843914031983,
                        -0.6623716354370117,
                        -0.2857609987258911,
                        -0.010619759559631348,
                        -0.4348856210708618,
                        0.35631033778190615,
                        -0.753105878829956,
                        0.9083864688873291,
                        0.2082136869430542,
                        -0.5327956676483154,
                        -0.520435094833374,
                        0.7173593044281006,
                        0.329027384519577,
                        0.9950006008148193,
                        -0.6861138343811035,
                        0.11541664600372315
                    ],
                    "Bias": -0.06978094577789307
                },
                {
                    "Value": 0.3454364538192749,
                    "PreviousLayerNeuronValues": [
                        0.31310054659843447,
                        0.8969924449920654,
                        -0.1345592737197876,
                        -0.2892390489578247,
                        0.5668008327484131,
                        0.2826938331127167,
                        0.0822373628616333,
                        0.6752591133117676,
                        0.20405089855194093,
                        0.7007021903991699,
                        0.965531587600708,
                        0.9084022045135498,
                        0.39533016085624697,
                        -0.4943753480911255,
                        -0.6324665546417236,
                        -0.7537844181060791,
                        0.15754377841949464,
                        0.5101852416992188,
                        -0.5101046562194824,
                        0.5059092044830322
                    ],
                    "Weights": [
                        -0.05337202548980713,
                        -0.17872679233551026,
                        -0.4801133871078491,
                        -0.4592350721359253,
                        0.9996051788330078,
                        -0.7147281169891357,
                        0.29063984751701357,
                        -0.948958158493042,
                        -0.08249938488006592,
                        0.567617654800415,
                        0.7964682579040527,
                        0.9249434471130371,
                        0.7305417060852051,
                        0.2054978609085083,
                        -0.6985869407653809,
                        0.9092066287994385,
                        0.49263784289360049,
                        -0.47884881496429446,
                        0.7666573524475098,
                        0.2858087718486786
                    ],
                    "Bias": -0.943265438079834
                },
                {
                    "Value": 0.0,
                    "PreviousLayerNeuronValues": [
                        0.31310054659843447,
                        0.8969924449920654,
                        -0.1345592737197876,
                        -0.2892390489578247,
                        0.5668008327484131,
                        0.2826938331127167,
                        0.0822373628616333,
                        0.6752591133117676,
                        0.20405089855194093,
                        0.7007021903991699,
                        0.965531587600708,
                        0.9084022045135498,
                        0.39533016085624697,
                        -0.4943753480911255,
                        -0.6324665546417236,
                        -0.7537844181060791,
                        0.15754377841949464,
                        0.5101852416992188,
                        -0.5101046562194824,
                        0.5059092044830322
                    ],
                    "Weights": [
                        -0.22946226596832276,
                        -0.6957824230194092,
                        -0.9974894523620606,
                        -0.4798663854598999,
                        0.70754075050354,
                        -0.8897936344146729,
                        0.9286127090454102,
                        -0.9269227981567383,
                        -0.41322052478790285,
                        -0.35905778408050539,
                        -0.7440593242645264,
                        -0.4795795679092407,
                        -0.21440589427947999,
                        0.645399808883667,
                        0.2896988093852997,
                        0.7506616115570068,
                        0.19896423816680909,
                        0.5033338069915772,
                        -0.33102715015411379,
                        -0.43212568759918215
                    ],
                    "Bias": 0.20024144649505616
                },
                {
                    "Value": 0.0,
                    "PreviousLayerNeuronValues": [
                        0.31310054659843447,
                        0.8969924449920654,
                        -0.1345592737197876,
                        -0.2892390489578247,
                        0.5668008327484131,
                        0.2826938331127167,
                        0.0822373628616333,
                        0.6752591133117676,
                        0.20405089855194093,
                        0.7007021903991699,
                        0.965531587600708,
                        0.9084022045135498,
                        0.39533016085624697,
                        -0.4943753480911255,
                        -0.6324665546417236,
                        -0.7537844181060791,
                        0.15754377841949464,
                        0.5101852416992188,
                        -0.5101046562194824,
                        0.5059092044830322
                    ],
                    "Weights": [
                        -0.2052708864212036,
                        -0.2857099771499634,
                        -0.4463456869125366,
                        -0.04018962383270264,
                        0.6215314865112305,
                        -0.02192223072052002,
                        -0.0898669958114624,
                        -0.7375805377960205,
                        0.7205760478973389,
                        -0.0006057024002075195,
                        -0.3295091390609741,
                        -0.5206699371337891,
                        -0.15024292469024659,
                        -0.15590107440948487,
                        -0.46802961826324465,
                        0.9928693771362305,
                        -0.5541644096374512,
                        0.21452248096466065,
                        -0.26315391063690188,
                        0.2941415011882782
                    ],
                    "Bias": -0.7574193477630615
                },
                {
                    "Value": 2.608410596847534,
                    "PreviousLayerNeuronValues": [
                        0.31310054659843447,
                        0.8969924449920654,
                        -0.1345592737197876,
                        -0.2892390489578247,
                        0.5668008327484131,
                        0.2826938331127167,
                        0.0822373628616333,
                        0.6752591133117676,
                        0.20405089855194093,
                        0.7007021903991699,
                        0.965531587600708,
                        0.9084022045135498,
                        0.39533016085624697,
                        -0.4943753480911255,
                        -0.6324665546417236,
                        -0.7537844181060791,
                        0.15754377841949464,
                        0.5101852416992188,
                        -0.5101046562194824,
                        0.5059092044830322
                    ],
                    "Weights": [
                        0.26964613795280459,
                        0.7730047702789307,
                        0.04422104358673096,
                        0.648301362991333,
                        -0.7361016273498535,
                        0.20216834545135499,
                        -0.414894700050354,
                        0.6128749847412109,
                        0.07706296443939209,
                        -0.26829206943511965,
                        0.9747259616851807,
                        0.5523507595062256,
                        0.3016059100627899,
                        -0.33593785762786868,
                        0.18963754177093507,
                        -0.3050183057785034,
                        0.45503470301628115,
                        0.9186985492706299,
                        0.898705244064331,
                        -0.5822553634643555
                    ],
                    "Bias": 0.5511090755462647
                },
                {
                    "Value": 0.0,
                    "PreviousLayerNeuronValues": [
                        0.31310054659843447,
                        0.8969924449920654,
                        -0.1345592737197876,
                        -0.2892390489578247,
                        0.5668008327484131,
                        0.2826938331127167,
                        0.0822373628616333,
                        0.6752591133117676,
                        0.20405089855194093,
                        0.7007021903991699,
                        0.965531587600708,
                        0.9084022045135498,
                        0.39533016085624697,
                        -0.4943753480911255,
                        -0.6324665546417236,
                        -0.7537844181060791,
                        0.15754377841949464,
                        0.5101852416992188,
                        -0.5101046562194824,
                        0.5059092044830322
                    ],
                    "Weights": [
                        0.32086440920829775,
                        0.2787747085094452,
                        0.8237507343292236,
                        0.7698037624359131,
                        -0.7875375747680664,
                        0.7837269306182861,
                        -0.3827434778213501,
                        0.8386309146881104,
                        -0.10905897617340088,
                        0.5185818672180176,
                        0.7432410717010498,
                        0.15986740589141847,
                        -0.8709273338317871,
                        -0.6314380168914795,
                        0.420105904340744,
                        0.9841310977935791,
                        -0.6414871215820313,
                        0.06156885623931885,
                        -0.17505419254302979,
                        -0.816584587097168
                    ],
                    "Bias": -0.8942139148712158
                },
                {
                    "Value": 0.0,
                    "PreviousLayerNeuronValues": [
                        0.31310054659843447,
                        0.8969924449920654,
                        -0.1345592737197876,
                        -0.2892390489578247,
                        0.5668008327484131,
                        0.2826938331127167,
                        0.0822373628616333,
                        0.6752591133117676,
                        0.20405089855194093,
                        0.7007021903991699,
                        0.965531587600708,
                        0.9084022045135498,
                        0.39533016085624697,
                        -0.4943753480911255,
                        -0.6324665546417236,
                        -0.7537844181060791,
                        0.15754377841949464,
                        0.5101852416992188,
                        -0.5101046562194824,
                        0.5059092044830322
                    ],
                    "Weights": [
                        -0.8436751365661621,
                        -0.3758147954940796,
                        0.38376161456108096,
                        -0.6798520088195801,
                        0.37813588976860049,
                        -0.8072376251220703,
                        -0.3503004312515259,
                        0.2879783809185028,
                        -0.10894334316253662,
                        0.6504433155059815,
                        -0.3866368532180786,
                        -0.5563111305236816,
                        0.8579959869384766,
                        -0.5888018608093262,
                        -0.9754543304443359,
                        0.030356526374816896,
                        -0.18735754489898683,
                        -0.861868143081665,
                        0.4769696891307831,
                        -0.3774808645248413
                    ],
                    "Bias": 0.31776973605155947
                },
                {
                    "Value": 1.2957966327667237,
                    "PreviousLayerNeuronValues": [
                        0.31310054659843447,
                        0.8969924449920654,
                        -0.1345592737197876,
                        -0.2892390489578247,
                        0.5668008327484131,
                        0.2826938331127167,
                        0.0822373628616333,
                        0.6752591133117676,
                        0.20405089855194093,
                        0.7007021903991699,
                        0.965531587600708,
                        0.9084022045135498,
                        0.39533016085624697,
                        -0.4943753480911255,
                        -0.6324665546417236,
                        -0.7537844181060791,
                        0.15754377841949464,
                        0.5101852416992188,
                        -0.5101046562194824,
                        0.5059092044830322
                    ],
                    "Weights": [
                        0.8837747573852539,
                        0.917865514755249,
                        0.8543615341186523,
                        0.12833082675933839,
                        0.7064955234527588,
                        -0.02507340908050537,
                        -0.803257942199707,
                        0.8481404781341553,
                        -0.2588900327682495,
                        0.8129496574401856,
                        -0.20571529865264893,
                        0.4086398780345917,
                        0.544715404510498,
                        0.47520944476127627,
                        0.8408420085906982,
                        0.08791625499725342,
                        -0.20967543125152589,
                        0.06676900386810303,
                        -0.03575789928436279,
                        -0.421026349067688
                    ],
                    "Bias": -0.43016302585601809
                },
                {
                    "Value": 0.0,
                    "PreviousLayerNeuronValues": [
                        0.31310054659843447,
                        0.8969924449920654,
                        -0.1345592737197876,
                        -0.2892390489578247,
                        0.5668008327484131,
                        0.2826938331127167,
                        0.0822373628616333,
                        0.6752591133117676,
                        0.20405089855194093,
                        0.7007021903991699,
                        0.965531587600708,
                        0.9084022045135498,
                        0.39533016085624697,
                        -0.4943753480911255,
                        -0.6324665546417236,
                        -0.7537844181060791,
                        0.15754377841949464,
                        0.5101852416992188,
                        -0.5101046562194824,
                        0.5059092044830322
                    ],
                    "Weights": [
                        -0.8475127220153809,
                        -0.9631085395812988,
                        0.31493279337882998,
                        -0.24085533618927003,
                        -0.9748930931091309,
                        -0.7301905155181885,
                        -0.4083789587020874,
                        0.02012336254119873,
                        0.03622758388519287,
                        0.38837096095085146,
                        0.011596322059631348,
                        0.11700141429901123,
                        0.03944981098175049,
                        0.7930541038513184,
                        0.9249076843261719,
                        0.13885891437530518,
                        0.23936855792999268,
                        0.8014800548553467,
                        -0.3453298807144165,
                        0.3800308406352997
                    ],
                    "Bias": 0.7862095832824707
                },
                {
                    "Value": 0.0,
                    "PreviousLayerNeuronValues": [
                        0.31310054659843447,
                        0.8969924449920654,
                        -0.1345592737197876,
                        -0.2892390489578247,
                        0.5668008327484131,
                        0.2826938331127167,
                        0.0822373628616333,
                        0.6752591133117676,
                        0.20405089855194093,
                        0.7007021903991699,
                        0.965531587600708,
                        0.9084022045135498,
                        0.39533016085624697,
                        -0.4943753480911255,
                        -0.6324665546417236,
                        -0.7537844181060791,
                        0.15754377841949464,
                        0.5101852416992188,
                        -0.5101046562194824,
                        0.5059092044830322
                    ],
                    "Weights": [
                        -0.6769635677337647,
                        -0.08324253559112549,
                        0.6613831520080566,
                        -0.20464813709259034,
                        -0.5837328433990479,
                        0.49063703417778017,
                        -0.6367871761322022,
                        0.9066126346588135,
                        -0.04773056507110596,
                        -0.5682933330535889,
                        0.8654496669769287,
                        -0.4898580312728882,
                        0.4175710380077362,
                        0.8554601669311523,
                        0.12574946880340577,
                        -0.23471319675445558,
                        0.273849219083786,
                        0.8513069152832031,
                        0.3038649260997772,
                        -0.7291567325592041
                    ],
                    "Bias": -0.26042115688323977
                },
                {
                    "Value": 0.0,
                    "PreviousLayerNeuronValues": [
                        0.31310054659843447,
                        0.8969924449920654,
                        -0.1345592737197876,
                        -0.2892390489578247,
                        0.5668008327484131,
                        0.2826938331127167,
                        0.0822373628616333,
                        0.6752591133117676,
                        0.20405089855194093,
                        0.7007021903991699,
                        0.965531587600708,
                        0.9084022045135498,
                        0.39533016085624697,
                        -0.4943753480911255,
                        -0.6324665546417236,
                        -0.7537844181060791,
                        0.15754377841949464,
                        0.5101852416992188,
                        -0.5101046562194824,
                        0.5059092044830322
                    ],
                    "Weights": [
                        0.21039879322052003,
                        0.6168246269226074,
                        -0.986292839050293,
                        0.7845699787139893,
                        -0.33805692195892336,
                        -0.7974979877471924,
                        0.8778481483459473,
                        -0.36862480640411379,
                        -0.6509490013122559,
                        0.7318062782287598,
                        0.7456810474395752,
                        -0.5749385356903076,
                        -0.31988203525543215,
                        0.5671453475952148,
                        0.18296945095062257,
                        0.055962204933166507,
                        0.8668098449707031,
                        -0.4299064874649048,
                        0.5007293224334717,
                        0.3506164252758026
                    ],
                    "Bias": -0.03362739086151123
                },
                {
                    "Value": 0.5667599439620972,
                    "PreviousLayerNeuronValues": [
                        0.31310054659843447,
                        0.8969924449920654,
                        -0.1345592737197876,
                        -0.2892390489578247,
                        0.5668008327484131,
                        0.2826938331127167,
                        0.0822373628616333,
                        0.6752591133117676,
                        0.20405089855194093,
                        0.7007021903991699,
                        0.965531587600708,
                        0.9084022045135498,
                        0.39533016085624697,
                        -0.4943753480911255,
                        -0.6324665546417236,
                        -0.7537844181060791,
                        0.15754377841949464,
                        0.5101852416992188,
                        -0.5101046562194824,
                        0.5059092044830322
                    ],
                    "Weights": [
                        0.6114277839660645,
                        0.11899268627166748,
                        0.6931066513061523,
                        0.6339733600616455,
                        -0.10383450984954834,
                        -0.1957167387008667,
                        -0.9960229396820068,
                        -0.4045616388320923,
                        -0.34192121028900149,
                        0.016814589500427247,
                        0.056557297706604007,
                        0.37077900767326357,
                        0.9728970527648926,
                        -0.9385607242584229,
                        -0.7842626571655273,
                        0.9181156158447266,
                        0.22617089748382569,
                        -0.39822709560394289,
                        -0.8663532733917236,
                        0.8923571109771729
                    ],
                    "Bias": -0.697361946105957
                },
                {
                    "Value": 0.18266212940216065,
                    "PreviousLayerNeuronValues": [
                        0.31310054659843447,
                        0.8969924449920654,
                        -0.1345592737197876,
                        -0.2892390489578247,
                        0.5668008327484131,
                        0.2826938331127167,
                        0.0822373628616333,
                        0.6752591133117676,
                        0.20405089855194093,
                        0.7007021903991699,
                        0.965531587600708,
                        0.9084022045135498,
                        0.39533016085624697,
                        -0.4943753480911255,
                        -0.6324665546417236,
                        -0.7537844181060791,
                        0.15754377841949464,
                        0.5101852416992188,
                        -0.5101046562194824,
                        0.5059092044830322
                    ],
                    "Weights": [
                        -0.5168247222900391,
                        0.715233564376831,
                        0.8325550556182861,
                        -0.2960168123245239,
                        -0.18251574039459229,
                        -0.9876413345336914,
                        -0.5450918674468994,
                        -0.6456351280212402,
                        0.3444976508617401,
                        -0.2043980360031128,
                        -0.1922551393508911,
                        -0.18554651737213136,
                        -0.9691135883331299,
                        0.8800935745239258,
                        -0.14149701595306397,
                        -0.2814983129501343,
                        0.9850935935974121,
                        0.010774016380310059,
                        -0.002804398536682129,
                        0.9792196750640869
                    ],
                    "Bias": 0.8789002895355225
                },
                {
                    "Value": 2.737922191619873,
                    "PreviousLayerNeuronValues": [
                        0.31310054659843447,
                        0.8969924449920654,
                        -0.1345592737197876,
                        -0.2892390489578247,
                        0.5668008327484131,
                        0.2826938331127167,
                        0.0822373628616333,
                        0.6752591133117676,
                        0.20405089855194093,
                        0.7007021903991699,
                        0.965531587600708,
                        0.9084022045135498,
                        0.39533016085624697,
                        -0.4943753480911255,
                        -0.6324665546417236,
                        -0.7537844181060791,
                        0.15754377841949464,
                        0.5101852416992188,
                        -0.5101046562194824,
                        0.5059092044830322
                    ],
                    "Weights": [
                        -0.07998192310333252,
                        -0.29745376110076907,
                        -0.7620570659637451,
                        -0.5835433006286621,
                        -0.2656773328781128,
                        -0.04450881481170654,
                        0.8348932266235352,
                        0.9491558074951172,
                        -0.4819897413253784,
                        -0.16830313205718995,
                        0.9822773933410645,
                        0.38738080859184267,
                        -0.8303549289703369,
                        -0.5049653053283691,
                        0.7334001064300537,
                        -0.5087704658508301,
                        0.6685330867767334,
                        0.9318192005157471,
                        -0.9054789543151856,
                        0.9298772811889648
                    ],
                    "Bias": -0.22607696056365968
                },
                {
                    "Value": 0.0,
                    "PreviousLayerNeuronValues": [
                        0.31310054659843447,
                        0.8969924449920654,
                        -0.1345592737197876,
                        -0.2892390489578247,
                        0.5668008327484131,
                        0.2826938331127167,
                        0.0822373628616333,
                        0.6752591133117676,
                        0.20405089855194093,
                        0.7007021903991699,
                        0.965531587600708,
                        0.9084022045135498,
                        0.39533016085624697,
                        -0.4943753480911255,
                        -0.6324665546417236,
                        -0.7537844181060791,
                        0.15754377841949464,
                        0.5101852416992188,
                        -0.5101046562194824,
                        0.5059092044830322
                    ],
                    "Weights": [
                        0.06604659557342529,
                        0.013018250465393067,
                        0.13971459865570069,
                        -0.6742153167724609,
                        0.6047604084014893,
                        -0.33909595012664797,
                        0.6058461666107178,
                        -0.9997129440307617,
                        -0.7617142200469971,
                        0.1928771734237671,
                        0.8850669860839844,
                        -0.130560040473938,
                        0.5390276908874512,
                        -0.3844643831253052,
                        0.8345909118652344,
                        0.920539379119873,
                        -0.8686487674713135,
                        -0.9547133445739746,
                        -0.25303566455841067,
                        0.7796018123626709
                    ],
                    "Bias": -0.20796000957489015
                },
                {
                    "Value": 0.0,
                    "PreviousLayerNeuronValues": [
                        0.31310054659843447,
                        0.8969924449920654,
                        -0.1345592737197876,
                        -0.2892390489578247,
                        0.5668008327484131,
                        0.2826938331127167,
                        0.0822373628616333,
                        0.6752591133117676,
                        0.20405089855194093,
                        0.7007021903991699,
                        0.965531587600708,
                        0.9084022045135498,
                        0.39533016085624697,
                        -0.4943753480911255,
                        -0.6324665546417236,
                        -0.7537844181060791,
                        0.15754377841949464,
                        0.5101852416992188,
                        -0.5101046562194824,
                        0.5059092044830322
                    ],
                    "Weights": [
                        0.16633760929107667,
                        -0.05901014804840088,
                        0.06990230083465576,
                        0.23792660236358643,
                        -0.9170310497283936,
                        0.09269869327545166,
                        -0.7166368961334229,
                        -0.2403334379196167,
                        -0.8392651081085205,
                        0.19062554836273194,
                        0.38125964999198916,
                        -0.49799811840057375,
                        0.1472715139389038,
                        0.7926993370056152,
                        0.004212498664855957,
                        0.01930415630340576,
                        -0.33118975162506106,
                        0.7717204093933106,
                        -0.4148203134536743,
                        -0.6436488628387451
                    ],
                    "Bias": 0.38424989581108096
                },
                {
                    "Value": 0.0,
                    "PreviousLayerNeuronValues": [
                        0.31310054659843447,
                        0.8969924449920654,
                        -0.1345592737197876,
                        -0.2892390489578247,
                        0.5668008327484131,
                        0.2826938331127167,
                        0.0822373628616333,
                        0.6752591133117676,
                        0.20405089855194093,
                        0.7007021903991699,
                        0.965531587600708,
                        0.9084022045135498,
                        0.39533016085624697,
                        -0.4943753480911255,
                        -0.6324665546417236,
                        -0.7537844181060791,
                        0.15754377841949464,
                        0.5101852416992188,
                        -0.5101046562194824,
                        0.5059092044830322
                    ],
                    "Weights": [
                        -0.6653923988342285,
                        -0.7183959484100342,
                        0.07108962535858154,
                        0.6799201965332031,
                        -0.35008013248443606,
                        -0.6437771320343018,
                        -0.1916271448135376,
                        0.7689831256866455,
                        -0.06840789318084717,
                        -0.6332447528839111,
                        -0.24116623401641847,
                        -0.29218828678131106,
                        0.2368851900100708,
                        -0.9879748821258545,
                        0.533684253692627,
                        0.07017695903778076,
                        -0.5579526424407959,
                        -0.8419845104217529,
                        -0.35190069675445559,
                        -0.4600588083267212
                    ],
                    "Bias": 0.3219618499279022
                },
                {
                    "Value": 0.0,
                    "PreviousLayerNeuronValues": [
                        0.31310054659843447,
                        0.8969924449920654,
                        -0.1345592737197876,
                        -0.2892390489578247,
                        0.5668008327484131,
                        0.2826938331127167,
                        0.0822373628616333,
                        0.6752591133117676,
                        0.20405089855194093,
                        0.7007021903991699,
                        0.965531587600708,
                        0.9084022045135498,
                        0.39533016085624697,
                        -0.4943753480911255,
                        -0.6324665546417236,
                        -0.7537844181060791,
                        0.15754377841949464,
                        0.5101852416992188,
                        -0.5101046562194824,
                        0.5059092044830322
                    ],
                    "Weights": [
                        -0.8196485042572022,
                        -0.4035376310348511,
                        0.48238393664360049,
                        0.8340556621551514,
                        0.06605923175811768,
                        0.3483400046825409,
                        0.16722524166107179,
                        0.8356754779815674,
                        0.12270152568817139,
                        -0.36625850200653078,
                        0.04524242877960205,
                        0.6487047672271729,
                        0.22469699382781983,
                        -0.1252807378768921,
                        -0.5874209403991699,
                        0.20608580112457276,
                        -0.6099486351013184,
                        -0.9945480823516846,
                        0.908195972442627,
                        0.1559513807296753
                    ],
                    "Bias": -0.4773155450820923
                },
                {
                    "Value": 0.0,
                    "PreviousLayerNeuronValues": [
                        0.31310054659843447,
                        0.8969924449920654,
                        -0.1345592737197876,
                        -0.2892390489578247,
                        0.5668008327484131,
                        0.2826938331127167,
                        0.0822373628616333,
                        0.6752591133117676,
                        0.20405089855194093,
                        0.7007021903991699,
                        0.965531587600708,
                        0.9084022045135498,
                        0.39533016085624697,
                        -0.4943753480911255,
                        -0.6324665546417236,
                        -0.7537844181060791,
                        0.15754377841949464,
                        0.5101852416992188,
                        -0.5101046562194824,
                        0.5059092044830322
                    ],
                    "Weights": [
                        -0.5164394378662109,
                        0.5295665264129639,
                        0.7400612831115723,
                        0.1915363073348999,
                        0.28029391169548037,
                        -0.8818879127502441,
                        0.9926295280456543,
                        0.429977148771286,
                        -0.8434793949127197,
                        0.2782251536846161,
                        -0.7983362674713135,
                        -0.24227440357208253,
                        0.3320011794567108,
                        0.005745530128479004,
                        0.14122068881988526,
                        0.7212204933166504,
                        0.03377664089202881,
                        0.6607072353363037,
                        0.9274845123291016,
                        -0.5854134559631348
                    ],
                    "Bias": -0.08449780941009522
                },
                {
                    "Value": 0.5610049962997437,
                    "PreviousLayerNeuronValues": [
                        0.31310054659843447,
                        0.8969924449920654,
                        -0.1345592737197876,
                        -0.2892390489578247,
                        0.5668008327484131,
                        0.2826938331127167,
                        0.0822373628616333,
                        0.6752591133117676,
                        0.20405089855194093,
                        0.7007021903991699,
                        0.965531587600708,
                        0.9084022045135498,
                        0.39533016085624697,
                        -0.4943753480911255,
                        -0.6324665546417236,
                        -0.7537844181060791,
                        0.15754377841949464,
                        0.5101852416992188,
                        -0.5101046562194824,
                        0.5059092044830322
                    ],
                    "Weights": [
                        0.6776528358459473,
                        -0.45965397357940676,
                        0.310679167509079,
                        0.3012635409832001,
                        -0.1428288221359253,
                        0.5776138305664063,
                        0.41453859210014346,
                        0.14178502559661866,
                        -0.8661117553710938,
                        -0.22927701473236085,
                        -0.07267844676971436,
                        0.6108033657073975,
                        0.18009865283966065,
                        0.5122432708740234,
                        -0.3357483148574829,
                        -0.47660577297210696,
                        0.0855950117111206,
                        -0.3886615037918091,
                        -0.09673821926116944,
                        0.1050184965133667
                    ],
                    "Bias": 0.2233814001083374
                },
                {
                    "Value": 1.8506510257720948,
                    "PreviousLayerNeuronValues": [
                        0.31310054659843447,
                        0.8969924449920654,
                        -0.1345592737197876,
                        -0.2892390489578247,
                        0.5668008327484131,
                        0.2826938331127167,
                        0.0822373628616333,
                        0.6752591133117676,
                        0.20405089855194093,
                        0.7007021903991699,
                        0.965531587600708,
                        0.9084022045135498,
                        0.39533016085624697,
                        -0.4943753480911255,
                        -0.6324665546417236,
                        -0.7537844181060791,
                        0.15754377841949464,
                        0.5101852416992188,
                        -0.5101046562194824,
                        0.5059092044830322
                    ],
                    "Weights": [
                        -0.46087348461151125,
                        0.7931201457977295,
                        -0.021515727043151857,
                        -0.1203693151473999,
                        -0.35127174854278567,
                        0.5070939064025879,
                        -0.4711529016494751,
                        0.5402698516845703,
                        0.9620447158813477,
                        0.1786571741104126,
                        0.2708248794078827,
                        0.6955454349517822,
                        -0.35273277759552,
                        0.8015635013580322,
                        0.21048486232757569,
                        0.3447401225566864,
                        0.8544509410858154,
                        -0.18066608905792237,
                        0.4642305076122284,
                        0.38655659556388857
                    ],
                    "Bias": 0.688180685043335
                },
                {
                    "Value": 1.0881667137145997,
                    "PreviousLayerNeuronValues": [
                        0.31310054659843447,
                        0.8969924449920654,
                        -0.1345592737197876,
                        -0.2892390489578247,
                        0.5668008327484131,
                        0.2826938331127167,
                        0.0822373628616333,
                        0.6752591133117676,
                        0.20405089855194093,
                        0.7007021903991699,
                        0.965531587600708,
                        0.9084022045135498,
                        0.39533016085624697,
                        -0.4943753480911255,
                        -0.6324665546417236,
                        -0.7537844181060791,
                        0.15754377841949464,
                        0.5101852416992188,
                        -0.5101046562194824,
                        0.5059092044830322
                    ],
                    "Weights": [
                        0.47687456011772158,
                        0.9262692928314209,
                        0.5688107013702393,
                        0.5309493541717529,
                        0.16382229328155518,
                        -0.33590519428253176,
                        -0.9138245582580566,
                        0.26201459765434267,
                        -0.6399552822113037,
                        0.8687562942504883,
                        -0.3244401216506958,
                        0.4576992690563202,
                        0.2244049310684204,
                        0.7105128765106201,
                        -0.5169880390167236,
                        -0.5441904067993164,
                        0.819786787033081,
                        -0.6967563629150391,
                        -0.4286442995071411,
                        -0.6630890369415283
                    ],
                    "Bias": -0.47373878955841067
                },
                {
                    "Value": 0.0,
                    "PreviousLayerNeuronValues": [
                        0.31310054659843447,
                        0.8969924449920654,
                        -0.1345592737197876,
                        -0.2892390489578247,
                        0.5668008327484131,
                        0.2826938331127167,
                        0.0822373628616333,
                        0.6752591133117676,
                        0.20405089855194093,
                        0.7007021903991699,
                        0.965531587600708,
                        0.9084022045135498,
                        0.39533016085624697,
                        -0.4943753480911255,
                        -0.6324665546417236,
                        -0.7537844181060791,
                        0.15754377841949464,
                        0.5101852416992188,
                        -0.5101046562194824,
                        0.5059092044830322
                    ],
                    "Weights": [
                        0.7774317264556885,
                        -0.87874436378479,
                        0.1906062364578247,
                        0.5760841369628906,
                        0.6232466697692871,
                        0.5939188003540039,
                        0.25492069125175478,
                        -0.7206625938415527,
                        0.4654545485973358,
                        -0.9895734786987305,
                        -0.40128767490386965,
                        -0.5475645065307617,
                        0.7372598648071289,
                        -0.9780027866363525,
                        0.2647678554058075,
                        0.7431244850158691,
                        -0.5596487522125244,
                        0.784409761428833,
                        0.7602369785308838,
                        0.0852583646774292
                    ],
                    "Bias": 0.8690495491027832
                },
                {
                    "Value": 0.0,
                    "PreviousLayerNeuronValues": [
                        0.31310054659843447,
                        0.8969924449920654,
                        -0.1345592737197876,
                        -0.2892390489578247,
                        0.5668008327484131,
                        0.2826938331127167,
                        0.0822373628616333,
                        0.6752591133117676,
                        0.20405089855194093,
                        0.7007021903991699,
                        0.965531587600708,
                        0.9084022045135498,
                        0.39533016085624697,
                        -0.4943753480911255,
                        -0.6324665546417236,
                        -0.7537844181060791,
                        0.15754377841949464,
                        0.5101852416992188,
                        -0.5101046562194824,
                        0.5059092044830322
                    ],
                    "Weights": [
                        -0.546917200088501,
                        -0.5100431442260742,
                        -0.05157005786895752,
                        -0.20061004161834718,
                        -0.9166038036346436,
                        0.04671609401702881,
                        -0.07968080043792725,
                        0.6881370544433594,
                        -0.6791214942932129,
                        0.19475257396697999,
                        -0.2654014825820923,
                        0.5994927883148193,
                        0.08932936191558838,
                        0.8224146366119385,
                        0.9337873458862305,
                        0.6897459030151367,
                        0.8509113788604736,
                        -0.2244035005569458,
                        -0.15834081172943116,
                        -0.375940203666687
                    ],
                    "Bias": -0.7113280296325684
                },
                {
                    "Value": 0.542173445224762,
                    "PreviousLayerNeuronValues": [
                        0.31310054659843447,
                        0.8969924449920654,
                        -0.1345592737197876,
                        -0.2892390489578247,
                        0.5668008327484131,
                        0.2826938331127167,
                        0.0822373628616333,
                        0.6752591133117676,
                        0.20405089855194093,
                        0.7007021903991699,
                        0.965531587600708,
                        0.9084022045135498,
                        0.39533016085624697,
                        -0.4943753480911255,
                        -0.6324665546417236,
                        -0.7537844181060791,
                        0.15754377841949464,
                        0.5101852416992188,
                        -0.5101046562194824,
                        0.5059092044830322
                    ],
                    "Weights": [
                        0.22779357433319093,
                        -0.42267072200775149,
                        0.9436221122741699,
                        -0.5541367530822754,
                        0.4633345305919647,
                        -0.47079145908355715,
                        -0.763836145401001,
                        -0.703157901763916,
                        -0.5692689418792725,
                        -0.7972817420959473,
                        -0.2894071340560913,
                        -0.39405786991119387,
                        0.7906768321990967,
                        -0.8431119918823242,
                        -0.9477953910827637,
                        0.28163811564445498,
                        0.48645755648612978,
                        0.2546035945415497,
                        -0.949854850769043,
                        0.15760576725006104
                    ],
                    "Bias": 0.6496517658233643
                }
            ]
        },
        {
            "HiddenNeurons": [
                {
                    "Value": 0.3349951505661011,
                    "PreviousLayerNeuronValues": [
                        4.408360004425049,
                        0.32747191190719607,
                        0.0,
                        0.0,
                        0.0,
                        0.0,
                        0.3030043840408325,
                        0.8919772505760193,
                        0.3454364538192749,
                        0.0,
                        0.0,
                        2.608410596847534,
                        0.0,
                        0.0,
                        1.2957966327667237,
                        0.0,
                        0.0,
                        0.0,
                        0.5667599439620972,
                        0.18266212940216065,
                        2.737922191619873,
                        0.0,
                        0.0,
                        0.0,
                        0.0,
                        0.0,
                        0.5610049962997437,
                        1.8506510257720948,
                        1.0881667137145997,
                        0.0,
                        0.0,
                        0.542173445224762
                    ],
                    "Weights": [
                        -0.4420067071914673,
                        -0.05459320545196533,
                        -0.6352741718292236,
                        0.016802191734313966,
                        0.5533528327941895,
                        -0.34370219707489016,
                        0.8619344234466553,
                        0.14328515529632569,
                        -0.03191554546356201,
                        0.5868875980377197,
                        -0.12654197216033936,
                        0.4602956473827362,
                        0.3720385730266571,
                        0.5986425876617432,
                        -0.1596466302871704,
                        -0.10122716426849365,
                        -0.4101763963699341,
                        0.34809133410453799,
                        0.8865559101104736,
                        -0.3234654664993286,
                        0.5613503456115723,
                        -0.6283328533172607,
                        -0.24551928043365479,
                        -0.7120869159698486,
                        -0.39317643642425539,
                        0.975156307220459,
                        -0.8739421367645264,
                        -0.9249732494354248,
                        0.9854047298431397,
                        0.6870698928833008,
                        0.9115996360778809,
                        -0.6634891033172607
                    ],
                    "Bias": 0.43889209628105166
                },
                {
                    "Value": 0.0,
                    "PreviousLayerNeuronValues": [
                        4.408360004425049,
                        0.32747191190719607,
                        0.0,
                        0.0,
                        0.0,
                        0.0,
                        0.3030043840408325,
                        0.8919772505760193,
                        0.3454364538192749,
                        0.0,
                        0.0,
                        2.608410596847534,
                        0.0,
                        0.0,
                        1.2957966327667237,
                        0.0,
                        0.0,
                        0.0,
                        0.5667599439620972,
                        0.18266212940216065,
                        2.737922191619873,
                        0.0,
                        0.0,
                        0.0,
                        0.0,
                        0.0,
                        0.5610049962997437,
                        1.8506510257720948,
                        1.0881667137145997,
                        0.0,
                        0.0,
                        0.542173445224762
                    ],
                    "Weights": [
                        0.16081655025482179,
                        -0.35316336154937746,
                        -0.264079213142395,
                        0.5252518653869629,
                        0.27144667506217959,
                        0.11795914173126221,
                        0.38886114954948428,
                        0.9716095924377441,
                        0.32437703013420107,
                        0.27037879824638369,
                        -0.137489914894104,
                        -0.9162476062774658,
                        -0.36030352115631106,
                        0.7583515644073486,
                        -0.2738543748855591,
                        -0.7372555732727051,
                        0.5745189189910889,
                        -0.2918020486831665,
                        -0.2331606149673462,
                        0.8083522319793701,
                        -0.5238959789276123,
                        -0.14159786701202393,
                        -0.5556221008300781,
                        0.15690290927886964,
                        -0.7054402828216553,
                        0.8902254104614258,
                        0.7123022079467773,
                        -0.8737466335296631,
                        0.8054497241973877,
                        0.8165264129638672,
                        -0.12048828601837158,
                        0.26869556307792666
                    ],
                    "Bias": 0.529149055480957
                },
                {
                    "Value": 0.0,
                    "PreviousLayerNeuronValues": [
                        4.408360004425049,
                        0.32747191190719607,
                        0.0,
                        0.0,
                        0.0,
                        0.0,
                        0.3030043840408325,
                        0.8919772505760193,
                        0.3454364538192749,
                        0.0,
                        0.0,
                        2.608410596847534,
                        0.0,
                        0.0,
                        1.2957966327667237,
                        0.0,
                        0.0,
                        0.0,
                        0.5667599439620972,
                        0.18266212940216065,
                        2.737922191619873,
                        0.0,
                        0.0,
                        0.0,
                        0.0,
                        0.0,
                        0.5610049962997437,
                        1.8506510257720948,
                        1.0881667137145997,
                        0.0,
                        0.0,
                        0.542173445224762
                    ],
                    "Weights": [
                        -0.24460828304290772,
                        -0.5207374095916748,
                        -0.8405406475067139,
                        0.8749403953552246,
                        0.3042571246623993,
                        0.31665584444999697,
                        0.7723739147186279,
                        0.6757607460021973,
                        -0.6117570400238037,
                        0.16111743450164796,
                        0.18308579921722413,
                        -0.5260283946990967,
                        0.9151537418365479,
                        0.07110607624053955,
                        -0.24745237827301026,
                        0.698951005935669,
                        0.6689243316650391,
                        0.19335949420928956,
                        -0.5584101676940918,
                        -0.8182332515716553,
                        0.9265384674072266,
                        0.7491989135742188,
                        -0.5119466781616211,
                        0.6265974044799805,
                        0.9529387950897217,
                        0.8137474060058594,
                        -0.8378720283508301,
                        0.5877766609191895,
                        -0.9458951950073242,
                        -0.5109214782714844,
                        -0.3078397512435913,
                        -0.3398095369338989
                    ],
                    "Bias": 0.0338209867477417
                },
                {
                    "Value": 3.039985179901123,
                    "PreviousLayerNeuronValues": [
                        4.408360004425049,
                        0.32747191190719607,
                        0.0,
                        0.0,
                        0.0,
                        0.0,
                        0.3030043840408325,
                        0.8919772505760193,
                        0.3454364538192749,
                        0.0,
                        0.0,
                        2.608410596847534,
                        0.0,
                        0.0,
                        1.2957966327667237,
                        0.0,
                        0.0,
                        0.0,
                        0.5667599439620972,
                        0.18266212940216065,
                        2.737922191619873,
                        0.0,
                        0.0,
                        0.0,
                        0.0,
                        0.0,
                        0.5610049962997437,
                        1.8506510257720948,
                        1.0881667137145997,
                        0.0,
                        0.0,
                        0.542173445224762
                    ],
                    "Weights": [
                        0.10986268520355225,
                        0.3884441554546356,
                        -0.9163973331451416,
                        0.9856162071228027,
                        -0.18728649616241456,
                        -0.7136483192443848,
                        0.39449259638786318,
                        -0.03448283672332764,
                        0.008612751960754395,
                        -0.21235883235931397,
                        -0.16238844394683839,
                        0.6702995300292969,
                        0.002431035041809082,
                        0.4704870879650116,
                        0.03272044658660889,
                        -0.3304382562637329,
                        -0.20004069805145265,
                        0.7757818698883057,
                        -0.5308823585510254,
                        0.9522347450256348,
                        0.675349235534668,
                        0.7826004028320313,
                        -0.6397004127502441,
                        -0.42422401905059817,
                        0.04040038585662842,
                        0.38480517268180849,
                        -0.7908287048339844,
                        -0.932642936706543,
                        0.7650351524353027,
                        -0.04335367679595947,
                        -0.2846940755844116,
                        0.8794279098510742
                    ],
                    "Bias": -0.31583964824676516
                },
                {
                    "Value": 0.0,
                    "PreviousLayerNeuronValues": [
                        4.408360004425049,
                        0.32747191190719607,
                        0.0,
                        0.0,
                        0.0,
                        0.0,
                        0.3030043840408325,
                        0.8919772505760193,
                        0.3454364538192749,
                        0.0,
                        0.0,
                        2.608410596847534,
                        0.0,
                        0.0,
                        1.2957966327667237,
                        0.0,
                        0.0,
                        0.0,
                        0.5667599439620972,
                        0.18266212940216065,
                        2.737922191619873,
                        0.0,
                        0.0,
                        0.0,
                        0.0,
                        0.0,
                        0.5610049962997437,
                        1.8506510257720948,
                        1.0881667137145997,
                        0.0,
                        0.0,
                        0.542173445224762
                    ],
                    "Weights": [
                        -0.18703210353851319,
                        0.12911570072174073,
                        -0.6191189289093018,
                        -0.6155591011047363,
                        0.5279750823974609,
                        0.21350133419036866,
                        0.0873481035232544,
                        0.9490909576416016,
                        -0.9687552452087402,
                        0.23210108280181886,
                        -0.20700180530548097,
                        -0.5337810516357422,
                        0.9219231605529785,
                        0.30794283747673037,
                        -0.24815094470977784,
                        -0.7630949020385742,
                        0.15759360790252686,
                        0.9609198570251465,
                        -0.01565539836883545,
                        -0.6763617992401123,
                        -0.7209651470184326,
                        -0.577460765838623,
                        0.22173535823822022,
                        0.04371750354766846,
                        0.7795062065124512,
                        -0.5286493301391602,
                        0.16409146785736085,
                        -0.07397091388702393,
                        0.6039490699768066,
                        0.10469162464141846,
                        0.4567401111125946,
                        0.18060433864593507
                    ],
                    "Bias": 0.010547041893005371
                },
                {
                    "Value": 0.7856099605560303,
                    "PreviousLayerNeuronValues": [
                        4.408360004425049,
                        0.32747191190719607,
                        0.0,
                        0.0,
                        0.0,
                        0.0,
                        0.3030043840408325,
                        0.8919772505760193,
                        0.3454364538192749,
                        0.0,
                        0.0,
                        2.608410596847534,
                        0.0,
                        0.0,
                        1.2957966327667237,
                        0.0,
                        0.0,
                        0.0,
                        0.5667599439620972,
                        0.18266212940216065,
                        2.737922191619873,
                        0.0,
                        0.0,
                        0.0,
                        0.0,
                        0.0,
                        0.5610049962997437,
                        1.8506510257720948,
                        1.0881667137145997,
                        0.0,
                        0.0,
                        0.542173445224762
                    ],
                    "Weights": [
                        -0.43780386447906496,
                        -0.646780252456665,
                        -0.3033255338668823,
                        -0.751176118850708,
                        0.3181295096874237,
                        -0.47284257411956789,
                        0.4404086768627167,
                        0.18592941761016847,
                        0.9813933372497559,
                        -0.28532707691192629,
                        -0.6473462581634522,
                        -0.14603650569915772,
                        0.019872069358825685,
                        0.933142900466919,
                        0.4870102107524872,
                        -0.15405237674713136,
                        0.7693312168121338,
                        0.2152646780014038,
                        0.2738334834575653,
                        0.7599480152130127,
                        0.019707083702087404,
                        0.9107680320739746,
                        -0.4798070192337036,
                        0.03104269504547119,
                        -0.07890355587005615,
                        -0.42688143253326418,
                        -0.8949587345123291,
                        0.8151776790618897,
                        0.8376185894012451,
                        0.4170684516429901,
                        -0.08250892162322998,
                        0.7855019569396973
                    ],
                    "Bias": -0.652881383895874
                },
                {
                    "Value": 0.0,
                    "PreviousLayerNeuronValues": [
                        4.408360004425049,
                        0.32747191190719607,
                        0.0,
                        0.0,
                        0.0,
                        0.0,
                        0.3030043840408325,
                        0.8919772505760193,
                        0.3454364538192749,
                        0.0,
                        0.0,
                        2.608410596847534,
                        0.0,
                        0.0,
                        1.2957966327667237,
                        0.0,
                        0.0,
                        0.0,
                        0.5667599439620972,
                        0.18266212940216065,
                        2.737922191619873,
                        0.0,
                        0.0,
                        0.0,
                        0.0,
                        0.0,
                        0.5610049962997437,
                        1.8506510257720948,
                        1.0881667137145997,
                        0.0,
                        0.0,
                        0.542173445224762
                    ],
                    "Weights": [
                        -0.6608805656433106,
                        -0.5075294971466065,
                        -0.6829063892364502,
                        -0.9787578582763672,
                        0.060304999351501468,
                        -0.2585197687149048,
                        -0.03918564319610596,
                        -0.7089884281158447,
                        -0.54305100440979,
                        -0.7726006507873535,
                        -0.7503437995910645,
                        -0.993499755859375,
                        0.4298493564128876,
                        -0.8537099361419678,
                        -0.04508507251739502,
                        -0.5278146266937256,
                        0.1758636236190796,
                        -0.6096110343933106,
                        -0.12213122844696045,
                        0.9626603126525879,
                        -0.6596181392669678,
                        0.5676295757293701,
                        0.456252783536911,
                        -0.8058779239654541,
                        0.9053633213043213,
                        -0.5041966438293457,
                        0.1818140745162964,
                        0.8098838329315186,
                        0.43753501772880556,
                        0.3603925406932831,
                        0.8722906112670898,
                        0.06781899929046631
                    ],
                    "Bias": 0.353105753660202
                },
                {
                    "Value": 6.258061408996582,
                    "PreviousLayerNeuronValues": [
                        4.408360004425049,
                        0.32747191190719607,
                        0.0,
                        0.0,
                        0.0,
                        0.0,
                        0.3030043840408325,
                        0.8919772505760193,
                        0.3454364538192749,
                        0.0,
                        0.0,
                        2.608410596847534,
                        0.0,
                        0.0,
                        1.2957966327667237,
                        0.0,
                        0.0,
                        0.0,
                        0.5667599439620972,
                        0.18266212940216065,
                        2.737922191619873,
                        0.0,
                        0.0,
                        0.0,
                        0.0,
                        0.0,
                        0.5610049962997437,
                        1.8506510257720948,
                        1.0881667137145997,
                        0.0,
                        0.0,
                        0.542173445224762
                    ],
                    "Weights": [
                        0.43143245577812197,
                        -0.6732878684997559,
                        -0.11848318576812744,
                        -0.34831511974334719,
                        -0.3019188642501831,
                        -0.5647439956665039,
                        -0.4077378511428833,
                        0.8589205741882324,
                        0.7795310020446777,
                        -0.31233322620391848,
                        -0.8193528652191162,
                        0.1983572244644165,
                        -0.2563737630844116,
                        0.6625676155090332,
                        0.5367789268493652,
                        -0.6994636058807373,
                        -0.38708174228668215,
                        -0.9207534790039063,
                        0.8804361820220947,
                        0.09864962100982666,
                        0.07795107364654541,
                        0.04686629772186279,
                        0.04703080654144287,
                        -0.18530166149139405,
                        0.16114771366119386,
                        -0.9176340103149414,
                        -0.5082826614379883,
                        0.2022191286087036,
                        0.5016615390777588,
                        -0.4679197072982788,
                        -0.7534034252166748,
                        0.5255324840545654
                    ],
                    "Bias": 0.8014628887176514
                },
                {
                    "Value": 6.500299453735352,
                    "PreviousLayerNeuronValues": [
                        4.408360004425049,
                        0.32747191190719607,
                        0.0,
                        0.0,
                        0.0,
                        0.0,
                        0.3030043840408325,
                        0.8919772505760193,
                        0.3454364538192749,
                        0.0,
                        0.0,
                        2.608410596847534,
                        0.0,
                        0.0,
                        1.2957966327667237,
                        0.0,
                        0.0,
                        0.0,
                        0.5667599439620972,
                        0.18266212940216065,
                        2.737922191619873,
                        0.0,
                        0.0,
                        0.0,
                        0.0,
                        0.0,
                        0.5610049962997437,
                        1.8506510257720948,
                        1.0881667137145997,
                        0.0,
                        0.0,
                        0.542173445224762
                    ],
                    "Weights": [
                        0.6615345478057861,
                        0.713658332824707,
                        -0.758737325668335,
                        -0.8623700141906738,
                        0.569105863571167,
                        -0.3536742925643921,
                        0.553250789642334,
                        0.23762476444244386,
                        0.21940767765045167,
                        -0.41874992847442629,
                        -0.02635061740875244,
                        0.29632923007011416,
                        0.2070387601852417,
                        -0.9021852016448975,
                        -0.296061635017395,
                        -0.009168505668640137,
                        0.750640869140625,
                        0.2346280813217163,
                        0.6301913261413574,
                        -0.7098374366760254,
                        0.05157816410064697,
                        -0.8418064117431641,
                        -0.12653768062591554,
                        -0.6593029499053955,
                        0.5363955497741699,
                        -0.3830982446670532,
                        -0.9141707420349121,
                        0.703587532043457,
                        0.4912054240703583,
                        0.13934862613677979,
                        0.589270830154419,
                        -0.05537521839141846
                    ],
                    "Bias": 0.8431618213653565
                },
                {
                    "Value": 2.4989514350891115,
                    "PreviousLayerNeuronValues": [
                        4.408360004425049,
                        0.32747191190719607,
                        0.0,
                        0.0,
                        0.0,
                        0.0,
                        0.3030043840408325,
                        0.8919772505760193,
                        0.3454364538192749,
                        0.0,
                        0.0,
                        2.608410596847534,
                        0.0,
                        0.0,
                        1.2957966327667237,
                        0.0,
                        0.0,
                        0.0,
                        0.5667599439620972,
                        0.18266212940216065,
                        2.737922191619873,
                        0.0,
                        0.0,
                        0.0,
                        0.0,
                        0.0,
                        0.5610049962997437,
                        1.8506510257720948,
                        1.0881667137145997,
                        0.0,
                        0.0,
                        0.542173445224762
                    ],
                    "Weights": [
                        0.4099752604961395,
                        -0.8800511360168457,
                        0.32216617465019228,
                        0.9492325782775879,
                        0.5086376667022705,
                        0.0025626420974731447,
                        0.936467170715332,
                        -0.14701592922210694,
                        0.10528624057769776,
                        0.9843618869781494,
                        -0.8499937057495117,
                        -0.3311349153518677,
                        0.34890052676200869,
                        0.7797949314117432,
                        0.4610855281352997,
                        0.4913162887096405,
                        0.02062690258026123,
                        -0.9869699478149414,
                        -0.17994558811187745,
                        0.34458276629447939,
                        -0.21863090991973878,
                        0.21982085704803468,
                        -0.30097496509552,
                        -0.05178248882293701,
                        -0.4914964437484741,
                        0.8127450942993164,
                        -0.15742552280426026,
                        0.3410901725292206,
                        0.23669803142547608,
                        0.14656031131744386,
                        0.23736035823822022,
                        0.22398006916046143
                    ],
                    "Bias": 0.7728118896484375
                },
                {
                    "Value": 0.0,
                    "PreviousLayerNeuronValues": [
                        4.408360004425049,
                        0.32747191190719607,
                        0.0,
                        0.0,
                        0.0,
                        0.0,
                        0.3030043840408325,
                        0.8919772505760193,
                        0.3454364538192749,
                        0.0,
                        0.0,
                        2.608410596847534,
                        0.0,
                        0.0,
                        1.2957966327667237,
                        0.0,
                        0.0,
                        0.0,
                        0.5667599439620972,
                        0.18266212940216065,
                        2.737922191619873,
                        0.0,
                        0.0,
                        0.0,
                        0.0,
                        0.0,
                        0.5610049962997437,
                        1.8506510257720948,
                        1.0881667137145997,
                        0.0,
                        0.0,
                        0.542173445224762
                    ],
                    "Weights": [
                        -0.72281813621521,
                        -0.539025068283081,
                        0.09687340259552002,
                        -0.5712392330169678,
                        0.11694943904876709,
                        0.44603821635246279,
                        0.5626070499420166,
                        0.8348548412322998,
                        -0.6021218299865723,
                        -0.8053622245788574,
                        0.2978338897228241,
                        0.6084415912628174,
                        0.25157544016838076,
                        0.4417431056499481,
                        -0.5725569725036621,
                        -0.7977118492126465,
                        0.13341963291168214,
                        -0.382607102394104,
                        -0.3238297700881958,
                        -0.20411169528961183,
                        0.18680942058563233,
                        0.7368640899658203,
                        0.1185523271560669,
                        0.7501568794250488,
                        0.31156060099601748,
                        -0.8710439205169678,
                        0.9260401725769043,
                        0.4793202579021454,
                        -0.5811994075775147,
                        -0.3736008405685425,
                        0.2643279731273651,
                        -0.31941187381744387
                    ],
                    "Bias": -0.4895230531692505
                },
                {
                    "Value": 1.3446190357208253,
                    "PreviousLayerNeuronValues": [
                        4.408360004425049,
                        0.32747191190719607,
                        0.0,
                        0.0,
                        0.0,
                        0.0,
                        0.3030043840408325,
                        0.8919772505760193,
                        0.3454364538192749,
                        0.0,
                        0.0,
                        2.608410596847534,
                        0.0,
                        0.0,
                        1.2957966327667237,
                        0.0,
                        0.0,
                        0.0,
                        0.5667599439620972,
                        0.18266212940216065,
                        2.737922191619873,
                        0.0,
                        0.0,
                        0.0,
                        0.0,
                        0.0,
                        0.5610049962997437,
                        1.8506510257720948,
                        1.0881667137145997,
                        0.0,
                        0.0,
                        0.542173445224762
                    ],
                    "Weights": [
                        0.6451871395111084,
                        0.48921820521354678,
                        -0.39842545986175539,
                        0.41397997736930849,
                        0.9839015007019043,
                        0.005461573600769043,
                        -0.6485161781311035,
                        -0.27969348430633547,
                        -0.09115231037139893,
                        0.8159918785095215,
                        -0.7184019088745117,
                        -0.46878230571746828,
                        -0.6752457618713379,
                        0.11648356914520264,
                        -0.4626671075820923,
                        0.6953425407409668,
                        0.38661810755729678,
                        -0.34971654415130618,
                        0.766650915145874,
                        -0.5848841667175293,
                        0.8092904090881348,
                        0.8273508548736572,
                        0.9981365203857422,
                        0.18717873096466065,
                        0.22459614276885987,
                        0.6841940879821777,
                        0.7640805244445801,
                        -0.9073643684387207,
                        0.481490820646286,
                        0.86887526512146,
                        -0.8643646240234375,
                        -0.6053111553192139
                    ],
                    "Bias": -0.848675012588501
                },
                {
                    "Value": 0.0,
                    "PreviousLayerNeuronValues": [
                        4.408360004425049,
                        0.32747191190719607,
                        0.0,
                        0.0,
                        0.0,
                        0.0,
                        0.3030043840408325,
                        0.8919772505760193,
                        0.3454364538192749,
                        0.0,
                        0.0,
                        2.608410596847534,
                        0.0,
                        0.0,
                        1.2957966327667237,
                        0.0,
                        0.0,
                        0.0,
                        0.5667599439620972,
