{
    "HiddenLayers": [
        {
            "Neurons": [
                {
                    "Value": 0.38511914014816286,
                    "PreviousLayerNeuronValues": [
                        0.0,
                        0.0,
                        0.0,
                        0.0,
                        0.0,
                        0.0,
                        0.0
                    ],
                    "Weights": [
                        -0.8549089431762695,
                        -0.626492977142334,
                        0.14941680431365968,
                        0.318726509809494,
                        0.6572980880737305,
                        0.3289138972759247,
                        0.31435081362724306
                    ],
                    "Bias": -0.4678758382797241
                },
                {
                    "Value": 0.665399432182312,
                    "PreviousLayerNeuronValues": [
                        0.0,
                        0.0,
                        0.0,
                        0.0,
                        0.0,
                        0.0,
                        0.0
                    ],
                    "Weights": [
                        0.47241684794425967,
                        -0.501384973526001,
                        -0.838613748550415,
                        0.18025147914886475,
                        -0.5936002731323242,
                        0.458663672208786,
                        0.9074501991271973
                    ],
                    "Bias": 0.6874499320983887
                },
                {
                    "Value": 0.49978283047676089,
                    "PreviousLayerNeuronValues": [
                        0.0,
                        0.0,
                        0.0,
                        0.0,
                        0.0,
                        0.0,
                        0.0
                    ],
                    "Weights": [
                        -0.7054860591888428,
                        0.0376511812210083,
                        0.17655885219573975,
                        -0.3224846124649048,
                        -0.11143219470977783,
                        -0.31826698780059817,
                        -0.183893084526062
                    ],
                    "Bias": -0.000868678092956543
                },
                {
                    "Value": 0.2756037414073944,
                    "PreviousLayerNeuronValues": [
                        0.0,
                        0.0,
                        0.0,
                        0.0,
                        0.0,
                        0.0,
                        0.0
                    ],
                    "Weights": [
                        0.5265984535217285,
                        0.4874098002910614,
                        0.6128673553466797,
                        -0.5099618434906006,
                        0.23951327800750733,
                        0.492082804441452,
                        -0.3866838216781616
                    ],
                    "Bias": -0.966374397277832
                },
                {
                    "Value": 0.4285590350627899,
                    "PreviousLayerNeuronValues": [
                        0.0,
                        0.0,
                        0.0,
                        0.0,
                        0.0,
                        0.0,
                        0.0
                    ],
                    "Weights": [
                        -0.5016613006591797,
                        -0.9622817039489746,
                        -0.8972780704498291,
                        0.562371015548706,
                        -0.6343905925750732,
                        0.18050849437713624,
                        0.18724262714385987
                    ],
                    "Bias": -0.28773272037506106
                },
                {
                    "Value": 0.481591135263443,
                    "PreviousLayerNeuronValues": [
                        0.0,
                        0.0,
                        0.0,
                        0.0,
                        0.0,
                        0.0,
                        0.0
                    ],
                    "Weights": [
                        -0.8681716918945313,
                        0.45853444933891299,
                        -0.2591363191604614,
                        -0.7155663967132568,
                        0.8620004653930664,
                        -0.47668397426605227,
                        0.5721123218536377
                    ],
                    "Bias": -0.07366883754730225
                },
                {
                    "Value": 0.6904873251914978,
                    "PreviousLayerNeuronValues": [
                        0.0,
                        0.0,
                        0.0,
                        0.0,
                        0.0,
                        0.0,
                        0.0
                    ],
                    "Weights": [
                        0.043182969093322757,
                        -0.10250437259674072,
                        -0.8186264038085938,
                        0.3622736632823944,
                        -0.05998194217681885,
                        0.06163990497589111,
                        0.9644348621368408
                    ],
                    "Bias": 0.8023984432220459
                },
                {
                    "Value": 0.6315262317657471,
                    "PreviousLayerNeuronValues": [
                        0.0,
                        0.0,
                        0.0,
                        0.0,
                        0.0,
                        0.0,
                        0.0
                    ],
                    "Weights": [
                        0.1563624143600464,
                        0.842388391494751,
                        -0.3195542097091675,
                        -0.13276422023773194,
                        0.17164742946624757,
                        0.11982786655426026,
                        -0.49122679233551028
                    ],
                    "Bias": 0.5387699604034424
                },
                {
                    "Value": 0.42489543557167055,
                    "PreviousLayerNeuronValues": [
                        0.0,
                        0.0,
                        0.0,
                        0.0,
                        0.0,
                        0.0,
                        0.0
                    ],
                    "Weights": [
                        0.6814191341400147,
                        -0.8639266490936279,
                        -0.04494059085845947,
                        -0.8299374580383301,
                        0.5173289775848389,
                        0.11557042598724365,
                        0.12028706073760987
                    ],
                    "Bias": -0.3027087450027466
                },
                {
                    "Value": 0.613476574420929,
                    "PreviousLayerNeuronValues": [
                        0.0,
                        0.0,
                        0.0,
                        0.0,
                        0.0,
                        0.0,
                        0.0
                    ],
                    "Weights": [
                        0.449449747800827,
                        0.24676334857940675,
                        -0.49261176586151125,
                        -0.5824213027954102,
                        -0.9855072498321533,
                        -0.48625409603118899,
                        -0.20254123210906983
                    ],
                    "Bias": 0.46194955706596377
                },
                {
                    "Value": 0.3483561873435974,
                    "PreviousLayerNeuronValues": [
                        0.0,
                        0.0,
                        0.0,
                        0.0,
                        0.0,
                        0.0,
                        0.0
                    ],
                    "Weights": [
                        -0.9365620613098145,
                        -0.3759349584579468,
                        -0.15622222423553468,
                        0.21794164180755616,
                        0.7487905025482178,
                        -0.9251227378845215,
                        -0.5974748134613037
                    ],
                    "Bias": -0.6262726783752441
                },
                {
                    "Value": 0.5326379537582398,
                    "PreviousLayerNeuronValues": [
                        0.0,
                        0.0,
                        0.0,
                        0.0,
                        0.0,
                        0.0,
                        0.0
                    ],
                    "Weights": [
                        -0.9924466609954834,
                        0.4318215548992157,
                        -0.5513741970062256,
                        -0.004222750663757324,
                        -0.35914933681488039,
                        0.9101917743682861,
                        -0.09191238880157471
                    ],
                    "Bias": 0.13073766231536866
                },
                {
                    "Value": 0.5350828766822815,
                    "PreviousLayerNeuronValues": [
                        0.0,
                        0.0,
                        0.0,
                        0.0,
                        0.0,
                        0.0,
                        0.0
                    ],
                    "Weights": [
                        -0.5785107612609863,
                        -0.876244068145752,
                        0.03756439685821533,
                        0.9468338489532471,
                        0.4809426963329315,
                        0.9224231243133545,
                        0.4945187270641327
                    ],
                    "Bias": 0.14056241512298585
                },
                {
                    "Value": 0.7078718543052673,
                    "PreviousLayerNeuronValues": [
                        0.0,
                        0.0,
                        0.0,
                        0.0,
                        0.0,
                        0.0,
                        0.0
                    ],
                    "Weights": [
                        0.5605268478393555,
                        0.07304060459136963,
                        0.14703047275543214,
                        -0.9379265308380127,
                        0.9134924411773682,
                        -0.5477719306945801,
                        0.3831636607646942
                    ],
                    "Bias": 0.8850705623626709
                },
                {
                    "Value": 0.2761552035808563,
                    "PreviousLayerNeuronValues": [
                        0.0,
                        0.0,
                        0.0,
                        0.0,
                        0.0,
                        0.0,
                        0.0
                    ],
                    "Weights": [
                        0.8649771213531494,
                        0.2862965762615204,
                        0.9722421169281006,
                        -0.732356071472168,
                        -0.13243043422698975,
                        0.5766410827636719,
                        0.981440544128418
                    ],
                    "Bias": -0.9636139869689941
                },
                {
                    "Value": 0.5121378898620606,
                    "PreviousLayerNeuronValues": [
                        0.0,
                        0.0,
                        0.0,
                        0.0,
                        0.0,
                        0.0,
                        0.0
                    ],
                    "Weights": [
                        0.38818880915641787,
                        0.2740578353404999,
                        0.9454519748687744,
                        0.7870185375213623,
                        0.1978069543838501,
                        0.7637205123901367,
                        0.5987074375152588
                    ],
                    "Bias": 0.0485609769821167
                }
            ]
        },
        {
            "Neurons": [
                {
                    "Value": 0.4072604179382324,
                    "PreviousLayerNeuronValues": [
                        0.38511914014816286,
                        0.665399432182312,
                        0.49978283047676089,
                        0.2756037414073944,
                        0.4285590350627899,
                        0.481591135263443,
                        0.6904873251914978,
                        0.6315262317657471,
                        0.42489543557167055,
                        0.613476574420929,
                        0.3483561873435974,
                        0.5326379537582398,
                        0.5350828766822815,
                        0.7078718543052673,
                        0.2761552035808563,
                        0.5121378898620606
                    ],
                    "Weights": [
                        -0.06451261043548584,
                        0.5249724388122559,
                        0.7496547698974609,
                        -0.6245229244232178,
                        -0.8803834915161133,
                        -0.7933847904205322,
                        -0.9957857131958008,
                        0.023038268089294435,
                        -0.029380440711975099,
                        0.1578902006149292,
                        -0.8593158721923828,
                        -0.8944563865661621,
                        0.8363215923309326,
                        0.029647469520568849,
                        -0.68436598777771,
                        -0.07429325580596924
                    ],
                    "Bias": 0.980036735534668
                },
                {
                    "Value": 0.048752542585134509,
                    "PreviousLayerNeuronValues": [
                        0.38511914014816286,
                        0.665399432182312,
                        0.49978283047676089,
                        0.2756037414073944,
                        0.4285590350627899,
                        0.481591135263443,
                        0.6904873251914978,
                        0.6315262317657471,
                        0.42489543557167055,
                        0.613476574420929,
                        0.3483561873435974,
                        0.5326379537582398,
                        0.5350828766822815,
                        0.7078718543052673,
                        0.2761552035808563,
                        0.5121378898620606
                    ],
                    "Weights": [
                        -0.5738124847412109,
                        0.6517255306243897,
                        -0.9858806133270264,
                        -0.19216692447662354,
                        -0.2329314947128296,
                        -0.22484290599822999,
                        -0.4623509645462036,
                        -0.1850341558456421,
                        -0.12401807308197022,
                        -0.32524335384368899,
                        -0.08589470386505127,
                        -0.19562208652496339,
                        -0.6732954978942871,
                        -0.9494614601135254,
                        -0.9837584495544434,
                        0.655937910079956
                    ],
                    "Bias": -0.6393446922302246
                },
                {
                    "Value": 0.31377971172332766,
                    "PreviousLayerNeuronValues": [
                        0.38511914014816286,
                        0.665399432182312,
                        0.49978283047676089,
                        0.2756037414073944,
                        0.4285590350627899,
                        0.481591135263443,
                        0.6904873251914978,
                        0.6315262317657471,
                        0.42489543557167055,
                        0.613476574420929,
                        0.3483561873435974,
                        0.5326379537582398,
                        0.5350828766822815,
                        0.7078718543052673,
                        0.2761552035808563,
                        0.5121378898620606
                    ],
                    "Weights": [
                        -0.49355947971343996,
                        -0.8440728187561035,
                        -0.9349765777587891,
                        0.4968838393688202,
                        -0.1339203119277954,
                        0.43697091937065127,
                        0.8873658180236816,
                        -0.5994939804077148,
                        0.3868095576763153,
                        0.8423166275024414,
                        0.5273709297180176,
                        -0.5425760746002197,
                        -0.12938916683197022,
                        0.41274377703666689,
                        0.9663586616516113,
                        -0.6117725372314453
                    ],
                    "Bias": -0.8399081230163574
                },
                {
                    "Value": 0.43709057569503786,
                    "PreviousLayerNeuronValues": [
                        0.38511914014816286,
                        0.665399432182312,
                        0.49978283047676089,
                        0.2756037414073944,
                        0.4285590350627899,
                        0.481591135263443,
                        0.6904873251914978,
                        0.6315262317657471,
                        0.42489543557167055,
                        0.613476574420929,
                        0.3483561873435974,
                        0.5326379537582398,
                        0.5350828766822815,
                        0.7078718543052673,
                        0.2761552035808563,
                        0.5121378898620606
                    ],
                    "Weights": [
                        0.319834440946579,
                        0.0007721185684204102,
                        0.269773930311203,
                        -0.7107067108154297,
                        -0.5589296817779541,
                        -0.2702518701553345,
                        -0.22726786136627198,
                        0.18972671031951905,
                        -0.5512104034423828,
                        -0.757251501083374,
                        -0.2661794424057007,
                        0.6544418334960938,
                        -0.9802272319793701,
                        0.7734725475311279,
                        0.5974941253662109,
                        -0.9482858180999756
                    ],
                    "Bias": 0.8317148685455322
                },
                {
                    "Value": 0.4203305244445801,
                    "PreviousLayerNeuronValues": [
                        0.38511914014816286,
                        0.665399432182312,
                        0.49978283047676089,
                        0.2756037414073944,
                        0.4285590350627899,
                        0.481591135263443,
                        0.6904873251914978,
                        0.6315262317657471,
                        0.42489543557167055,
                        0.613476574420929,
                        0.3483561873435974,
                        0.5326379537582398,
                        0.5350828766822815,
                        0.7078718543052673,
                        0.2761552035808563,
                        0.5121378898620606
                    ],
                    "Weights": [
                        0.37908074259757998,
                        -0.0021044015884399416,
                        -0.6137592792510986,
                        -0.021395325660705568,
                        0.09995377063751221,
                        0.8167486190795898,
                        -0.34532320499420168,
                        -0.2929288148880005,
                        -0.8846120834350586,
                        0.729703426361084,
                        -0.2729700803756714,
                        0.16984307765960694,
                        -0.9199721813201904,
                        0.3111889064311981,
                        -0.09074246883392334,
                        -0.7279994487762451
                    ],
                    "Bias": 0.43660613894462588
                },
                {
                    "Value": 0.3790004253387451,
                    "PreviousLayerNeuronValues": [
                        0.38511914014816286,
                        0.665399432182312,
                        0.49978283047676089,
                        0.2756037414073944,
                        0.4285590350627899,
                        0.481591135263443,
                        0.6904873251914978,
                        0.6315262317657471,
                        0.42489543557167055,
                        0.613476574420929,
                        0.3483561873435974,
                        0.5326379537582398,
                        0.5350828766822815,
                        0.7078718543052673,
                        0.2761552035808563,
                        0.5121378898620606
                    ],
                    "Weights": [
                        0.9712355136871338,
                        0.37555500864982607,
                        0.28281375765800478,
                        -0.09467494487762451,
                        -0.18469417095184327,
                        -0.17059338092803956,
                        -0.2035461664199829,
                        0.7812082767486572,
                        -0.776402473449707,
                        -0.49000322818756106,
                        0.006699204444885254,
                        -0.16213548183441163,
                        0.6140406131744385,
                        -0.16283953189849854,
                        0.6772136688232422,
                        -0.9434127807617188
                    ],
                    "Bias": -0.6271107196807861
                },
                {
                    "Value": 0.4709097445011139,
                    "PreviousLayerNeuronValues": [
                        0.38511914014816286,
                        0.665399432182312,
                        0.49978283047676089,
                        0.2756037414073944,
                        0.4285590350627899,
                        0.481591135263443,
                        0.6904873251914978,
                        0.6315262317657471,
                        0.42489543557167055,
                        0.613476574420929,
                        0.3483561873435974,
                        0.5326379537582398,
                        0.5350828766822815,
                        0.7078718543052673,
                        0.2761552035808563,
                        0.5121378898620606
                    ],
                    "Weights": [
                        0.6335630416870117,
                        0.3236336410045624,
                        -0.4172412157058716,
                        0.5114305019378662,
                        0.062233567237854007,
                        -0.9935660362243652,
                        0.40816256403923037,
                        0.3538372218608856,
                        0.20880520343780518,
                        -0.07501661777496338,
                        0.33978649973869326,
                        -0.17449867725372315,
                        0.3553313910961151,
                        -0.19802725315093995,
                        0.7065994739532471,
                        -0.6724300384521484
                    ],
                    "Bias": -0.5305540561676025
                },
                {
                    "Value": 0.6123321652412415,
                    "PreviousLayerNeuronValues": [
                        0.38511914014816286,
                        0.665399432182312,
                        0.49978283047676089,
                        0.2756037414073944,
                        0.4285590350627899,
                        0.481591135263443,
                        0.6904873251914978,
                        0.6315262317657471,
                        0.42489543557167055,
                        0.613476574420929,
                        0.3483561873435974,
                        0.5326379537582398,
                        0.5350828766822815,
                        0.7078718543052673,
                        0.2761552035808563,
                        0.5121378898620606
                    ],
                    "Weights": [
                        0.6061282157897949,
                        -0.5756945610046387,
                        0.07274448871612549,
                        -0.5735275745391846,
                        -0.4872645139694214,
                        -0.14390599727630616,
                        0.9888346195220947,
                        0.6291182041168213,
                        0.20144522190093995,
                        -0.3557471036911011,
                        0.560053825378418,
                        -0.9426929950714111,
                        0.43738624453544619,
                        -0.20809423923492433,
                        0.4907190501689911,
                        -0.3311868906021118
                    ],
                    "Bias": 0.31354424357414248
                },
                {
                    "Value": 0.547065258026123,
                    "PreviousLayerNeuronValues": [
                        0.38511914014816286,
                        0.665399432182312,
                        0.49978283047676089,
                        0.2756037414073944,
                        0.4285590350627899,
                        0.481591135263443,
                        0.6904873251914978,
                        0.6315262317657471,
                        0.42489543557167055,
                        0.613476574420929,
                        0.3483561873435974,
                        0.5326379537582398,
                        0.5350828766822815,
                        0.7078718543052673,
                        0.2761552035808563,
                        0.5121378898620606
                    ],
                    "Weights": [
                        -0.6355540752410889,
                        -0.2925931215286255,
                        -0.007879853248596192,
                        -0.6254560947418213,
                        0.8057472705841065,
                        -0.7742090225219727,
                        0.505953311920166,
                        -0.40756475925445559,
                        -0.954575777053833,
                        0.10829627513885498,
                        -0.3095482587814331,
                        0.5956482887268066,
                        0.9902939796447754,
                        0.5188839435577393,
                        -0.15862572193145753,
                        -0.05386817455291748
                    ],
                    "Bias": 0.04409348964691162
                },
                {
                    "Value": 0.1318477988243103,
                    "PreviousLayerNeuronValues": [
                        0.38511914014816286,
                        0.665399432182312,
                        0.49978283047676089,
                        0.2756037414073944,
                        0.4285590350627899,
                        0.481591135263443,
                        0.6904873251914978,
                        0.6315262317657471,
                        0.42489543557167055,
                        0.613476574420929,
                        0.3483561873435974,
                        0.5326379537582398,
                        0.5350828766822815,
                        0.7078718543052673,
                        0.2761552035808563,
                        0.5121378898620606
                    ],
                    "Weights": [
                        0.352692574262619,
                        -0.36361396312713625,
                        -0.4763070344924927,
                        0.41211220622062685,
                        0.22868311405181886,
                        -0.6471848487854004,
                        -0.4074286222457886,
                        -0.10766589641571045,
                        0.3134605586528778,
                        -0.17156898975372315,
                        -0.7773900032043457,
                        -0.7907934188842773,
                        -0.4976116418838501,
                        0.5345108509063721,
                        0.6252572536468506,
                        0.09092986583709717
                    ],
                    "Bias": -0.7583937644958496
                },
                {
                    "Value": 0.7023106217384338,
                    "PreviousLayerNeuronValues": [
                        0.38511914014816286,
                        0.665399432182312,
                        0.49978283047676089,
                        0.2756037414073944,
                        0.4285590350627899,
                        0.481591135263443,
                        0.6904873251914978,
                        0.6315262317657471,
                        0.42489543557167055,
                        0.613476574420929,
                        0.3483561873435974,
                        0.5326379537582398,
                        0.5350828766822815,
                        0.7078718543052673,
                        0.2761552035808563,
                        0.5121378898620606
                    ],
                    "Weights": [
                        0.4209913909435272,
                        -0.44505035877227785,
                        -0.8227362632751465,
                        0.2861749827861786,
                        0.2696194350719452,
                        0.9770994186401367,
                        -0.0571056604385376,
                        0.21579396724700929,
                        0.9428958892822266,
                        0.994706392288208,
                        -0.39793455600738528,
                        -0.5641803741455078,
                        0.24514663219451905,
                        -0.17024028301239015,
                        0.7891857624053955,
                        -0.7887074947357178
                    ],
                    "Bias": 0.2452784776687622
                },
                {
                    "Value": 0.5713807344436646,
                    "PreviousLayerNeuronValues": [
                        0.38511914014816286,
                        0.665399432182312,
                        0.49978283047676089,
                        0.2756037414073944,
                        0.4285590350627899,
                        0.481591135263443,
                        0.6904873251914978,
                        0.6315262317657471,
                        0.42489543557167055,
                        0.613476574420929,
                        0.3483561873435974,
                        0.5326379537582398,
                        0.5350828766822815,
                        0.7078718543052673,
                        0.2761552035808563,
                        0.5121378898620606
                    ],
                    "Weights": [
                        -0.11562526226043701,
                        0.28668567538261416,
                        0.10003650188446045,
                        -0.18401944637298585,
                        0.07849657535552979,
                        -0.9272885322570801,
                        -0.12101924419403076,
                        -0.19991886615753175,
                        -0.04044187068939209,
                        -0.2801629304885864,
                        -0.6226873397827148,
                        -0.42614471912384035,
                        0.7502574920654297,
                        0.06694614887237549,
                        0.2723328769207001,
                        0.13138258457183839
                    ],
                    "Bias": 0.8063488006591797
                },
                {
                    "Value": 0.34061121940612795,
                    "PreviousLayerNeuronValues": [
                        0.38511914014816286,
                        0.665399432182312,
                        0.49978283047676089,
                        0.2756037414073944,
                        0.4285590350627899,
                        0.481591135263443,
                        0.6904873251914978,
                        0.6315262317657471,
                        0.42489543557167055,
                        0.613476574420929,
                        0.3483561873435974,
                        0.5326379537582398,
                        0.5350828766822815,
                        0.7078718543052673,
                        0.2761552035808563,
                        0.5121378898620606
                    ],
                    "Weights": [
                        -0.288936972618103,
                        0.06990230083465576,
                        -0.08500993251800537,
                        0.3600136935710907,
                        -0.9794180393218994,
                        0.9379861354827881,
                        0.1540764570236206,
                        -0.7356107234954834,
                        -0.5531706809997559,
                        0.046802401542663577,
                        -0.28896915912628176,
                        -0.216436505317688,
                        0.4709484279155731,
                        -0.2175365686416626,
                        0.8362691402435303,
                        -0.46728575229644778
                    ],
                    "Bias": 0.006278634071350098
                },
                {
                    "Value": 0.6068323850631714,
                    "PreviousLayerNeuronValues": [
                        0.38511914014816286,
                        0.665399432182312,
                        0.49978283047676089,
                        0.2756037414073944,
                        0.4285590350627899,
                        0.481591135263443,
                        0.6904873251914978,
                        0.6315262317657471,
                        0.42489543557167055,
                        0.613476574420929,
                        0.3483561873435974,
                        0.5326379537582398,
                        0.5350828766822815,
                        0.7078718543052673,
                        0.2761552035808563,
                        0.5121378898620606
                    ],
                    "Weights": [
                        0.13040435314178468,
                        0.6561963558197022,
                        0.9618470668792725,
                        -0.790255069732666,
                        0.5617055892944336,
                        0.5450825691223145,
                        0.2945983111858368,
                        -0.8845813274383545,
                        0.47959229350090029,
                        -0.5592527389526367,
                        -0.6645717620849609,
                        -0.7081749439239502,
                        -0.08917701244354248,
                        0.33451029658317568,
                        0.5624122619628906,
                        -0.449637770652771
                    ],
                    "Bias": 0.1701449155807495
                },
                {
                    "Value": 0.13305123150348664,
                    "PreviousLayerNeuronValues": [
                        0.38511914014816286,
                        0.665399432182312,
                        0.49978283047676089,
                        0.2756037414073944,
                        0.4285590350627899,
                        0.481591135263443,
                        0.6904873251914978,
                        0.6315262317657471,
                        0.42489543557167055,
                        0.613476574420929,
                        0.3483561873435974,
                        0.5326379537582398,
                        0.5350828766822815,
                        0.7078718543052673,
                        0.2761552035808563,
                        0.5121378898620606
                    ],
                    "Weights": [
                        0.9442989826202393,
                        0.6078696250915527,
                        -0.012888550758361817,
                        -0.73154616355896,
                        0.9516429901123047,
                        -0.6889560222625732,
                        -0.9258115291595459,
                        -0.4965149164199829,
                        -0.46605241298675539,
                        0.8777706623077393,
                        0.9443957805633545,
                        -0.8220076560974121,
                        -0.9371676445007324,
                        -0.9523744583129883,
                        -0.21369516849517823,
                        0.839893102645874
                    ],
                    "Bias": -0.9846763610839844
                },
                {
                    "Value": 0.14606812596321107,
                    "PreviousLayerNeuronValues": [
                        0.38511914014816286,
                        0.665399432182312,
                        0.49978283047676089,
                        0.2756037414073944,
                        0.4285590350627899,
                        0.481591135263443,
                        0.6904873251914978,
                        0.6315262317657471,
                        0.42489543557167055,
                        0.613476574420929,
                        0.3483561873435974,
                        0.5326379537582398,
                        0.5350828766822815,
                        0.7078718543052673,
                        0.2761552035808563,
                        0.5121378898620606
                    ],
                    "Weights": [
                        -0.6252233982086182,
                        -0.9204766750335693,
                        -0.7299880981445313,
                        0.46838733553886416,
                        0.7934002876281738,
                        -0.06658947467803955,
                        -0.3155878782272339,
                        0.6526525020599365,
                        0.23866522312164308,
                        0.23861300945281983,
                        0.7270824909210205,
                        -0.7207019329071045,
                        -0.8437089920043945,
                        0.31828901171684267,
                        -0.32345354557037356,
                        -0.34280240535736086
                    ],
                    "Bias": -0.8051395416259766
                }
            ]
        }
    ],
    "InputLayer": {
        "Neurons": [],
        "InputNeurons": [
            {
                "Value": 0.0
            },
            {
                "Value": 0.0
            },
            {
                "Value": 0.0
            },
            {
                "Value": 0.0
            },
            {
                "Value": 0.0
            },
            {
                "Value": 0.0
            },
            {
                "Value": 0.0
            }
        ]
    },
    "OutputLayer": {
        "Neurons": [
            {
                "Value": 0.7153307199478149,
                "PreviousLayerNeuronValues": [
                    0.4072604179382324,
                    0.048752542585134509,
                    0.31377971172332766,
                    0.43709057569503786,
                    0.4203305244445801,
                    0.3790004253387451,
                    0.4709097445011139,
                    0.6123321652412415,
                    0.547065258026123,
                    0.1318477988243103,
                    0.7023106217384338,
                    0.5713807344436646,
                    0.34061121940612795,
                    0.6068323850631714,
                    0.13305123150348664,
                    0.14606812596321107
                ],
                "Weights": [
                    0.24665653705596925,
                    0.19649779796600343,
                    0.19351494312286378,
                    0.125008225440979,
                    0.976813793182373,
                    0.2356961965560913,
                    -0.49518072605133059,
                    -0.23334014415740968,
                    -0.1914891004562378,
                    0.6244235038757324,
                    0.18401849269866944,
                    0.3260955512523651,
                    0.7820837497711182,
                    0.3334662616252899,
                    0.11405289173126221,
                    0.4032752215862274
                ],
                "Bias": -0.2637835741043091
            },
            {
                "Value": 0.569627046585083,
                "PreviousLayerNeuronValues": [
                    0.4072604179382324,
                    0.048752542585134509,
                    0.31377971172332766,
                    0.43709057569503786,
                    0.4203305244445801,
                    0.3790004253387451,
                    0.4709097445011139,
                    0.6123321652412415,
                    0.547065258026123,
                    0.1318477988243103,
                    0.7023106217384338,
                    0.5713807344436646,
                    0.34061121940612795,
                    0.6068323850631714,
                    0.13305123150348664,
                    0.14606812596321107
                ],
                "Weights": [
                    0.5184509754180908,
                    -0.578441858291626,
                    -0.32768476009368899,
                    -0.11544954776763916,
                    -0.23755371570587159,
                    0.5085659027099609,
                    0.7990565299987793,
                    0.8783440589904785,
                    -0.5257012844085693,
                    -0.8204388618469238,
                    0.7243077754974365,
                    -0.44572365283966067,
                    0.3066549003124237,
                    -0.23654425144195558,
                    -0.44116175174713137,
                    -0.9171257019042969
                ],
                "Bias": -0.38284194469451907
            },
            {
                "Value": 0.8268779516220093,
                "PreviousLayerNeuronValues": [
                    0.4072604179382324,
                    0.048752542585134509,
                    0.31377971172332766,
                    0.43709057569503786,
                    0.4203305244445801,
                    0.3790004253387451,
                    0.4709097445011139,
                    0.6123321652412415,
                    0.547065258026123,
                    0.1318477988243103,
                    0.7023106217384338,
                    0.5713807344436646,
                    0.34061121940612795,
                    0.6068323850631714,
                    0.13305123150348664,
                    0.14606812596321107
                ],
                "Weights": [
                    -0.6192307472229004,
                    0.15788638591766358,
                    -0.8253488540649414,
                    -0.5665700435638428,
                    -0.3563123941421509,
                    -0.36262452602386477,
                    0.8575749397277832,
                    0.8538086414337158,
                    0.8326842784881592,
                    -0.46156227588653567,
                    -0.3913623094558716,
                    0.5530626773834229,
                    0.7909631729125977,
                    0.49075815081596377,
                    -0.9144954681396484,
                    -0.6360030174255371
                ],
                "Bias": 0.8868474960327148
            },
            {
                "Value": 0.3488321304321289,
                "PreviousLayerNeuronValues": [
                    0.4072604179382324,
                    0.048752542585134509,
                    0.31377971172332766,
                    0.43709057569503786,
                    0.4203305244445801,
                    0.3790004253387451,
                    0.4709097445011139,
                    0.6123321652412415,
                    0.547065258026123,
                    0.1318477988243103,
                    0.7023106217384338,
                    0.5713807344436646,
                    0.34061121940612795,
                    0.6068323850631714,
                    0.13305123150348664,
                    0.14606812596321107
                ],
                "Weights": [
                    0.1489790678024292,
                    -0.7041776180267334,
                    -0.8417956829071045,
                    -0.362815260887146,
                    0.21416842937469483,
                    -0.9809937477111816,
                    -0.1385582685470581,
                    0.06155979633331299,
                    -0.8460874557495117,
                    0.49998947978019717,
                    -0.8973841667175293,
                    0.6003680229187012,
                    0.8251829147338867,
                    0.4705674350261688,
                    0.7825837135314941,
                    0.8597054481506348
                ],
                "Bias": -0.03064429759979248
            },
            {
                "Value": 0.2463870644569397,
                "PreviousLayerNeuronValues": [
                    0.4072604179382324,
                    0.048752542585134509,
                    0.31377971172332766,
                    0.43709057569503786,
                    0.4203305244445801,
                    0.3790004253387451,
                    0.4709097445011139,
                    0.6123321652412415,
                    0.547065258026123,
                    0.1318477988243103,
                    0.7023106217384338,
                    0.5713807344436646,
                    0.34061121940612795,
                    0.6068323850631714,
                    0.13305123150348664,
                    0.14606812596321107
                ],
                "Weights": [
                    -0.7481863498687744,
                    -0.7095475196838379,
                    -0.12364017963409424,
                    -0.179587721824646,
                    0.41170546412467959,
                    -0.38514769077301028,
                    0.3576831519603729,
                    -0.7835328578948975,
                    -0.5703051090240479,
                    0.11335933208465576,
                    0.8118448257446289,
                    0.2769932448863983,
                    -0.9324467182159424,
                    0.37431785464286806,
                    0.8409123420715332,
                    0.5780630111694336
                ],
                "Bias": -0.9143750667572022
            },
            {
                "Value": 0.5374859571456909,
                "PreviousLayerNeuronValues": [
                    0.4072604179382324,
                    0.048752542585134509,
                    0.31377971172332766,
                    0.43709057569503786,
                    0.4203305244445801,
                    0.3790004253387451,
                    0.4709097445011139,
                    0.6123321652412415,
                    0.547065258026123,
                    0.1318477988243103,
                    0.7023106217384338,
                    0.5713807344436646,
                    0.34061121940612795,
                    0.6068323850631714,
                    0.13305123150348664,
                    0.14606812596321107
                ],
                "Weights": [
                    -0.9298133850097656,
                    0.6143264770507813,
                    0.8356461524963379,
                    0.4026155173778534,
                    -0.18344438076019288,
                    0.47681185603141787,
                    0.6110773086547852,
                    -0.7002546787261963,
                    0.2554747760295868,
                    -0.6013169288635254,
                    0.23770582675933839,
                    0.5907089710235596,
                    0.10295403003692627,
                    -0.11619913578033447,
                    0.4969916045665741,
                    0.029543757438659669
                ],
                "Bias": -0.5017514228820801
            }
        ]
    },
    "SaveFile": {
        "instanceID": 25826
    },
    "InitData": {
        "instanceID": 42136
    }
}