{
    "HiddenLayers": [
        {
            "HiddenNeurons": [
                {
                    "Value": 39.73646545410156,
                    "PreviousLayerNeuronValues": [
                        0.005764021538197994,
                        -0.06156707927584648,
                        -0.028962546959519388,
                        -0.027580654248595239,
                        -0.061774253845214847,
                        0.007777581922709942,
                        0.01384968776255846,
                        -0.15848170220851899,
                        -0.033381856977939609,
                        -0.02920510433614254,
                        -0.15839934349060059,
                        0.013989825733006,
                        0.04377443715929985,
                        -0.21209025382995606,
                        -0.029632557183504106,
                        -0.02068451978266239,
                        -0.21213850378990174,
                        0.042635902762413028,
                        -0.7309497594833374,
                        0.002229205798357725,
                        -0.23541957139968873
                    ],
                    "Weights": [
                        -368.6412353515625,
                        -213.58563232421876,
                        -248.005615234375,
                        413.1902160644531,
                        -147.5603485107422,
                        113.11968994140625,
                        -164.76364135742188,
                        708.357177734375,
                        39.08164978027344,
                        128.96270751953126,
                        333.60345458984377,
                        263.74481201171877,
                        -118.63375854492188,
                        71.85893249511719,
                        242.91036987304688,
                        -101.08601379394531,
                        59.07099533081055,
                        284.455322265625,
                        -333.1444396972656,
                        98.5465316772461,
                        491.383544921875
                    ],
                    "Bias": 89.5906982421875
                },
                {
                    "Value": 0.0,
                    "PreviousLayerNeuronValues": [
                        0.005764021538197994,
                        -0.06156707927584648,
                        -0.028962546959519388,
                        -0.027580654248595239,
                        -0.061774253845214847,
                        0.007777581922709942,
                        0.01384968776255846,
                        -0.15848170220851899,
                        -0.033381856977939609,
                        -0.02920510433614254,
                        -0.15839934349060059,
                        0.013989825733006,
                        0.04377443715929985,
                        -0.21209025382995606,
                        -0.029632557183504106,
                        -0.02068451978266239,
                        -0.21213850378990174,
                        0.042635902762413028,
                        -0.7309497594833374,
                        0.002229205798357725,
                        -0.23541957139968873
                    ],
                    "Weights": [
                        -228.46139526367188,
                        -196.71401977539063,
                        481.6167297363281,
                        341.90289306640627,
                        -76.12056732177735,
                        197.60293579101563,
                        -353.882080078125,
                        268.7885437011719,
                        275.7779541015625,
                        265.31256103515627,
                        123.14437866210938,
                        -151.01817321777345,
                        -365.7734375,
                        -337.8101806640625,
                        28.198789596557618,
                        253.7919921875,
                        -107.60914611816406,
                        -235.8760528564453,
                        -6.084449768066406,
                        29.869400024414064,
                        12.21234130859375
                    ],
                    "Bias": -0.024158477783203126
                },
                {
                    "Value": 61.126220703125,
                    "PreviousLayerNeuronValues": [
                        0.005764021538197994,
                        -0.06156707927584648,
                        -0.028962546959519388,
                        -0.027580654248595239,
                        -0.061774253845214847,
                        0.007777581922709942,
                        0.01384968776255846,
                        -0.15848170220851899,
                        -0.033381856977939609,
                        -0.02920510433614254,
                        -0.15839934349060059,
                        0.013989825733006,
                        0.04377443715929985,
                        -0.21209025382995606,
                        -0.029632557183504106,
                        -0.02068451978266239,
                        -0.21213850378990174,
                        0.042635902762413028,
                        -0.7309497594833374,
                        0.002229205798357725,
                        -0.23541957139968873
                    ],
                    "Weights": [
                        90.91321563720703,
                        -52.6605339050293,
                        -273.6447448730469,
                        27.965002059936525,
                        51.48469543457031,
                        -302.3779602050781,
                        362.9017333984375,
                        73.14112854003906,
                        -357.6473693847656,
                        -289.35491943359377,
                        123.68260192871094,
                        3.031574249267578,
                        -53.259033203125,
                        132.38877868652345,
                        308.3563537597656,
                        136.17495727539063,
                        521.5040893554688,
                        -31.27322006225586,
                        311.783447265625,
                        -587.97802734375,
                        -335.3468933105469
                    ],
                    "Bias": 366.05267333984377
                },
                {
                    "Value": 0.0,
                    "PreviousLayerNeuronValues": [
                        0.005764021538197994,
                        -0.06156707927584648,
                        -0.028962546959519388,
                        -0.027580654248595239,
                        -0.061774253845214847,
                        0.007777581922709942,
                        0.01384968776255846,
                        -0.15848170220851899,
                        -0.033381856977939609,
                        -0.02920510433614254,
                        -0.15839934349060059,
                        0.013989825733006,
                        0.04377443715929985,
                        -0.21209025382995606,
                        -0.029632557183504106,
                        -0.02068451978266239,
                        -0.21213850378990174,
                        0.042635902762413028,
                        -0.7309497594833374,
                        0.002229205798357725,
                        -0.23541957139968873
                    ],
                    "Weights": [
                        -136.00428771972657,
                        -386.0222473144531,
                        -337.7471008300781,
                        542.9428100585938,
                        224.89028930664063,
                        -224.65139770507813,
                        -301.69171142578127,
                        -290.224365234375,
                        554.6160888671875,
                        -331.6034240722656,
                        -380.73358154296877,
                        -364.60888671875,
                        -228.89964294433595,
                        289.103271484375,
                        252.09608459472657,
                        -265.9698486328125,
                        261.9078674316406,
                        290.8399353027344,
                        519.5723266601563,
                        402.9549865722656,
                        -205.89404296875
                    ],
                    "Bias": -207.07196044921876
                },
                {
                    "Value": 0.69390869140625,
                    "PreviousLayerNeuronValues": [
                        0.005764021538197994,
                        -0.06156707927584648,
                        -0.028962546959519388,
                        -0.027580654248595239,
                        -0.061774253845214847,
                        0.007777581922709942,
                        0.01384968776255846,
                        -0.15848170220851899,
                        -0.033381856977939609,
                        -0.02920510433614254,
                        -0.15839934349060059,
                        0.013989825733006,
                        0.04377443715929985,
                        -0.21209025382995606,
                        -0.029632557183504106,
                        -0.02068451978266239,
                        -0.21213850378990174,
                        0.042635902762413028,
                        -0.7309497594833374,
                        0.002229205798357725,
                        -0.23541957139968873
                    ],
                    "Weights": [
                        -277.9410400390625,
                        -26.13385772705078,
                        74.72356414794922,
                        18.055564880371095,
                        -72.3594970703125,
                        -274.91131591796877,
                        -330.1710205078125,
                        -545.6183471679688,
                        4.495965957641602,
                        -154.83786010742188,
                        171.1345672607422,
                        413.1739501953125,
                        -310.30352783203127,
                        -493.1820983886719,
                        441.5447692871094,
                        -132.27957153320313,
                        -40.71722412109375,
                        233.56048583984376,
                        -384.4084167480469,
                        -60.74629592895508,
                        373.210693359375
                    ],
                    "Bias": -356.17529296875
                },
                {
                    "Value": 0.0,
                    "PreviousLayerNeuronValues": [
                        0.005764021538197994,
                        -0.06156707927584648,
                        -0.028962546959519388,
                        -0.027580654248595239,
                        -0.061774253845214847,
                        0.007777581922709942,
                        0.01384968776255846,
                        -0.15848170220851899,
                        -0.033381856977939609,
                        -0.02920510433614254,
                        -0.15839934349060059,
                        0.013989825733006,
                        0.04377443715929985,
                        -0.21209025382995606,
                        -0.029632557183504106,
                        -0.02068451978266239,
                        -0.21213850378990174,
                        0.042635902762413028,
                        -0.7309497594833374,
                        0.002229205798357725,
                        -0.23541957139968873
                    ],
                    "Weights": [
                        303.6172790527344,
                        80.00862121582031,
                        991.2520141601563,
                        -38.16474151611328,
                        -54.938629150390628,
                        -213.76805114746095,
                        253.40538024902345,
                        179.12171936035157,
                        31.863265991210939,
                        561.986572265625,
                        114.12999725341797,
                        -420.82574462890627,
                        -276.36383056640627,
                        -279.53997802734377,
                        299.3331604003906,
                        -75.90303039550781,
                        318.2412414550781,
                        218.0638885498047,
                        196.73825073242188,
                        319.37481689453127,
                        -305.56439208984377
                    ],
                    "Bias": -104.93445587158203
                },
                {
                    "Value": 0.0,
                    "PreviousLayerNeuronValues": [
                        0.005764021538197994,
                        -0.06156707927584648,
                        -0.028962546959519388,
                        -0.027580654248595239,
                        -0.061774253845214847,
                        0.007777581922709942,
                        0.01384968776255846,
                        -0.15848170220851899,
                        -0.033381856977939609,
                        -0.02920510433614254,
                        -0.15839934349060059,
                        0.013989825733006,
                        0.04377443715929985,
                        -0.21209025382995606,
                        -0.029632557183504106,
                        -0.02068451978266239,
                        -0.21213850378990174,
                        0.042635902762413028,
                        -0.7309497594833374,
                        0.002229205798357725,
                        -0.23541957139968873
                    ],
                    "Weights": [
                        346.83892822265627,
                        -383.33099365234377,
                        -112.33751678466797,
                        127.5606460571289,
                        348.95428466796877,
                        639.7021484375,
                        652.0228271484375,
                        74.6563720703125,
                        34.63701248168945,
                        58.35053253173828,
                        471.60205078125,
                        -11.249214172363282,
                        -151.93804931640626,
                        373.0934143066406,
                        -228.85276794433595,
                        7.207080841064453,
                        -128.22653198242188,
                        -244.06558227539063,
                        898.8195190429688,
                        -332.9889831542969,
                        -145.8009033203125
                    ],
                    "Bias": 96.8924789428711
                },
                {
                    "Value": 0.0,
                    "PreviousLayerNeuronValues": [
                        0.005764021538197994,
                        -0.06156707927584648,
                        -0.028962546959519388,
                        -0.027580654248595239,
                        -0.061774253845214847,
                        0.007777581922709942,
                        0.01384968776255846,
                        -0.15848170220851899,
                        -0.033381856977939609,
                        -0.02920510433614254,
                        -0.15839934349060059,
                        0.013989825733006,
                        0.04377443715929985,
                        -0.21209025382995606,
                        -0.029632557183504106,
                        -0.02068451978266239,
                        -0.21213850378990174,
                        0.042635902762413028,
                        -0.7309497594833374,
                        0.002229205798357725,
                        -0.23541957139968873
                    ],
                    "Weights": [
                        -39.55840301513672,
                        -180.85520935058595,
                        176.24588012695313,
                        -426.3077392578125,
                        262.1735534667969,
                        50.97312545776367,
                        407.3408508300781,
                        -56.410579681396487,
                        -52.599613189697269,
                        113.3805160522461,
                        -116.94224548339844,
                        42.99387741088867,
                        179.03671264648438,
                        135.30067443847657,
                        -22.017257690429689,
                        -280.9841003417969,
                        469.3735046386719,
                        441.6368408203125,
                        426.0138854980469,
                        534.33154296875,
                        -58.50984191894531
                    ],
                    "Bias": -238.38937377929688
                },
                {
                    "Value": 173.75460815429688,
                    "PreviousLayerNeuronValues": [
                        0.005764021538197994,
                        -0.06156707927584648,
                        -0.028962546959519388,
                        -0.027580654248595239,
                        -0.061774253845214847,
                        0.007777581922709942,
                        0.01384968776255846,
                        -0.15848170220851899,
                        -0.033381856977939609,
                        -0.02920510433614254,
                        -0.15839934349060059,
                        0.013989825733006,
                        0.04377443715929985,
                        -0.21209025382995606,
                        -0.029632557183504106,
                        -0.02068451978266239,
                        -0.21213850378990174,
                        0.042635902762413028,
                        -0.7309497594833374,
                        0.002229205798357725,
                        -0.23541957139968873
                    ],
                    "Weights": [
                        12.998794555664063,
                        -606.805419921875,
                        292.4248352050781,
                        -79.18995666503906,
                        -114.26399230957031,
                        -339.53448486328127,
                        321.294677734375,
                        -120.7072982788086,
                        -43.60020446777344,
                        242.8563995361328,
                        -55.01709747314453,
                        -194.52841186523438,
                        -158.35006713867188,
                        192.23797607421876,
                        651.0680541992188,
                        214.60757446289063,
                        -367.7133483886719,
                        -30.330631256103517,
                        -166.0585174560547,
                        84.0059585571289,
                        -12.73814582824707
                    ],
                    "Bias": -15.592044830322266
                },
                {
                    "Value": 0.0,
                    "PreviousLayerNeuronValues": [
                        0.005764021538197994,
                        -0.06156707927584648,
                        -0.028962546959519388,
                        -0.027580654248595239,
                        -0.061774253845214847,
                        0.007777581922709942,
                        0.01384968776255846,
                        -0.15848170220851899,
                        -0.033381856977939609,
                        -0.02920510433614254,
                        -0.15839934349060059,
                        0.013989825733006,
                        0.04377443715929985,
                        -0.21209025382995606,
                        -0.029632557183504106,
                        -0.02068451978266239,
                        -0.21213850378990174,
                        0.042635902762413028,
                        -0.7309497594833374,
                        0.002229205798357725,
                        -0.23541957139968873
                    ],
                    "Weights": [
                        355.588134765625,
                        736.5419311523438,
                        -214.70083618164063,
                        360.99249267578127,
                        52.94753646850586,
                        -22.81907844543457,
                        61.957218170166019,
                        255.76759338378907,
                        -199.84829711914063,
                        257.0191345214844,
                        184.30508422851563,
                        -212.642333984375,
                        -703.5098266601563,
                        284.8643493652344,
                        428.33038330078127,
                        67.99601745605469,
                        99.9998550415039,
                        -114.61012268066406,
                        151.14749145507813,
                        -3.162141799926758,
                        -49.78439712524414
                    ],
                    "Bias": -394.9341125488281
                },
                {
                    "Value": 0.0,
                    "PreviousLayerNeuronValues": [
                        0.005764021538197994,
                        -0.06156707927584648,
                        -0.028962546959519388,
                        -0.027580654248595239,
                        -0.061774253845214847,
                        0.007777581922709942,
                        0.01384968776255846,
                        -0.15848170220851899,
                        -0.033381856977939609,
                        -0.02920510433614254,
                        -0.15839934349060059,
                        0.013989825733006,
                        0.04377443715929985,
                        -0.21209025382995606,
                        -0.029632557183504106,
                        -0.02068451978266239,
                        -0.21213850378990174,
                        0.042635902762413028,
                        -0.7309497594833374,
                        0.002229205798357725,
                        -0.23541957139968873
                    ],
                    "Weights": [
                        -353.5089416503906,
                        -587.5319213867188,
                        -263.6409912109375,
                        195.78692626953126,
                        38.79945373535156,
                        -281.50091552734377,
                        -20.039928436279298,
                        43.96631622314453,
                        -64.26868438720703,
                        97.36908721923828,
                        342.71173095703127,
                        -85.9774398803711,
                        -585.3312377929688,
                        -572.0571899414063,
                        49.65110778808594,
                        86.4642333984375,
                        -230.20135498046876,
                        168.34133911132813,
                        570.4563598632813,
                        -136.74462890625,
                        218.57382202148438
                    ],
                    "Bias": -293.218505859375
                },
                {
                    "Value": 265.3134460449219,
                    "PreviousLayerNeuronValues": [
                        0.005764021538197994,
                        -0.06156707927584648,
                        -0.028962546959519388,
                        -0.027580654248595239,
                        -0.061774253845214847,
                        0.007777581922709942,
                        0.01384968776255846,
                        -0.15848170220851899,
                        -0.033381856977939609,
                        -0.02920510433614254,
                        -0.15839934349060059,
                        0.013989825733006,
                        0.04377443715929985,
                        -0.21209025382995606,
                        -0.029632557183504106,
                        -0.02068451978266239,
                        -0.21213850378990174,
                        0.042635902762413028,
                        -0.7309497594833374,
                        0.002229205798357725,
                        -0.23541957139968873
                    ],
                    "Weights": [
                        -155.59170532226563,
                        -445.8543395996094,
                        -71.38301086425781,
                        246.9677734375,
                        -104.3148193359375,
                        -51.51811218261719,
                        -360.4339904785156,
                        84.03768920898438,
                        18.7299747467041,
                        -63.51686477661133,
                        135.039794921875,
                        123.28254699707031,
                        -134.80015563964845,
                        -123.84253692626953,
                        -19.780868530273439,
                        -339.228271484375,
                        -114.20227813720703,
                        -529.6773071289063,
                        91.15452575683594,
                        207.9014892578125,
                        -40.53084945678711
                    ],
                    "Bias": 301.22003173828127
                },
                {
                    "Value": 2.7521820068359377,
                    "PreviousLayerNeuronValues": [
                        0.005764021538197994,
                        -0.06156707927584648,
                        -0.028962546959519388,
                        -0.027580654248595239,
                        -0.061774253845214847,
                        0.007777581922709942,
                        0.01384968776255846,
                        -0.15848170220851899,
                        -0.033381856977939609,
                        -0.02920510433614254,
                        -0.15839934349060059,
                        0.013989825733006,
                        0.04377443715929985,
                        -0.21209025382995606,
                        -0.029632557183504106,
                        -0.02068451978266239,
                        -0.21213850378990174,
                        0.042635902762413028,
                        -0.7309497594833374,
                        0.002229205798357725,
                        -0.23541957139968873
                    ],
                    "Weights": [
                        -199.20724487304688,
                        53.13639450073242,
                        -330.9518737792969,
                        318.2026062011719,
                        -225.10342407226563,
                        -290.2276611328125,
                        47.574737548828128,
                        437.2023010253906,
                        -31.00658416748047,
                        -62.14118194580078,
                        -208.78564453125,
                        -454.31463623046877,
                        19.40576171875,
                        77.57927703857422,
                        109.94776153564453,
                        -462.626953125,
                        103.8643798828125,
                        116.0333251953125,
                        -418.3056945800781,
                        -4.810487747192383,
                        -1.8877105712890626
                    ],
                    "Bias": -246.035888671875
                },
                {
                    "Value": 0.0,
                    "PreviousLayerNeuronValues": [
                        0.005764021538197994,
                        -0.06156707927584648,
                        -0.028962546959519388,
                        -0.027580654248595239,
                        -0.061774253845214847,
                        0.007777581922709942,
                        0.01384968776255846,
                        -0.15848170220851899,
                        -0.033381856977939609,
                        -0.02920510433614254,
                        -0.15839934349060059,
                        0.013989825733006,
                        0.04377443715929985,
                        -0.21209025382995606,
                        -0.029632557183504106,
                        -0.02068451978266239,
                        -0.21213850378990174,
                        0.042635902762413028,
                        -0.7309497594833374,
                        0.002229205798357725,
                        -0.23541957139968873
                    ],
                    "Weights": [
                        -447.1845703125,
                        255.9243621826172,
                        -136.3331298828125,
                        261.4544677734375,
                        139.64654541015626,
                        -105.61845397949219,
                        617.8988647460938,
                        -51.856529235839847,
                        83.58466339111328,
                        724.1478881835938,
                        492.81634521484377,
                        89.16199493408203,
                        37.58385467529297,
                        -150.521240234375,
                        342.3260803222656,
                        -209.67074584960938,
                        120.71692657470703,
                        -185.20677185058595,
                        -250.88157653808595,
                        71.02250671386719,
                        439.46881103515627
                    ],
                    "Bias": -126.17514038085938
                },
                {
                    "Value": 241.27096557617188,
                    "PreviousLayerNeuronValues": [
                        0.005764021538197994,
                        -0.06156707927584648,
                        -0.028962546959519388,
                        -0.027580654248595239,
                        -0.061774253845214847,
                        0.007777581922709942,
                        0.01384968776255846,
                        -0.15848170220851899,
                        -0.033381856977939609,
                        -0.02920510433614254,
                        -0.15839934349060059,
                        0.013989825733006,
                        0.04377443715929985,
                        -0.21209025382995606,
                        -0.029632557183504106,
                        -0.02068451978266239,
                        -0.21213850378990174,
                        0.042635902762413028,
                        -0.7309497594833374,
                        0.002229205798357725,
                        -0.23541957139968873
                    ],
                    "Weights": [
                        211.51815795898438,
                        295.2802734375,
                        464.0680236816406,
                        -73.64820861816406,
                        363.17523193359377,
                        519.7767944335938,
                        285.66943359375,
                        91.245361328125,
                        -160.91917419433595,
                        286.6197204589844,
                        712.712890625,
                        400.9952392578125,
                        485.2171325683594,
                        -440.91326904296877,
                        287.8200988769531,
                        -210.3223114013672,
                        -377.1947326660156,
                        268.98291015625,
                        39.15708541870117,
                        -215.8573760986328,
                        -1.8256549835205079
                    ],
                    "Bias": 235.43191528320313
                },
                {
                    "Value": 0.0,
                    "PreviousLayerNeuronValues": [
                        0.005764021538197994,
                        -0.06156707927584648,
                        -0.028962546959519388,
                        -0.027580654248595239,
                        -0.061774253845214847,
                        0.007777581922709942,
                        0.01384968776255846,
                        -0.15848170220851899,
                        -0.033381856977939609,
                        -0.02920510433614254,
                        -0.15839934349060059,
                        0.013989825733006,
                        0.04377443715929985,
                        -0.21209025382995606,
                        -0.029632557183504106,
                        -0.02068451978266239,
                        -0.21213850378990174,
                        0.042635902762413028,
                        -0.7309497594833374,
                        0.002229205798357725,
                        -0.23541957139968873
                    ],
                    "Weights": [
                        499.2052307128906,
                        172.75088500976563,
                        -33.33436584472656,
                        -236.82810974121095,
                        -524.4310302734375,
                        685.885009765625,
                        -45.0594596862793,
                        165.6750946044922,
                        -258.55084228515627,
                        -324.7104187011719,
                        -18.087156295776368,
                        -208.91600036621095,
                        -59.703609466552737,
                        82.70343780517578,
                        -297.93414306640627,
                        412.09747314453127,
                        86.76983642578125,
                        -317.8853759765625,
                        215.25057983398438,
                        -57.5796012878418,
                        91.45718383789063
                    ],
                    "Bias": -0.6675052642822266
                },
                {
                    "Value": 205.525146484375,
                    "PreviousLayerNeuronValues": [
                        0.005764021538197994,
                        -0.06156707927584648,
                        -0.028962546959519388,
                        -0.027580654248595239,
                        -0.061774253845214847,
                        0.007777581922709942,
                        0.01384968776255846,
                        -0.15848170220851899,
                        -0.033381856977939609,
                        -0.02920510433614254,
                        -0.15839934349060059,
                        0.013989825733006,
                        0.04377443715929985,
                        -0.21209025382995606,
                        -0.029632557183504106,
                        -0.02068451978266239,
                        -0.21213850378990174,
                        0.042635902762413028,
                        -0.7309497594833374,
                        0.002229205798357725,
                        -0.23541957139968873
                    ],
                    "Weights": [
                        -784.5242919921875,
                        -0.9968891143798828,
                        -122.55480194091797,
                        -85.31658935546875,
                        -433.3139953613281,
                        -71.57465362548828,
                        186.2581024169922,
                        -8.781234741210938,
                        73.7780990600586,
                        156.56141662597657,
                        39.35366439819336,
                        -295.439453125,
                        623.8822021484375,
                        -42.362213134765628,
                        -662.1864624023438,
                        -78.23521423339844,
                        196.4281005859375,
                        333.4516906738281,
                        452.7792053222656,
                        -727.8095092773438,
                        149.09927368164063
                    ],
                    "Bias": 528.90283203125
                },
                {
                    "Value": 0.0,
                    "PreviousLayerNeuronValues": [
                        0.005764021538197994,
                        -0.06156707927584648,
                        -0.028962546959519388,
                        -0.027580654248595239,
                        -0.061774253845214847,
                        0.007777581922709942,
                        0.01384968776255846,
                        -0.15848170220851899,
                        -0.033381856977939609,
                        -0.02920510433614254,
                        -0.15839934349060059,
                        0.013989825733006,
                        0.04377443715929985,
                        -0.21209025382995606,
                        -0.029632557183504106,
                        -0.02068451978266239,
                        -0.21213850378990174,
                        0.042635902762413028,
                        -0.7309497594833374,
                        0.002229205798357725,
                        -0.23541957139968873
                    ],
                    "Weights": [
                        626.4949340820313,
                        175.88735961914063,
                        -65.41425323486328,
                        4.7883758544921879,
                        -371.93670654296877,
                        -221.19972229003907,
                        -140.22537231445313,
                        -233.19549560546876,
                        -142.89956665039063,
                        -649.570068359375,
                        -54.60989761352539,
                        -115.77374267578125,
                        46.206214904785159,
                        -143.30630493164063,
                        -2.67303466796875,
                        199.29869079589845,
                        -202.6090850830078,
                        9.850301742553711,
                        286.6382141113281,
                        -543.3169555664063,
                        -221.1341552734375
                    ],
                    "Bias": -468.69317626953127
                },
                {
                    "Value": 239.38815307617188,
                    "PreviousLayerNeuronValues": [
                        0.005764021538197994,
                        -0.06156707927584648,
                        -0.028962546959519388,
                        -0.027580654248595239,
                        -0.061774253845214847,
                        0.007777581922709942,
                        0.01384968776255846,
                        -0.15848170220851899,
                        -0.033381856977939609,
                        -0.02920510433614254,
                        -0.15839934349060059,
                        0.013989825733006,
                        0.04377443715929985,
                        -0.21209025382995606,
                        -0.029632557183504106,
                        -0.02068451978266239,
                        -0.21213850378990174,
                        0.042635902762413028,
                        -0.7309497594833374,
                        0.002229205798357725,
                        -0.23541957139968873
                    ],
                    "Weights": [
                        14.43405532836914,
                        -64.14615631103516,
                        -167.28155517578126,
                        262.9078674316406,
                        -238.51255798339845,
                        -260.37408447265627,
                        870.7971801757813,
                        65.52603149414063,
                        195.056884765625,
                        127.14723205566406,
                        -378.51611328125,
                        396.4151916503906,
                        -24.27350616455078,
                        53.4849853515625,
                        361.1766052246094,
                        -104.98728942871094,
                        -110.1086654663086,
                        -115.01702880859375,
                        -331.8195495605469,
                        -19.230728149414064,
                        -263.0163269042969
                    ],
                    "Bias": -133.8372802734375
                },
                {
                    "Value": 83.66781616210938,
                    "PreviousLayerNeuronValues": [
                        0.005764021538197994,
                        -0.06156707927584648,
                        -0.028962546959519388,
                        -0.027580654248595239,
                        -0.061774253845214847,
                        0.007777581922709942,
                        0.01384968776255846,
                        -0.15848170220851899,
                        -0.033381856977939609,
                        -0.02920510433614254,
                        -0.15839934349060059,
                        0.013989825733006,
                        0.04377443715929985,
                        -0.21209025382995606,
                        -0.029632557183504106,
                        -0.02068451978266239,
                        -0.21213850378990174,
                        0.042635902762413028,
                        -0.7309497594833374,
                        0.002229205798357725,
                        -0.23541957139968873
                    ],
                    "Weights": [
                        -364.24151611328127,
                        -197.67295837402345,
                        253.73342895507813,
                        -37.480552673339847,
                        26.26070785522461,
                        -57.19429016113281,
                        251.58563232421876,
                        -23.458938598632814,
                        -226.79478454589845,
                        -94.88179016113281,
                        176.24977111816407,
                        -5.932609558105469,
                        923.5767822265625,
                        248.00665283203126,
                        342.7149658203125,
                        258.0946044921875,
                        -20.009197235107423,
                        -208.89138793945313,
                        82.96784210205078,
                        -340.97821044921877,
                        -79.04862976074219
                    ],
                    "Bias": 167.55825805664063
                },
                {
                    "Value": 157.71176147460938,
                    "PreviousLayerNeuronValues": [
                        0.005764021538197994,
                        -0.06156707927584648,
                        -0.028962546959519388,
                        -0.027580654248595239,
                        -0.061774253845214847,
                        0.007777581922709942,
                        0.01384968776255846,
                        -0.15848170220851899,
                        -0.033381856977939609,
                        -0.02920510433614254,
                        -0.15839934349060059,
                        0.013989825733006,
                        0.04377443715929985,
                        -0.21209025382995606,
                        -0.029632557183504106,
                        -0.02068451978266239,
                        -0.21213850378990174,
                        0.042635902762413028,
                        -0.7309497594833374,
                        0.002229205798357725,
                        -0.23541957139968873
                    ],
                    "Weights": [
                        29.89202880859375,
                        -130.13958740234376,
                        160.0184326171875,
                        161.9636993408203,
                        236.88267517089845,
                        277.65838623046877,
                        -171.99942016601563,
                        221.16563415527345,
                        391.2557067871094,
                        299.7459411621094,
                        391.4433288574219,
                        -165.64111328125,
                        -100.4532241821289,
                        -328.752197265625,
                        -454.349609375,
                        -286.7732238769531,
                        159.41806030273438,
                        208.89382934570313,
                        103.71788787841797,
                        -65.68653869628906,
                        -85.14263916015625
                    ],
                    "Bias": 290.77587890625
                },
                {
                    "Value": 0.0,
                    "PreviousLayerNeuronValues": [
                        0.005764021538197994,
                        -0.06156707927584648,
                        -0.028962546959519388,
                        -0.027580654248595239,
                        -0.061774253845214847,
                        0.007777581922709942,
                        0.01384968776255846,
                        -0.15848170220851899,
                        -0.033381856977939609,
                        -0.02920510433614254,
                        -0.15839934349060059,
                        0.013989825733006,
                        0.04377443715929985,
                        -0.21209025382995606,
                        -0.029632557183504106,
                        -0.02068451978266239,
                        -0.21213850378990174,
                        0.042635902762413028,
                        -0.7309497594833374,
                        0.002229205798357725,
                        -0.23541957139968873
                    ],
                    "Weights": [
                        -145.68353271484376,
                        -295.6882019042969,
                        -41.071044921875,
                        366.3995666503906,
                        -278.7070007324219,
                        -419.99554443359377,
                        -28.69165802001953,
                        260.2325439453125,
                        -384.3000793457031,
                        -321.8091735839844,
                        -13.800802230834961,
                        -353.8463439941406,
                        -90.615478515625,
                        82.72161865234375,
                        107.77208709716797,
                        321.9560852050781,
                        -234.2403106689453,
                        -245.97811889648438,
                        -150.6895751953125,
                        478.4013366699219,
                        -41.857601165771487
                    ],
                    "Bias": -185.68161010742188
                },
                {
                    "Value": 0.0,
                    "PreviousLayerNeuronValues": [
                        0.005764021538197994,
                        -0.06156707927584648,
                        -0.028962546959519388,
                        -0.027580654248595239,
                        -0.061774253845214847,
                        0.007777581922709942,
                        0.01384968776255846,
                        -0.15848170220851899,
                        -0.033381856977939609,
                        -0.02920510433614254,
                        -0.15839934349060059,
                        0.013989825733006,
                        0.04377443715929985,
                        -0.21209025382995606,
                        -0.029632557183504106,
                        -0.02068451978266239,
                        -0.21213850378990174,
                        0.042635902762413028,
                        -0.7309497594833374,
                        0.002229205798357725,
                        -0.23541957139968873
                    ],
                    "Weights": [
                        -236.21031188964845,
                        -36.20692443847656,
                        20.670011520385743,
                        -269.89276123046877,
                        11.042800903320313,
                        16.462331771850587,
                        65.35843658447266,
                        368.67169189453127,
                        -237.7635955810547,
                        -91.83418273925781,
                        281.4162292480469,
                        -147.8286895751953,
                        195.5979766845703,
                        -306.1984558105469,
                        -560.5403442382813,
                        79.07760620117188,
                        312.00189208984377,
                        41.54722213745117,
                        -335.2314147949219,
                        328.914794921875,
                        -91.81757354736328
                    ],
                    "Bias": -240.3851318359375
                },
                {
                    "Value": 0.0,
                    "PreviousLayerNeuronValues": [
                        0.005764021538197994,
                        -0.06156707927584648,
                        -0.028962546959519388,
                        -0.027580654248595239,
                        -0.061774253845214847,
                        0.007777581922709942,
                        0.01384968776255846,
                        -0.15848170220851899,
                        -0.033381856977939609,
                        -0.02920510433614254,
                        -0.15839934349060059,
                        0.013989825733006,
                        0.04377443715929985,
                        -0.21209025382995606,
                        -0.029632557183504106,
                        -0.02068451978266239,
                        -0.21213850378990174,
                        0.042635902762413028,
                        -0.7309497594833374,
                        0.002229205798357725,
                        -0.23541957139968873
                    ],
                    "Weights": [
                        -717.37060546875,
                        345.2081604003906,
                        -362.08819580078127,
                        -106.45317840576172,
                        286.7570495605469,
                        163.05136108398438,
                        40.001155853271487,
                        205.39218139648438,
                        265.8777770996094,
                        -41.94561004638672,
                        -527.1139526367188,
                        185.5072021484375,
                        -10.749061584472657,
                        -66.70753479003906,
                        -39.36306381225586,
                        -112.65030670166016,
                        -260.9334716796875,
                        175.24264526367188,
                        389.0802307128906,
                        204.01983642578126,
                        436.4107666015625
                    ],
                    "Bias": -340.6287841796875
                },
                {
                    "Value": 187.60678100585938,
                    "PreviousLayerNeuronValues": [
                        0.005764021538197994,
                        -0.06156707927584648,
                        -0.028962546959519388,
                        -0.027580654248595239,
                        -0.061774253845214847,
                        0.007777581922709942,
                        0.01384968776255846,
                        -0.15848170220851899,
                        -0.033381856977939609,
                        -0.02920510433614254,
                        -0.15839934349060059,
                        0.013989825733006,
                        0.04377443715929985,
                        -0.21209025382995606,
                        -0.029632557183504106,
                        -0.02068451978266239,
                        -0.21213850378990174,
                        0.042635902762413028,
                        -0.7309497594833374,
                        0.002229205798357725,
                        -0.23541957139968873
                    ],
                    "Weights": [
                        -99.31327819824219,
                        444.6582336425781,
                        420.968505859375,
                        -462.3314514160156,
                        43.21721649169922,
                        -19.592864990234376,
                        544.2041015625,
                        237.0791015625,
                        70.08321380615235,
                        567.509765625,
                        -149.765625,
                        -129.58599853515626,
                        -778.5196533203125,
                        -296.20404052734377,
                        -187.35006713867188,
                        644.17333984375,
                        268.4844055175781,
                        -620.4502563476563,
                        -449.2372131347656,
                        270.4476013183594,
                        -75.87406158447266
                    ],
                    "Bias": -39.537628173828128
                },
                {
                    "Value": 377.6285400390625,
                    "PreviousLayerNeuronValues": [
                        0.005764021538197994,
                        -0.06156707927584648,
                        -0.028962546959519388,
                        -0.027580654248595239,
                        -0.061774253845214847,
                        0.007777581922709942,
                        0.01384968776255846,
                        -0.15848170220851899,
                        -0.033381856977939609,
                        -0.02920510433614254,
                        -0.15839934349060059,
                        0.013989825733006,
                        0.04377443715929985,
                        -0.21209025382995606,
                        -0.029632557183504106,
                        -0.02068451978266239,
                        -0.21213850378990174,
                        0.042635902762413028,
                        -0.7309497594833374,
                        0.002229205798357725,
                        -0.23541957139968873
                    ],
                    "Weights": [
                        178.9927215576172,
                        -161.0508575439453,
                        -227.4276885986328,
                        -69.35234069824219,
                        -1068.33740234375,
                        327.78076171875,
                        248.57723999023438,
                        -214.658935546875,
                        -393.0852966308594,
                        233.68801879882813,
                        -203.5830078125,
                        591.9459838867188,
                        3.578166961669922,
                        -546.0215454101563,
                        350.8943176269531,
                        352.790283203125,
                        -448.1196594238281,
                        -476.0670471191406,
                        -239.31979370117188,
                        103.78610229492188,
                        -149.400390625
                    ],
                    "Bias": -178.01824951171876
                },
                {
                    "Value": 318.1143798828125,
                    "PreviousLayerNeuronValues": [
                        0.005764021538197994,
                        -0.06156707927584648,
                        -0.028962546959519388,
                        -0.027580654248595239,
                        -0.061774253845214847,
                        0.007777581922709942,
                        0.01384968776255846,
                        -0.15848170220851899,
                        -0.033381856977939609,
                        -0.02920510433614254,
                        -0.15839934349060059,
                        0.013989825733006,
                        0.04377443715929985,
                        -0.21209025382995606,
                        -0.029632557183504106,
                        -0.02068451978266239,
                        -0.21213850378990174,
                        0.042635902762413028,
                        -0.7309497594833374,
                        0.002229205798357725,
                        -0.23541957139968873
                    ],
                    "Weights": [
                        -1059.064697265625,
                        -137.58819580078126,
                        -204.62576293945313,
                        205.3962860107422,
                        175.98760986328126,
                        -288.43597412109377,
                        -179.85105895996095,
                        -31.206758499145509,
                        123.60044860839844,
                        -227.7726287841797,
                        -222.10694885253907,
                        -587.8297119140625,
                        -98.48663330078125,
                        -2.2014923095703127,
                        -238.0041961669922,
                        -61.52799987792969,
                        60.32666015625,
                        -9.178707122802735,
                        -189.81192016601563,
                        -121.4333724975586,
                        197.70867919921876
                    ],
                    "Bias": 213.44248962402345
                },
                {
                    "Value": 0.0,
                    "PreviousLayerNeuronValues": [
                        0.005764021538197994,
                        -0.06156707927584648,
                        -0.028962546959519388,
                        -0.027580654248595239,
                        -0.061774253845214847,
                        0.007777581922709942,
                        0.01384968776255846,
                        -0.15848170220851899,
                        -0.033381856977939609,
                        -0.02920510433614254,
                        -0.15839934349060059,
                        0.013989825733006,
                        0.04377443715929985,
                        -0.21209025382995606,
                        -0.029632557183504106,
                        -0.02068451978266239,
                        -0.21213850378990174,
                        0.042635902762413028,
                        -0.7309497594833374,
                        0.002229205798357725,
                        -0.23541957139968873
                    ],
                    "Weights": [
                        -96.077880859375,
                        -127.89143371582031,
                        -824.4981689453125,
                        -4.007102966308594,
                        -114.95162963867188,
                        -115.07589721679688,
                        -281.6167297363281,
                        166.99887084960938,
                        62.29725646972656,
                        -122.77518463134766,
                        -316.6351318359375,
                        -526.2135620117188,
                        183.90243530273438,
                        -45.29246520996094,
                        421.5541687011719,
                        90.84506225585938,
                        -3.8590545654296877,
                        -837.160888671875,
                        -178.10255432128907,
                        232.1339874267578,
                        260.66796875
                    ],
                    "Bias": -94.79863739013672
                },
                {
                    "Value": 39.67152404785156,
                    "PreviousLayerNeuronValues": [
                        0.005764021538197994,
                        -0.06156707927584648,
                        -0.028962546959519388,
                        -0.027580654248595239,
                        -0.061774253845214847,
                        0.007777581922709942,
                        0.01384968776255846,
                        -0.15848170220851899,
                        -0.033381856977939609,
                        -0.02920510433614254,
                        -0.15839934349060059,
                        0.013989825733006,
                        0.04377443715929985,
                        -0.21209025382995606,
                        -0.029632557183504106,
                        -0.02068451978266239,
                        -0.21213850378990174,
                        0.042635902762413028,
                        -0.7309497594833374,
                        0.002229205798357725,
                        -0.23541957139968873
                    ],
                    "Weights": [
                        424.53546142578127,
                        -365.5160827636719,
                        -290.0086669921875,
                        121.29600524902344,
                        183.87750244140626,
                        447.13653564453127,
                        262.0992126464844,
                        20.61359405517578,
                        120.83158111572266,
                        -137.21780395507813,
                        186.3020782470703,
                        412.9052734375,
                        -0.3798637390136719,
                        -702.7337646484375,
                        38.2598762512207,
                        -201.84683227539063,
                        388.6793518066406,
                        -110.6809310913086,
                        48.69342041015625,
                        -2.0683860778808595,
                        339.27850341796877
                    ],
                    "Bias": 91.51966857910156
                },
                {
                    "Value": 70.36190795898438,
                    "PreviousLayerNeuronValues": [
                        0.005764021538197994,
                        -0.06156707927584648,
                        -0.028962546959519388,
                        -0.027580654248595239,
                        -0.061774253845214847,
                        0.007777581922709942,
                        0.01384968776255846,
                        -0.15848170220851899,
                        -0.033381856977939609,
                        -0.02920510433614254,
                        -0.15839934349060059,
                        0.013989825733006,
                        0.04377443715929985,
                        -0.21209025382995606,
                        -0.029632557183504106,
                        -0.02068451978266239,
                        -0.21213850378990174,
                        0.042635902762413028,
                        -0.7309497594833374,
                        0.002229205798357725,
                        -0.23541957139968873
                    ],
                    "Weights": [
                        -326.5111389160156,
                        -194.7410430908203,
                        101.55718231201172,
                        578.1611328125,
                        -123.30366516113281,
                        109.27803802490235,
                        -122.83164978027344,
                        -302.65032958984377,
                        229.38906860351563,
                        -350.973388671875,
                        -72.45870971679688,
                        210.74317932128907,
                        114.56492614746094,
                        -36.08466339111328,
                        -175.5064239501953,
                        205.53662109375,
                        -28.881370544433595,
                        -26.34246253967285,
                        -319.58477783203127,
                        -38.322471618652347,
                        -40.25144577026367
                    ],
                    "Bias": -254.21920776367188
                },
                {
                    "Value": 340.1636047363281,
                    "PreviousLayerNeuronValues": [
                        0.005764021538197994,
                        -0.06156707927584648,
                        -0.028962546959519388,
                        -0.027580654248595239,
                        -0.061774253845214847,
                        0.007777581922709942,
                        0.01384968776255846,
                        -0.15848170220851899,
                        -0.033381856977939609,
                        -0.02920510433614254,
                        -0.15839934349060059,
                        0.013989825733006,
                        0.04377443715929985,
                        -0.21209025382995606,
                        -0.029632557183504106,
                        -0.02068451978266239,
                        -0.21213850378990174,
                        0.042635902762413028,
                        -0.7309497594833374,
                        0.002229205798357725,
                        -0.23541957139968873
                    ],
                    "Weights": [
                        -171.443603515625,
                        301.6780700683594,
                        250.41769409179688,
                        413.1698303222656,
                        262.5368347167969,
                        46.49300003051758,
                        -294.95538330078127,
                        103.72174072265625,
                        -279.45684814453127,
                        94.72418212890625,
                        -31.753498077392579,
                        165.688720703125,
                        -56.250518798828128,
                        -85.68722534179688,
                        411.7919006347656,
                        290.0043640136719,
                        -409.83990478515627,
                        -472.90863037109377,
                        -332.89923095703127,
                        223.6400909423828,
                        751.952392578125
                    ],
                    "Bias": 269.7460632324219
                },
                {
                    "Value": 147.7236328125,
                    "PreviousLayerNeuronValues": [
                        0.005764021538197994,
                        -0.06156707927584648,
                        -0.028962546959519388,
                        -0.027580654248595239,
                        -0.061774253845214847,
                        0.007777581922709942,
                        0.01384968776255846,
                        -0.15848170220851899,
                        -0.033381856977939609,
                        -0.02920510433614254,
                        -0.15839934349060059,
                        0.013989825733006,
                        0.04377443715929985,
                        -0.21209025382995606,
                        -0.029632557183504106,
                        -0.02068451978266239,
                        -0.21213850378990174,
                        0.042635902762413028,
                        -0.7309497594833374,
                        0.002229205798357725,
                        -0.23541957139968873
                    ],
                    "Weights": [
                        56.45013427734375,
                        -432.57568359375,
                        -85.72807312011719,
                        554.1536865234375,
                        -514.7700805664063,
                        -2.473764419555664,
                        -150.8839111328125,
                        82.43795776367188,
                        240.1683807373047,
                        -242.49122619628907,
                        224.71878051757813,
                        410.90362548828127,
                        521.0180053710938,
                        -60.87361526489258,
                        58.02806091308594,
                        -44.60511016845703,
                        160.83949279785157,
                        190.87945556640626,
                        -143.5135955810547,
                        333.8300476074219,
                        -120.4065170288086
                    ],
                    "Bias": 4.792655944824219
                },
                {
                    "Value": 720.5625,
                    "PreviousLayerNeuronValues": [
                        0.005764021538197994,
                        -0.06156707927584648,
                        -0.028962546959519388,
                        -0.027580654248595239,
                        -0.061774253845214847,
                        0.007777581922709942,
                        0.01384968776255846,
                        -0.15848170220851899,
                        -0.033381856977939609,
                        -0.02920510433614254,
                        -0.15839934349060059,
                        0.013989825733006,
                        0.04377443715929985,
                        -0.21209025382995606,
                        -0.029632557183504106,
                        -0.02068451978266239,
                        -0.21213850378990174,
                        0.042635902762413028,
                        -0.7309497594833374,
                        0.002229205798357725,
                        -0.23541957139968873
                    ],
                    "Weights": [
                        283.9613037109375,
                        247.457763671875,
                        62.37742233276367,
                        -356.5282287597656,
                        -119.65070343017578,
                        100.89716339111328,
                        216.85208129882813,
                        41.87626647949219,
                        179.26316833496095,
                        123.13884735107422,
                        591.3280639648438,
                        -76.57096099853516,
                        255.24935913085938,
                        97.63330841064453,
                        -388.506103515625,
                        69.595947265625,
                        -643.3704223632813,
                        116.47410583496094,
                        -562.8321533203125,
                        -297.6703186035156,
                        -478.13128662109377
                    ],
                    "Bias": 160.62045288085938
                },
                {
                    "Value": 0.0,
                    "PreviousLayerNeuronValues": [
                        0.005764021538197994,
                        -0.06156707927584648,
                        -0.028962546959519388,
                        -0.027580654248595239,
                        -0.061774253845214847,
                        0.007777581922709942,
                        0.01384968776255846,
                        -0.15848170220851899,
                        -0.033381856977939609,
                        -0.02920510433614254,
                        -0.15839934349060059,
                        0.013989825733006,
                        0.04377443715929985,
                        -0.21209025382995606,
                        -0.029632557183504106,
                        -0.02068451978266239,
                        -0.21213850378990174,
                        0.042635902762413028,
                        -0.7309497594833374,
                        0.002229205798357725,
                        -0.23541957139968873
                    ],
                    "Weights": [
                        -129.5986328125,
                        -436.079345703125,
                        -132.04364013671876,
                        -177.8744659423828,
                        308.3419494628906,
                        -154.33895874023438,
                        79.56269836425781,
                        -122.46102142333985,
                        -253.83901977539063,
                        -267.8343505859375,
                        120.51951599121094,
                        123.78404235839844,
                        -592.8156127929688,
                        411.881591796875,
                        277.5218200683594,
                        123.68400573730469,
                        154.92074584960938,
                        -134.8170166015625,
                        300.4035949707031,
                        273.6883850097656,
                        32.62696075439453
                    ],
                    "Bias": -325.6863708496094
                },
                {
                    "Value": 424.7264099121094,
                    "PreviousLayerNeuronValues": [
                        0.005764021538197994,
                        -0.06156707927584648,
                        -0.028962546959519388,
                        -0.027580654248595239,
                        -0.061774253845214847,
                        0.007777581922709942,
                        0.01384968776255846,
                        -0.15848170220851899,
                        -0.033381856977939609,
                        -0.02920510433614254,
                        -0.15839934349060059,
                        0.013989825733006,
                        0.04377443715929985,
                        -0.21209025382995606,
                        -0.029632557183504106,
                        -0.02068451978266239,
                        -0.21213850378990174,
                        0.042635902762413028,
                        -0.7309497594833374,
                        0.002229205798357725,
                        -0.23541957139968873
                    ],
                    "Weights": [
                        472.31207275390627,
                        61.3540153503418,
                        -207.1693878173828,
                        160.96823120117188,
                        -148.400146484375,
                        -187.32357788085938,
                        382.00714111328127,
                        -352.7607116699219,
                        62.29435729980469,
                        179.19668579101563,
                        -255.3279571533203,
                        132.64553833007813,
                        -459.8276062011719,
                        -287.41302490234377,
                        -39.67238998413086,
                        106.66730499267578,
                        172.51480102539063,
                        124.71627807617188,
                        41.34540939331055,
                        663.4856567382813,
                        -139.0409393310547
                    ],
                    "Bias": 307.8181457519531
                },
                {
                    "Value": 0.0,
                    "PreviousLayerNeuronValues": [
                        0.005764021538197994,
                        -0.06156707927584648,
                        -0.028962546959519388,
                        -0.027580654248595239,
                        -0.061774253845214847,
                        0.007777581922709942,
                        0.01384968776255846,
                        -0.15848170220851899,
                        -0.033381856977939609,
                        -0.02920510433614254,
                        -0.15839934349060059,
                        0.013989825733006,
                        0.04377443715929985,
                        -0.21209025382995606,
                        -0.029632557183504106,
                        -0.02068451978266239,
                        -0.21213850378990174,
                        0.042635902762413028,
                        -0.7309497594833374,
                        0.002229205798357725,
                        -0.23541957139968873
                    ],
                    "Weights": [
                        262.10693359375,
                        -474.1846923828125,
                        -252.75799560546876,
                        192.17398071289063,
                        215.2615966796875,
                        -201.91030883789063,
                        -87.06104278564453,
                        500.1845703125,
                        103.42964935302735,
                        23.112499237060548,
                        -84.98416137695313,
                        -361.2816467285156,
                        -533.9882202148438,
                        235.50115966796876,
                        -416.9612121582031,
                        -148.48150634765626,
                        -214.4222869873047,
                        334.9683837890625,
                        -139.52684020996095,
                        -193.46478271484376,
                        126.80989074707031
                    ],
                    "Bias": -282.9695739746094
                },
                {
                    "Value": 169.74647521972657,
                    "PreviousLayerNeuronValues": [
                        0.005764021538197994,
                        -0.06156707927584648,
                        -0.028962546959519388,
                        -0.027580654248595239,
                        -0.061774253845214847,
                        0.007777581922709942,
                        0.01384968776255846,
                        -0.15848170220851899,
                        -0.033381856977939609,
                        -0.02920510433614254,
                        -0.15839934349060059,
                        0.013989825733006,
                        0.04377443715929985,
                        -0.21209025382995606,
                        -0.029632557183504106,
                        -0.02068451978266239,
                        -0.21213850378990174,
                        0.042635902762413028,
                        -0.7309497594833374,
                        0.002229205798357725,
                        -0.23541957139968873
                    ],
                    "Weights": [
                        -8.899314880371094,
                        -155.89430236816407,
                        -13.55851936340332,
                        170.78350830078126,
                        -597.2959594726563,
                        -592.4019775390625,
                        479.3982238769531,
                        -141.80233764648438,
                        -239.08755493164063,
                        112.55615234375,
                        -110.57600402832031,
                        -65.76001739501953,
                        211.3590087890625,
                        118.51038360595703,
                        -345.03656005859377,
                        -460.1995849609375,
                        479.6875305175781,
                        120.47396087646485,
                        -461.1653137207031,
                        292.3755798339844,
                        135.27825927734376
                    ],
                    "Bias": -131.30455017089845
                },
                {
                    "Value": 492.4559326171875,
                    "PreviousLayerNeuronValues": [
                        0.005764021538197994,
                        -0.06156707927584648,
                        -0.028962546959519388,
                        -0.027580654248595239,
                        -0.061774253845214847,
                        0.007777581922709942,
                        0.01384968776255846,
                        -0.15848170220851899,
                        -0.033381856977939609,
                        -0.02920510433614254,
                        -0.15839934349060059,
                        0.013989825733006,
                        0.04377443715929985,
                        -0.21209025382995606,
                        -0.029632557183504106,
                        -0.02068451978266239,
                        -0.21213850378990174,
                        0.042635902762413028,
                        -0.7309497594833374,
                        0.002229205798357725,
                        -0.23541957139968873
                    ],
                    "Weights": [
                        -235.4686279296875,
                        -493.3791809082031,
                        -241.87332153320313,
                        -546.0228271484375,
                        -390.9177551269531,
                        -256.7594299316406,
                        -32.391815185546878,
                        -223.83663940429688,
                        -135.19046020507813,
                        58.511314392089847,
                        120.52455139160156,
                        -331.0057373046875,
                        -444.5732421875,
                        -20.990142822265626,
                        95.41002655029297,
                        284.46441650390627,
                        285.3065185546875,
                        -73.77982330322266,
                        -482.0074157714844,
                        -37.44369125366211,
                        224.7164764404297
                    ],
                    "Bias": 193.16635131835938
                },
                {
                    "Value": 137.92982482910157,
                    "PreviousLayerNeuronValues": [
                        0.005764021538197994,
                        -0.06156707927584648,
                        -0.028962546959519388,
                        -0.027580654248595239,
                        -0.061774253845214847,
                        0.007777581922709942,
                        0.01384968776255846,
                        -0.15848170220851899,
                        -0.033381856977939609,
                        -0.02920510433614254,
                        -0.15839934349060059,
                        0.013989825733006,
                        0.04377443715929985,
                        -0.21209025382995606,
                        -0.029632557183504106,
                        -0.02068451978266239,
                        -0.21213850378990174,
                        0.042635902762413028,
                        -0.7309497594833374,
                        0.002229205798357725,
                        -0.23541957139968873
                    ],
                    "Weights": [
                        265.6530456542969,
                        -384.48431396484377,
                        115.70954132080078,
                        43.22936248779297,
                        -61.62041473388672,
                        -156.59738159179688,
                        183.8151092529297,
                        -181.6147918701172,
                        449.6424560546875,
                        -165.93359375,
                        700.0359497070313,
                        -326.7485046386719,
                        -550.988037109375,
                        -401.3206787109375,
                        -4.129810333251953,
                        -526.5371704101563,
                        19.743457794189454,
                        -89.94886779785156,
                        221.0428466796875,
                        422.1078186035156,
                        15.317420959472657
                    ],
                    "Bias": 309.22283935546877
                },
                {
                    "Value": 0.0,
                    "PreviousLayerNeuronValues": [
                        0.005764021538197994,
                        -0.06156707927584648,
                        -0.028962546959519388,
                        -0.027580654248595239,
                        -0.061774253845214847,
                        0.007777581922709942,
                        0.01384968776255846,
                        -0.15848170220851899,
                        -0.033381856977939609,
                        -0.02920510433614254,
                        -0.15839934349060059,
                        0.013989825733006,
                        0.04377443715929985,
                        -0.21209025382995606,
                        -0.029632557183504106,
                        -0.02068451978266239,
                        -0.21213850378990174,
                        0.042635902762413028,
                        -0.7309497594833374,
                        0.002229205798357725,
                        -0.23541957139968873
                    ],
                    "Weights": [
                        -310.2386779785156,
                        226.62356567382813,
                        -255.33700561523438,
                        437.1846618652344,
                        101.51388549804688,
                        254.18211364746095,
                        -329.0861511230469,
                        -310.5726318359375,
                        22.07892608642578,
                        -121.21427917480469,
                        49.22919845581055,
                        -48.983863830566409,
                        41.431640625,
                        36.65208053588867,
                        207.63174438476563,
                        148.00856018066407,
                        265.779296875,
                        -396.5084228515625,
                        249.79449462890626,
                        -36.481651306152347,
                        226.3979949951172
                    ],
                    "Bias": -426.7081604003906
                },
                {
                    "Value": 224.9350128173828,
                    "PreviousLayerNeuronValues": [
                        0.005764021538197994,
                        -0.06156707927584648,
                        -0.028962546959519388,
                        -0.027580654248595239,
                        -0.061774253845214847,
                        0.007777581922709942,
                        0.01384968776255846,
                        -0.15848170220851899,
                        -0.033381856977939609,
                        -0.02920510433614254,
                        -0.15839934349060059,
                        0.013989825733006,
                        0.04377443715929985,
                        -0.21209025382995606,
                        -0.029632557183504106,
                        -0.02068451978266239,
                        -0.21213850378990174,
                        0.042635902762413028,
                        -0.7309497594833374,
                        0.002229205798357725,
                        -0.23541957139968873
                    ],
                    "Weights": [
                        266.2402038574219,
                        516.8716430664063,
                        -512.4765014648438,
                        -406.2456970214844,
                        -89.79428100585938,
                        111.53968811035156,
                        -279.3037109375,
                        -101.61544799804688,
                        -84.07820129394531,
                        827.9402465820313,
                        152.57144165039063,
                        -487.90673828125,
                        161.51722717285157,
                        142.2135467529297,
                        -103.66329956054688,
                        267.54962158203127,
                        -134.57305908203126,
                        -535.6587524414063,
                        -585.0512084960938,
                        450.39935302734377,
                        17.171905517578126
                    ],
                    "Bias": -141.8687286376953
                },
                {
                    "Value": 459.7576904296875,
                    "PreviousLayerNeuronValues": [
                        0.005764021538197994,
                        -0.06156707927584648,
                        -0.028962546959519388,
                        -0.027580654248595239,
                        -0.061774253845214847,
                        0.007777581922709942,
                        0.01384968776255846,
                        -0.15848170220851899,
                        -0.033381856977939609,
                        -0.02920510433614254,
                        -0.15839934349060059,
                        0.013989825733006,
                        0.04377443715929985,
                        -0.21209025382995606,
                        -0.029632557183504106,
                        -0.02068451978266239,
                        -0.21213850378990174,
                        0.042635902762413028,
                        -0.7309497594833374,
                        0.002229205798357725,
                        -0.23541957139968873
                    ],
                    "Weights": [
                        216.57064819335938,
                        358.4381408691406,
                        -148.90414428710938,
                        108.31330871582031,
                        -334.8037109375,
                        -285.4782409667969,
                        -198.10423278808595,
                        102.33477020263672,
                        -245.69833374023438,
                        270.3468933105469,
                        -276.3072814941406,
                        7.538839340209961,
                        447.3404541015625,
                        -295.8014221191406,
                        -281.8975830078125,
                        -209.25196838378907,
                        -312.755126953125,
                        -150.81622314453126,
                        325.8396301269531,
                        -331.18585205078127,
                        161.19427490234376
                    ],
                    "Bias": 557.5147705078125
                },
                {
                    "Value": 719.7057495117188,
                    "PreviousLayerNeuronValues": [
                        0.005764021538197994,
                        -0.06156707927584648,
                        -0.028962546959519388,
                        -0.027580654248595239,
                        -0.061774253845214847,
                        0.007777581922709942,
                        0.01384968776255846,
                        -0.15848170220851899,
                        -0.033381856977939609,
                        -0.02920510433614254,
                        -0.15839934349060059,
                        0.013989825733006,
                        0.04377443715929985,
                        -0.21209025382995606,
                        -0.029632557183504106,
                        -0.02068451978266239,
                        -0.21213850378990174,
                        0.042635902762413028,
                        -0.7309497594833374,
                        0.002229205798357725,
                        -0.23541957139968873
                    ],
                    "Weights": [
                        -105.47407531738281,
                        507.86529541015627,
                        373.14959716796877,
                        -142.97064208984376,
                        -278.05743408203127,
                        -298.23931884765627,
                        179.17282104492188,
                        -356.91290283203127,
                        79.7496337890625,
                        -142.39544677734376,
                        140.6668701171875,
                        -233.43661499023438,
                        72.36296844482422,
                        -476.31939697265627,
                        76.27545928955078,
                        -219.683837890625,
                        -3.409912109375,
                        97.11264038085938,
                        -547.967041015625,
                        586.1927490234375,
                        -140.87794494628907
                    ],
                    "Bias": 162.2470245361328
                },
                {
                    "Value": 0.0,
                    "PreviousLayerNeuronValues": [
                        0.005764021538197994,
                        -0.06156707927584648,
                        -0.028962546959519388,
                        -0.027580654248595239,
                        -0.061774253845214847,
                        0.007777581922709942,
                        0.01384968776255846,
                        -0.15848170220851899,
                        -0.033381856977939609,
                        -0.02920510433614254,
                        -0.15839934349060059,
                        0.013989825733006,
                        0.04377443715929985,
                        -0.21209025382995606,
                        -0.029632557183504106,
                        -0.02068451978266239,
                        -0.21213850378990174,
                        0.042635902762413028,
                        -0.7309497594833374,
                        0.002229205798357725,
                        -0.23541957139968873
                    ],
                    "Weights": [
                        197.7464141845703,
                        -143.8243408203125,
                        275.5301513671875,
                        88.89302062988281,
                        -117.16749572753906,
                        -276.97637939453127,
                        412.3577880859375,
                        190.09170532226563,
                        179.41201782226563,
                        -94.45707702636719,
                        15.337207794189454,
                        -273.19061279296877,
                        -4.574211120605469,
                        11.24698257446289,
                        254.62371826171876,
                        -235.29278564453126,
                        -364.537353515625,
                        121.6795883178711,
                        336.3287353515625,
                        189.08151245117188,
                        200.3538055419922
                    ],
                    "Bias": -401.10003662109377
                },
                {
                    "Value": 0.0,
                    "PreviousLayerNeuronValues": [
                        0.005764021538197994,
                        -0.06156707927584648,
                        -0.028962546959519388,
                        -0.027580654248595239,
                        -0.061774253845214847,
                        0.007777581922709942,
                        0.01384968776255846,
                        -0.15848170220851899,
                        -0.033381856977939609,
                        -0.02920510433614254,
                        -0.15839934349060059,
                        0.013989825733006,
                        0.04377443715929985,
                        -0.21209025382995606,
                        -0.029632557183504106,
                        -0.02068451978266239,
                        -0.21213850378990174,
                        0.042635902762413028,
                        -0.7309497594833374,
                        0.002229205798357725,
                        -0.23541957139968873
                    ],
                    "Weights": [
                        -418.67425537109377,
                        -29.78348159790039,
                        57.58987045288086,
                        -85.03202819824219,
                        -256.3282470703125,
                        -359.3355407714844,
                        135.511474609375,
                        263.3622131347656,
                        -375.7313537597656,
                        -761.5792236328125,
                        -252.79635620117188,
                        -362.25140380859377,
                        -402.9676208496094,
                        21.2358455657959,
                        -471.2901611328125,
                        507.02801513671877,
                        67.50802612304688,
                        -231.00418090820313,
                        393.3532409667969,
                        66.18409729003906,
                        336.0552978515625
                    ],
                    "Bias": 313.5410461425781
                },
                {
                    "Value": 122.97018432617188,
                    "PreviousLayerNeuronValues": [
                        0.005764021538197994,
                        -0.06156707927584648,
                        -0.028962546959519388,
                        -0.027580654248595239,
                        -0.061774253845214847,
                        0.007777581922709942,
                        0.01384968776255846,
                        -0.15848170220851899,
                        -0.033381856977939609,
                        -0.02920510433614254,
                        -0.15839934349060059,
                        0.013989825733006,
                        0.04377443715929985,
                        -0.21209025382995606,
                        -0.029632557183504106,
                        -0.02068451978266239,
                        -0.21213850378990174,
                        0.042635902762413028,
                        -0.7309497594833374,
                        0.002229205798357725,
                        -0.23541957139968873
                    ],
                    "Weights": [
                        118.9657211303711,
                        454.40338134765627,
                        205.3343048095703,
                        -99.07896423339844,
                        -300.7501525878906,
                        74.8532485961914,
                        -148.95545959472657,
                        205.59765625,
                        -51.27341079711914,
                        -215.85279846191407,
                        786.2071533203125,
                        -123.47471618652344,
                        362.15203857421877,
                        -116.27540588378906,
                        173.4429931640625,
                        428.07855224609377,
                        72.35635375976563,
                        78.69007110595703,
                        2.9232139587402345,
                        -485.4755859375,
                        57.301368713378909
                    ],
                    "Bias": 289.390869140625
                },
                {
                    "Value": 505.9029235839844,
                    "PreviousLayerNeuronValues": [
                        0.005764021538197994,
                        -0.06156707927584648,
                        -0.028962546959519388,
                        -0.027580654248595239,
                        -0.061774253845214847,
                        0.007777581922709942,
                        0.01384968776255846,
                        -0.15848170220851899,
                        -0.033381856977939609,
                        -0.02920510433614254,
                        -0.15839934349060059,
                        0.013989825733006,
                        0.04377443715929985,
                        -0.21209025382995606,
                        -0.029632557183504106,
                        -0.02068451978266239,
                        -0.21213850378990174,
                        0.042635902762413028,
                        -0.7309497594833374,
                        0.002229205798357725,
                        -0.23541957139968873
                    ],
                    "Weights": [
                        379.14501953125,
                        394.83172607421877,
                        245.66607666015626,
                        24.53728485107422,
                        497.75,
                        -219.69290161132813,
                        -184.93319702148438,
                        -393.7580261230469,
                        340.3960876464844,
                        -180.49046325683595,
                        -287.9066162109375,
                        -254.2272186279297,
